solver_type L2R_L2LOSS_SVC_DUAL
nr_class 10
label 1 2 3 4 5 6 7 8 9 10
nr_feature 8512
bias -1
w
-0.0007277890747524921 0.004216661310658508 0.002390872045596292 0.001331216715181545 0.004642948441137169 -0.005985878753266506 -0.000645975740378173 -0.001743902266811609 -0.01527961083847602 -0.0003438356189153262 
0.005736066583742528 -0.01142533717304304 0.002112250149567025 0.002771224312263105 0.001502722461542614 -0.00495359964132155 -0.002006686760498783 0.001579814554494163 -0.007377506083009596 0.01848553586221224 
-0.003254144483404038 0.009075804958503594 0.003493871018514176 0.005401354418268253 0.004541659744852105 8.503786541590091e-05 -0.00184674938442061 -0.002816343915358009 -0.000928270942163844 -0.004871030917520978 
-0.01481113478736208 0.01325072016751342 -0.01166541684075661 0.006863854280901027 0.01194799992256654 -0.001942851633222613 -0.004781561324398389 0.01222130139646089 0.007443848543671304 0.003991737094908744 
0.01663228148813476 -0.01074875360561546 0.008999532080863733 -0.005646171023045055 -0.002538162781770348 0.003754627855471847 -0.02696637628916013 -0.001953403220017492 0.02295556994498928 0.003621962546978256 
0.003379569402365421 -0.01238883793622151 0.01131546991582358 0.001687531004134585 -0.007119537001327501 -0.002012894524256008 -0.006039820735383459 -0.008842568136448625 0.01687723258936223 -0.008009592392927594 
-0.002808859294268524 0.01716750529604742 -0.002336113000576968 -0.003247543631021315 -0.002111571793880344 -0.003740562765254082 -0.002692968505676325 0.001620951611359922 0.002180723895632587 -0.008041466902407503 
0.002374787079777435 0.0005152608403374993 -0.007045231955998076 0.00441679527341426 0.006802769707745194 0.001750126480794231 -0.0004641679788190174 0.008515139945172006 -0.003975614368433544 -0.0009101376339203321 
-0.002203110037086428 0.007419151507104352 -0.001245010076828023 0.006798506965723226 -0.003291516139092818 -0.01145531494173939 -0.005104350677205361 -0.003774199320459866 -0.007559390488615555 0.00851763963137302 
0.003180840612243114 -0.009889313136234517 -0.0008102394707800831 -0.0006546400855711323 0.00471449991126117 0.005989506240604689 -0.00859629491946682 0.003502049980455901 -0.0002424390632405725 -0.00657211671249253 
-0.00329529758471855 -0.008243267688675501 0.01489260230951321 0.00414479702992719 -0.0001247925133928907 0.006182972922366172 -0.001587567239311934 -0.0001956913622515674 0.006688904923448094 -0.005718816535311294 
-0.006084716849385927 -0.007942612654011767 0.004404658896388789 0.003627257317979496 0.006864578490606712 -0.002528148187701617 0.01664971409193367 0.007702623485860694 -0.0003455302419770343 0.002110345536611933 
0.009540339672776002 0.0006498277418715719 0.001992882570777533 0.003415062636597766 -0.006305743366886149 0.004470735036584361 -0.001698995542082433 0.002287082211310764 -0.01813272030789125 0.01156526050060717 
-0.0003994210842779084 0.00359348241684769 -0.003487738238234362 -0.007693499708208022 -0.01155107662042666 -0.003660594998080157 -0.002272704779384756 -0.003692510752669021 0.02512768740150191 -0.005663590326314872 
0.008091949972661616 -0.01268266393178377 -0.002681163894222059 0.001984589379528445 -0.008634906406880567 -0.009121315942317085 -0.003912896090071818 0.002016021049566451 0.009819139173699821 -0.002812242876078771 
-0.0006737199235481204 -0.0009857074499442365 0.0007261762688233019 0.003735677332151831 0.02103159442361572 -0.003168422755963754 0.009147673305203198 -0.002701891942078214 -0.002238227470636145 -0.006191192414145579 
-0.006206660433674224 -0.0082514356880875 0.001979740151712458 -0.001982409266014131 -0.003610587222274264 -0.003771846076376427 0.008165134505265003 -9.769593148947048e-05 -0.004790929802639381 0.01880482953769039 
-0.007445112246755902 0.006357927691954273 -0.01285104624736674 0.00171272196819637 0.003395479094054952 0.01127642373719954 -0.005900638878769302 -0.003324668901550678 -0.00637033935366364 0.003555786698607749 
-0.01076833032589131 -0.01448506152232762 0.02909953741425648 0.007041414286447741 -9.559480758486009e-05 -0.002011509906104946 0.003297193510404151 -4.717945145087039e-05 -0.00706375436247887 -0.005053113296369882 
0.002414252263862854 -0.007184317692515663 -0.003952115607577405 0.01010716661703861 -0.008062291533205302 2.821355974143342e-05 -0.007654003911915694 0.006320062721822212 7.110418000416883e-05 0.01439007389649349 
0.01703616074947212 -0.004923530237785166 -0.002386180234596625 -0.004875240618517117 -0.0004426797643434914 0.003198808324709363 0.01308254541699471 -0.001550673488808636 -0.01944615424440115 0.01551317734920032 
0.003023275584065488 0.003646870862336628 0.004606088713147181 -0.00594788951091672 -0.002730373854650408 0.0008525658176369679 0.003440499534093634 -0.002480448488561392 0.009719875286645859 -0.01846423707865878 
0.001976080083183655 -0.02255593782925357 0.00108552911760943 0.003497879864859109 -0.002732713177248992 0.001058218449570695 -0.006729419189454697 -0.001032612751744364 0.01593293067954039 0.0001073683848446897 
0.00634848732528268 -0.006285792639357799 0.001453180824357381 0.002147398801642019 0.02121407746394508 -0.001460806603609076 -0.007423557735775094 0.0004508921248638427 -0.004877477366383322 -0.005161620942247215 
-0.005338569092926943 0.00419251439562458 -0.01256573045252227 -0.003971443709067441 -0.001214557392860263 0.007560050536216184 0.01143920163044415 -0.002133877792650732 -0.002098296922336898 -0.0002706241339518421 
0.01469807134866825 -0.004176042503488192 0.008379626549126466 -0.007354131809448252 -0.00821223493456346 0.008524582199155596 -0.01408676182980943 -0.004259088709405237 -0.0166923469598695 0.003313312853267388 
-0.004140059986216331 -0.005780691528202423 0.02770390729783868 0.003056359760569029 -0.0108649042597337 -0.005592619141103503 -0.0221800371603845 0.0006087287711831665 -0.007557417122521943 -0.001304427479873628 
0.001115137726753779 -0.008717046206693 -0.003469945815686345 0.003056636223180496 0.0001063939658759009 -0.005227444959240494 0.007582770110823454 0.0107513076730265 -0.00451069497890522 0.01123109008334319 
0.0001193828596081938 -0.01248397504382333 -4.289778758793289e-05 0.004658209454216892 0.006622193003477726 0.001093631694906407 0.008566315488562468 -0.001214351832518591 -0.01258902286812059 -0.007490398369089745 
-0.01382022016337716 0.01076989402832269 -0.01128088929331446 -0.003460094165078688 -0.004531869757254799 -0.001345721568050567 -0.003267227551537519 -0.003119112640692436 0.02089829305642284 0.006487565230805269 
0.01053833498619968 -0.003143785219594608 0.008772871346992778 0.004199790171044795 -0.01142693148506218 -0.00364613083450582 0.0003080352003950442 -0.006098128031636619 0.01428802735735104 -0.004652279255330107 
-0.001419301539750511 -0.01260329052409759 0.004908661062268628 -0.000152146572252238 0.00307518037939001 -0.0005845640522994596 0.003038521887621817 0.001892970134505403 -0.006345538149830804 0.005555649488019146 
-0.004203062089297676 0.0007403007953150185 0.005412227369157796 0.005284527422970477 -0.004501907000793019 -0.000764765351159263 0.02237095042585091 -3.950736762008718e-05 -0.003813826841424342 -0.008952059298429908 
-0.005797880350771977 -0.01334485625915981 0.0008862339134705753 -0.004567955936821978 0.01024326383706321 0.004991222780721711 -0.004856766348036429 -0.002859064735512501 -0.01625340811343523 0.01483020504149759 
0.001935670181768013 0.01375564501917339 0.007554601947942443 -0.004355812719331376 -0.00669549426658185 -0.007490752285335522 -0.01361765927409233 0.001057957464058652 -0.01734993616381148 0.01670007378889324 
0.007911896473386928 0.001684287687841368 -0.001910134736476119 0.006778897175877497 -0.02074242597926673 0.00162863244264322 -0.01121334079056411 0.001543850970031233 0.004569047326171227 -0.01500766440458806 
0.003091369570846095 -0.01798689557726673 -0.003609689245332144 0.006961134202761424 0.02238375299716369 -0.003176929778143799 0.01207419631121837 -0.002674754819319367 -0.01294925768631535 -0.007809539738651239 
-0.01648761079197647 0.003785764028142737 -0.002151834068808126 -0.01009452671947315 -0.01542777635674083 0.004908712623880047 0.0006940812451328942 -0.01046800839383987 0.01520411509508373 0.01215925870107432 
0.007386182688812771 -0.008195774934520806 -0.002920166757679094 -0.004930492889130306 -0.001233368576245725 -0.001593394946759885 -0.02203861044165543 -0.01211864729261059 0.01900833844321831 0.008199196567709476 
-0.01329888161977965 -0.001712757054448924 0.001218256397880986 -0.0005243641592714553 0.0105124822388977 0.005479237351196841 0.01109465965776524 0.0122063591255318 -0.001810140126862203 -0.003641831742712454 
-0.004241346335453008 -0.007845460544576367 -0.002456744368323345 0.006746959379367167 -0.0127739751149428 0.002462861264322481 0.02494380482676287 0.005387141173506406 -0.005386385217693575 -0.0057790974026196 
0.01112786669464496 -0.003014675688914521 0.0009533650617073279 -0.001134868105309404 0.01416575503890112 0.004683569499539854 0.0108699514999878 -0.004074585398596859 -0.01338590576540143 -0.01016889491125471 
0.003856885435268651 -0.007767769675565928 -0.002378099446932411 0.001550311140052984 -0.004340299359881788 -0.006346737879797626 0.004910689535984338 -0.0003092890124649515 -0.006347784504053738 0.01478717228861798 
-0.0154648495582458 -0.003746422534565779 -0.001407024846800483 0.0008696701955219171 0.002693421270830626 0.0005072426712956528 -0.01102873993021775 -0.005034085080113184 0.0002629710783213624 0.0137350217600674 
0.004033739232279458 -0.0009082832674884547 0.01990656135271133 -0.0008285653439594571 0.001802074199057717 -0.001499503659795587 0.004996340800201254 -0.006942391328278112 -0.005028698032352842 -0.0113819850811312 
-0.008486645031972573 -0.01325948860151808 -0.008654250797662117 -0.00783412043464477 0.002923552627220587 -0.003876346116479123 -0.01156979087049608 -0.002106285144911316 0.01553076730455696 0.01152897556612855 
-0.005193668233240698 -0.008796349791949657 -0.01466867497918759 -0.002366020023252021 0.02125427805427648 0.0004005208123621654 -0.02607953359204726 -0.008966832008742398 0.02070453460916761 -0.002209071810748293 
0.004834358807841855 -0.004014455443142655 0.0008952300933195855 0.009083687913857415 -0.01895817703395397 0.003241148603258942 -0.003301461937216128 0.004597500300764624 -0.01236189812339675 -0.007881723633305438 
-0.004664139564701973 0.00645993992272208 0.01082027929321804 -0.0028298000570159 -0.01261080579225535 -0.000129497420492262 0.007659106223510517 0.0104597415227266 -0.01183624188573479 -0.001820820305458538 
0.008133923352563535 -0.01756596202073186 0.005610945139094887 -0.005802831485608325 0.01544435296131318 0.009428364462139594 0.01831798593939536 -0.006893098309277221 -0.00687839987539325 -0.02343179390748005 
0.003145120041673612 -0.01009753985169419 -0.0006423708228064804 -0.006190538837170093 0.005630844010061818 -0.0003860388175324496 0.01562764982868544 3.979830765583638e-05 -0.002243881818328314 -0.005411752490856299 
1.757340015312277e-05 -0.0009002010198841148 -0.005896638614149105 -0.009111063233986928 0.003412984205411525 0.003439923774754067 0.004356177790248591 0.001679390580721346 -0.003392901472051785 0.02358061939692243 
-0.01112035403855824 0.008850787881893959 -0.004989465001075011 0.01473675289951813 -0.0135685060764415 0.0004539229532693623 -0.005631212357511448 -0.005649729777525385 -0.008114830450074204 -0.010677717165394 
-0.00591060556966063 0.002007519035739642 0.001163018287784054 -0.008970673160471263 0.002117356489551859 -0.002725718226229233 -0.0004206930178379469 0.005699476662174541 0.02444658200962273 -0.01367099210139744 
-0.001524549434849484 0.005577674332121807 -0.01396979473673894 -0.003164781721402522 0.0005519333358619991 -0.003836398075494884 -0.00594257269859386 -0.007660317379014615 0.02573966484063649 -0.004265099364870065 
-0.005361920032430479 -0.01031157861102844 0.01361625769454012 0.004522542457882296 0.01859653282893625 -0.006625837857668205 0.01210419461872555 0.002663452417780082 -0.003578184246080984 0.008796903888392264 
0.01162537790688676 0.0084079530611626 -0.006451069273991677 0.006945192963655096 -0.02375830663525679 -0.0009327404371807254 0.0002463444259151761 0.01589264415939029 -0.007351803046141806 -0.002847907907258084 
-0.007538702263174294 -0.00241231975719019 0.005695792540355768 -0.009688328741944238 0.0009657663775131737 0.001356927723153901 0.007913740057412818 -0.0008932811686611693 -0.01498938006339362 -0.00389459767746543 
-0.003691307800413544 -0.01372403341145182 0.0007965733965302808 -0.009305193055982784 0.02121317519843182 0.009286047309645501 0.003059583967492397 -0.002126269103044367 -0.01322659071027621 0.001442935177610931 
0.01596622126381736 0.005456420019003768 -0.007303862242967914 -0.00698313233298012 0.009380377006770994 0.004131197604512179 -0.00294711509501957 0.003763128758552091 0.0007559103699974354 -0.001536518700929627 
0.01065136035322739 -0.005523233317025001 -0.007891197388233412 -0.005118494304887723 0.001651176676566886 0.001509274649365831 0.007969440110570537 -0.009547745270504728 -0.003424089686233777 0.0008043884466365654 
-0.002245356025599799 -0.01128081049185063 0.005761554910430496 -0.005972871153699865 0.00874110128147744 -0.003182908959511092 -0.009690466416319736 -0.001468062191947285 0.02477711165677918 0.001084223793621496 
-0.01050129829854825 0.001628320916998208 -0.01739758761865187 -0.004616669416145211 -0.004780845625521635 -6.962271174315805e-05 -0.006620278579011698 -0.004013452891242283 0.02644710693269793 0.004609149627403877 
-0.01178938349950884 -0.01574431600228525 0.02067353576753986 0.01922239013998907 0.00361013741441613 -0.005317052157344576 -0.004002791392940848 0.002615338100377105 -0.01340089394527354 0.008624919777061117 
-0.004970495775070306 0.01881581898273685 0.01204021646780268 -0.0009946509634093977 -0.00390694320922169 0.00458360124747306 -0.01228666758255697 -0.002253720784280277 -0.02074926706015591 -0.01578568714938738 
0.0009952889230548396 -0.01355701811859743 -0.002057450059085049 0.003074263642525879 -0.001415336129021939 0.003436151646547839 0.002471399140497805 -0.004395645420434666 0.001890748957466896 0.01214641887291842 
-0.009430753510229897 -0.005007831591948106 -0.004257744938563891 0.003672932771172582 0.0003056477827349154 0.006848935730098852 -0.003926226469668595 -0.001936826602415402 0.0006890219451254309 -0.001477983523120736 
-0.01307683554183066 0.001002535328560664 -0.0002290413310038552 0.007894222987920684 -0.01581057519220003 -0.003130233892935877 -0.004201465359815832 0.01280965279155287 0.02007552131699421 -0.009704526484438597 
-0.001974045558851753 0.003209396231708991 -0.009048304655352403 -0.01104398021710921 0.01331685673255718 0.008137975151896099 -0.01790674017953932 0.0009605099190327614 0.01382794045754713 0.001479011792907625 
0.009190060504935782 -0.01241724643631842 0.002141262822454657 0.003528779094346981 0.01133173302921126 0.002368109544356956 0.003858401313706087 -0.004844809759539491 -0.01288899629000004 0.0002617547985457154 
0.01423558703036994 -0.001014532039535305 0.001817594309224781 0.0005015945506629865 -0.002091356233180242 -0.007268221034401031 0.006651051242609407 -0.001449334132542517 -0.009463822822296779 0.005741180485311546 
-0.006522691915480259 -0.01239801022256233 0.0109577947694536 0.003466314842825446 -0.00207428344427009 -0.006004436739331737 0.01905996046510394 0.008244194126756052 -0.01355165817351189 -0.002490007557862093 
-0.00889080070337497 0.01232532708143339 0.00728638206755881 0.001404813123305852 -0.01544420418518272 0.0009888323793186206 -0.006944252624653543 -0.005649880254367739 -0.006101254665588751 0.01915947769330782 
0.01952489308726884 -0.01314644811756286 -0.002007370366183298 -0.001431151276640383 -0.007087019784720406 -0.002849666978651579 -0.003952349778811035 -0.007894416680447864 -0.003963847380722149 -0.01043867962671421 
-0.00498633162582386 -0.005609247036371115 0.006092476072809411 0.004606280183965999 -0.003190965880381428 -0.0006846326720990409 -0.003036921235514297 -0.0007907878017296036 0.007273750731024399 -0.003367141298338407 
-0.01390818554134715 -0.002017739025014226 0.007907046012132594 0.003194925343799006 -0.01149857575714514 0.003897181210799849 0.0005599562461674052 0.004503540498916577 0.001701937130293849 -9.886704835530641e-05 
-0.008265187375400825 0.01043651444624527 0.003801927896614465 -0.0006358948425503762 -0.01153530113404132 0.004649333840080321 0.003625005171297489 0.001127643620608128 -0.01796770824383372 -0.0007137111605636611 
0.008962262001672164 0.01080247188682946 0.0004761923325382236 -0.00167251437284965 -0.01728630900338947 0.001705085876078422 -0.0065594956742638 0.002122814413454431 0.0006076360580191914 -0.004772638598846348 
-0.005424739660892608 -0.006508897338218607 0.002623563680132023 0.002962675035635423 -0.00030430432634602 0.002913723750798001 0.009828524708788393 -0.004858737985175375 0.01398664846594205 -0.0005657934400187349 
-0.01043085292221882 0.002201618669682368 -0.003672601875548717 -0.003144514834717264 0.01705357785209659 -0.002207238029301832 -0.0007138501983973083 0.002399914144245831 0.01057597728689903 -0.008996975299211668 
0.01505035968037512 0.003367994191522861 -0.001137508405149042 -0.001459886540540802 -0.004616913739079094 -0.00481683571973367 -0.01376026808134905 -0.001552161697113376 -0.005089485382805043 0.0004006799536851366 
0.004283702850061982 0.007009676799552616 -0.001977276494826259 0.003332964906853455 -0.009331098925874099 0.003332059833122335 -0.01655944611104052 -0.007479588487757725 0.00661075696371877 -0.01744813657766529 
-0.0006059099604875294 0.0006867146602248098 0.002639847533912044 -0.0001721583065322198 -0.0105188439985762 -0.001073400578117184 0.01064904274884668 0.002224728105293531 0.006538362347667848 -0.007781860100299803 
-0.003874872325326728 -0.0053531361316304 -0.0006282612302203297 -0.001582004933262507 -0.009182978225257619 0.01066291513472641 -0.002220469740925439 -0.0002358934732949041 0.006211384323726937 -0.004324737057376644 
-0.003353457572146546 -0.006049837672322851 -0.01088188620723728 -0.0004637703184308327 0.00265487537016169 -0.0007573508597349441 0.01071852434595516 0.004011987982657643 -0.0003889457979409161 0.004054801525707277 
-0.008680102927691332 0.01526460870147376 0.007821188475209576 -0.0005570886756587914 0.001273083287814541 -0.007517728865997734 -0.007232130215496014 -0.004991775178877271 -0.003478621682382595 -0.006369753666490057 
-0.008033749413732406 -0.01560030971819271 0.007722972354708006 -0.000271313737026155 0.008261180678586061 -0.0004840072711119301 0.01603101482080506 -0.0003691875783862996 -0.003358728385287206 0.0004126793383759465 
0.0008677984087744553 -0.01380546262185991 0.009354285569949652 -0.0008884956477807853 -0.004324186966095695 -0.002305449043196922 0.005708492779474816 0.003137251059957737 0.002152842918310969 0.002061278180087559 
0.01363504956729667 0.0007199480552998802 -0.002091587077296635 -0.004734211231180297 -0.01908528282675237 0.002099422101197682 -0.01469361289928582 -0.002221555573670459 -0.004989327550377983 0.003983605456840319 
0.001473401114107838 0.000850503950499973 -0.007614380851378084 0.005019731226513972 -0.01590432443525759 0.001893223012406225 -0.003071043385066357 -0.003767619386684024 0.00509395716319406 0.002749910787336506 
0.001575192526036743 0.001281250072771913 0.01120690728794397 -0.0002775847026376617 0.00575834845858129 -0.001863113371143346 0.01006993456372703 -0.003008886032251906 -0.008927280442194402 -0.01594870455867918 
-0.001290375757807883 -0.004363642274873076 -0.01222958872073847 -0.006290837535789938 0.01107122586694739 0.0003811183565221914 -0.005564237886819469 0.0139756036869495 0.003306706952234072 -0.00994170273094051 
0.004226762820716992 -0.01003501562907645 0.0007119700356878683 0.006370045443541143 -0.003645426814658611 -0.006203690870115974 0.007082524075842932 0.000276957200817825 0.009000389540686679 -0.01696685046799755 
-0.002147391637352271 0.01888577930128684 0.008509042577736483 -0.005060187875564106 -0.003869605377722475 -0.00377859412721692 -0.002035212417599593 -0.002091730521349141 -0.003099342625645048 -0.005734944901352881 
-0.002330541103645268 0.004732194881012553 0.01640621153519211 0.003246537942695774 -0.0006478400999517331 -0.000204566276288748 -0.006872182231884121 -0.005854475405156792 -0.01796585614999886 0.003748953398427956 
0.00784695489619323 -0.008289142663898869 -0.001396825132680243 0.001471377463457993 -0.003821244138273308 0.004098172701100656 -0.005437084734651773 0.002190870665496134 -0.01156056107691496 0.003365669484368177 
0.004367832678501518 -0.006258984374267721 -0.01569263219763995 0.01078121965701965 -0.003203724878791211 -0.004825350434557018 -0.002816350107499084 -0.007024914257138736 0.01371341163938706 -0.01396557675865347 
-0.006548961988101008 -0.007871344860091162 -0.005589655698473521 -0.005226517287258574 -0.00308919282826926 0.0007384596075699686 0.004060945941338654 0.002489908589095671 -0.007665958820790628 0.024197110184732 
-0.004001850597621548 -0.002443999128396785 0.0164399940516186 -0.00499823083343984 0.01715616625650697 -0.0007246061281715842 -0.01121942742993125 -0.009065267080477805 0.003335489718198887 0.00561032378949057 
-0.002204356101534651 0.004673768655221892 -0.005412100933046463 -0.001225418545040177 -0.0003872128037507608 0.01162791634189838 0.002340131467577648 -0.002092388384781547 0.0006602276114442279 -0.01340181442322163 
0.002641654369144106 -0.007556451294089724 -0.005682041643479749 0.009929518292532699 0.002792610934277811 -0.005890093870669949 -0.005931013453972983 -0.005888619221086903 0.007668547017855098 -0.01160923930295351 
-0.001194939275562179 -0.00549281368777391 -0.01198663976658946 -0.008545329022729609 0.006463243761882898 -0.005318705774405 0.0244644528601972 -0.002349436316392739 -0.0231655040208963 0.005707537246359463 
0.003529857733833363 0.002466602054276866 0.006313577227265259 -0.01012994481967186 0.001578687385638899 -0.0001252060238625439 0.005952312373482889 -0.00370668278999602 -0.009421775146908989 0.00518272941496165 
-0.006886413822922539 0.01756309023131348 0.00784793862491368 0.002038021219215304 -0.01217771445241286 0.01323313843738075 -0.005463982180969065 0.007245227485336606 0.002248903335590161 -0.0180126755887848 
0.004904929989878039 -0.009582588522979944 -0.007454385997802415 0.004168388455413325 0.001088365335335887 -0.00412864337232853 0.0017272775494453 -0.003439157734161954 0.01041272931964908 -0.01838343284770771 
0.005354617288462963 -0.01375638057360648 0.004962921830475824 -7.972941990394959e-05 0.01488092918384203 -0.002399267561157617 0.005679813837747693 0.001416209736495775 -0.005811515537553464 -0.006586720078455266 
-0.007658824257622698 -0.0109916765328789 0.0175494152270322 0.0003196192059458028 -0.003517973624983696 0.002043228594325367 -0.001602559621425724 -0.00431621742251925 -0.005251367362624475 0.009872495785483519 
-0.003823169232814615 0.0155164111246538 -3.765393204239805e-05 0.0008776915910495922 -0.005717770511043383 0.0115263911303654 -0.01275594072448581 -0.006929425560718567 0.002149112848290577 0.004597236176080059 
0.006828952512396776 0.00117142852561672 0.003479641866993344 0.0009277048399097876 -0.002971510255017804 -0.008319183917350936 -0.0007022266656464747 -0.001166316495974373 0.006587684233518986 -0.005813652574759157 
0.0007649101665681391 -0.01320590263121345 0.004858756617545841 -0.005974961528979719 -0.002609102441297595 -0.004130374197360519 0.00853302945025756 0.006266620646374537 -0.002019966119564985 -0.0139074843206207 
-0.005486898137146515 0.001349376449092449 -0.0006729520439423325 -0.002406243210475009 0.01564578827670526 -0.003423799544331759 0.008398588305829631 -0.009446560532121846 -0.005150076437749434 0.007725874452359057 
-0.003857459148658292 0.007204678173807341 -0.01598601635788167 -0.002327245191680398 -0.004603094599795341 0.02292928784629458 -0.01087093370662024 -0.001043237790474169 0.004072267921212005 -0.01689196076693401 
0.00615518256289297 -0.004478451546515961 -0.01217557836400048 -0.00862155168811575 0.004649737428415656 -0.001352875141917632 0.01419721505200787 0.003039795339507723 0.008715974938094147 -0.006011642375799922 
0.008911104504999262 -0.006845843556019525 0.007948783014717721 -0.00573993857858199 0.002946172009882939 0.002044225977104898 -0.006864164445678172 -0.001980978870481443 0.001844900642421778 -0.0131827586664872 
-0.00403912425099463 -0.005636849901638004 0.005921524462750407 -0.001744082796800843 0.002357570370409923 0.01334539743256114 -0.01286640261277787 -0.003794242316399864 -0.006362103364803966 -0.004923224731803787 
-0.01467477760603145 0.009279007228786803 -0.001738934846050443 0.01051586913529922 -0.003700807155708937 0.0005013383688097076 0.002442012187708455 -0.0023561396655588 0.003792681918810489 -0.0001259470028827163 
-0.004359869917915895 -0.000422446403515925 -0.005943603306460778 -0.002985087749050997 -0.01315972815081728 -0.0071435649560601 0.01128088819017862 0.004208644881719912 0.01250108838667953 -0.004523086357396778 
-0.002095173401893256 -0.01028059320472575 -0.009074352750272265 -0.004349561528789587 -0.0009647075897660324 0.005245335227016638 -0.00665634896478955 0.004578731223941316 0.0003080649186199514 -0.0119586206160101 
0.003721547069191378 0.003385946642253256 -0.0002470920151132602 -0.003967857682821957 -0.005064638219191704 -7.32814914819648e-05 -0.02189247888133028 -0.008884651227004685 -0.002002118775480526 0.005511848563292791 
-0.003816367585416971 -0.002539557522578817 0.002601193881706407 0.0006118248566853983 0.01025603823733311 -0.006268917218045607 0.01432319577940368 0.005460792844134031 -0.009197977411082756 0.005125230606919919 
0.007095018925888202 0.002914559664718366 0.01362515597282336 0.0002913264304819791 0.001347760532201345 -0.003547856866644087 -0.01919762400256547 0.001385898154247835 0.004797514290287841 -0.008325387073551413 
0.0150097325297769 -0.005922806432170029 0.004446183110352244 -0.003869521384632551 -1.884604766375688e-05 0.001027425388908342 0.004292641718674755 0.001547677752581445 -0.004484175626023845 -0.01780030636928936 
0.01671714010648042 -0.001867825414679696 -0.003909320687932572 -0.005263055008867952 -0.01183722266457207 0.006071737464904581 -0.004677092834381106 -0.003486497215963367 -0.006135412014808992 -0.01429752908106231 
-0.003975332874219488 0.001867769250369811 -0.01344343029388301 -0.009631109224837637 -0.01292692762325422 -0.00189813770715329 -0.00223312405822259 0.002229975426288392 0.004981733311797983 0.01276961847901962 
-0.00540319130469133 -0.005841707421090373 -0.008179428198341087 -0.0002370933006135204 -0.02110475224656391 -0.0008776156439111223 0.002066647018654053 -0.003915392244856878 0.01559290843051891 0.0008674962090336287 
-0.01829608362433249 -0.002475823950954833 0.008042507931374036 -1.440819248530593e-05 0.004549435846749311 0.003616431707507093 0.002224012854766211 0.004297397752374196 -0.005039161313688989 0.003641188785209681 
-0.007973312619126273 -0.002298806901784813 -0.002160562842717212 -0.003249483002210686 0.02601144577217234 0.002996717537137927 0.005960331487481504 0.003283279329980872 -0.003274709102287399 -0.009472051787939643 
-0.01182506373061524 -0.001420342806391819 -0.009046464123213489 0.01058599760890643 -0.002672562735875951 0.002522792272331845 -0.005543692135549938 0.002746086941918372 -0.00666897488963241 -0.01040211927402491 
-0.004761129283770401 0.005753840373621841 -0.001527615909396238 -0.003416865479544955 0.00608434602513218 0.005211009601653952 0.01046349910544332 0.002013930350021845 -0.01601823893594728 -0.003679070429733958 
-0.01091306907475358 -0.01094213739997345 0.003128449194810011 0.006844569430476909 0.0003417429531738296 0.003373761223855716 -0.007419428030093725 -0.004464765840893403 -0.001824532216656728 0.01554797315854632 
0.005371433336277788 -0.004540839197080523 0.001888963980986574 0.002083543162961572 -0.02082302509349656 -0.0009145361600350445 -0.0005837594028283346 0.005855980942113888 -0.0009380723172461704 -0.00343573013173573 
-0.002208707849726737 -0.001410338989755103 0.003481149158434431 -0.003597535578710857 -0.004425100416369076 0.0005159245019115447 -0.008134120195744754 0.006329812202147565 0.02943133548783703 -0.01552540254829003 
0.0002776832504502565 0.01727337630920312 0.00227718463393319 -0.01141535213249861 0.001903263334283877 -0.001843499002629367 -0.01734096849153709 0.002479174490346448 0.006454369777487585 0.0001319653177139648 
0.006986083583620508 -0.01394256860323098 0.001030515557137102 0.01109273571014504 0.01544800813537645 0.001386209767689687 -0.0009020145378127 -0.008165716787954665 -0.01251710867980559 0.005764842164449308 
0.001123711497447902 -0.01599879899176973 -0.002993469471556841 0.0004924487757798357 -0.01245486673412541 -0.002142267647060591 0.01996994856190062 -0.001238843417554797 -0.008685196785048453 0.02098619768638761 
-0.001420193976491403 -0.01228762443818978 -0.009061340578992244 0.002822664235603774 0.02025288324267371 0.002023622757142745 0.006421544505069224 0.004708267462586641 -0.007466213129266237 -0.003457459088706527 
0.004007153510946895 0.0105357367616875 -0.01102452365784485 -0.008889115999130687 0.002041701212993548 -0.005601549233154752 0.01426068465245839 -0.003371687351644274 -0.0159608397852525 0.02086846769194817 
0.0008865812106622967 0.01218259545912106 0.0001788290082172994 -0.002025518528518773 0.002430012168379875 0.01313846607961856 -0.007378849696140144 -0.002941518791641899 -0.002591806195938311 -0.0167543250296671 
0.001869094842307906 -0.00239454192778912 -0.005003060196206571 0.002965795954456475 0.005628507315599739 0.001616448069894358 0.0004687278461098546 0.006345935368045501 4.65513307826603e-05 -0.0131507485007229 
-0.006900523581616175 -0.008249878662351546 0.02521867454089533 0.000809044720362433 -0.01287231459324143 0.004583264308389754 0.006816755686214637 0.004606613756731506 -0.01079377850214797 -0.01557222317174752 
0.004934621759765521 0.01331052426706124 -0.02101999872016139 -0.003304970001989788 -0.0007755485778752075 -0.0009553276218156553 -0.00482280562777539 0.001242112013256152 -0.004744268453796757 0.01683527658781761 
0.0169937422890236 0.0004975384535986622 -0.01228588461234626 0.0004541524047862065 -0.01313336374752067 0.001857380186399335 -0.009032803325704749 0.001031165854304812 0.0002657405424085964 0.009045253189423338 
-0.001764879447855224 -0.0005696110388777538 0.000667696529759368 0.003051916349630654 0.008536402953815657 -0.001696970289585349 -0.003451883404834926 -0.005398457462061383 0.003409228856525847 -0.006635181548197896 
-0.01078367487569414 -0.01403188828563458 0.01617283752072104 0.006138327083662866 -0.0003267547114847293 -0.002051976233472791 0.00714365688192441 0.0001422463894078814 0.0001427759084229347 -0.01165620929769007 
0.01509469341029012 -0.005911924854424342 0.003160760659518239 -0.002871037622266765 -0.00464446170874026 -0.008854386682108438 -0.002204415016363936 -0.01025295849093586 -0.01268205962611051 0.001640150967988966 
-0.003321499709037501 -0.001401832116910971 -0.006364445908649126 -0.001659325727702373 0.001008275595673528 0.006844217140744568 -0.007189224411375475 0.0005646141548728789 -0.008290642701604818 0.002490689601800309 
0.02099355837415552 0.004540992396817875 0.003977341512224944 0.0003766722863596318 -0.01303055815306691 -0.004413042448033738 0.0002633911380124849 0.0003695832529265814 0.001893291240097102 -0.01577083489616776 
0.005863238963501489 -0.01088961207611946 0.008382790036982874 -0.003426483167141185 -0.009531203347267547 0.005570349267237992 -0.006423075756798605 -0.006871870447154415 0.006247733030718631 -0.01750164148175572 
-0.00857732628433081 0.003918154074448331 -0.01492402014210002 0.002243023608478282 -0.004047524767122268 -0.004153396727521412 0.006728001581196593 -0.004641840432747208 -0.00641518147812227 0.01163276784373366 
0.00120897867585651 -0.005560238348484923 -0.01651146797183709 -0.001793799634093015 0.003927562513437258 0.003124433514245694 -0.002335994680876255 0.004519249047654289 -0.013526242126682 0.01212035704337263 
-0.01068775070933343 0.007514501231406135 0.005402277212640728 0.002582701605088578 0.002262592943991703 -0.006962857525983389 0.0001900911185378994 0.001021655052266727 0.01253589131283544 0.004077384533377412 
0.0007500571054096372 0.007301378293111359 0.01495077065901496 -0.001013585513763036 -0.01021339307464467 0.001917809846842312 -0.001721389749497338 0.003326546996356472 0.003693923198697228 -0.02443155398249762 
0.01210454434868587 -0.007395752689754211 -0.003967720112304194 0.0009216898637799395 -0.01198194454370776 0.0006855360435970985 0.01135512413315382 -0.005663757230183421 -0.00358504410648034 0.001979218488771232 
-0.02487170045620261 -0.005262210952155821 -0.003751823915030195 -0.002452588443253906 0.009327726574992415 -0.0002848921285522633 -0.01093177130483176 0.008114179537580745 -0.005684945788227093 0.005779523022146942 
0.01095499077218092 0.008575335234234942 0.003199100155317768 -0.0031770849828279 0.01440024368659411 -0.008226421870533782 -0.006282968387017217 -0.0125038498916919 -0.0008306867997918863 -0.01414947344037162 
0.01542974710511635 -0.003801445320996516 -0.007621045662712326 -0.003017337136910529 -0.001339917253325729 0.006735000871883866 -0.02412461634456687 -0.005546949253292098 -0.009226324495414837 0.001113618896544737 
-0.004190350962723094 -0.01169710807633966 0.006440613445858333 0.009472971218480699 -0.0005515465876898718 -0.002893705636687679 0.01132042399282362 -0.0004010453689166886 0.002898607249016132 -0.009019682713502411 
-0.01078190969027024 -0.007744309190114254 -0.01038410651864538 -3.104006863756099e-05 0.006251241292261201 0.002924429431664727 -0.01382792403706662 -0.006428526549139257 -0.001895169674176673 0.009054791282989501 
-0.009169448940002154 0.01076044921155328 -0.007556966575303478 0.0006724552800735442 -0.006454965275558335 -0.007116938391371737 -0.009041738905025517 0.009780608759503182 0.005301744776911609 0.007128582403198767 
0.01045212605505641 0.001314593909515265 0.009197433232307786 -0.006445430593858895 -0.01456343872661781 -0.0004260148660318079 0.004360241259393462 -0.00448168856588005 -0.001013135904457073 -0.01135221587829099 
0.01911460364075059 0.000310417950311081 0.01794528487657933 0.003962554901296407 -0.002897571479138492 -0.005767766783922114 -0.003595827166596342 -0.01334877578802406 -0.00508290518287623 -0.006451434389935854 
-0.000958532672955698 0.002531337929963662 -0.009066108583311805 -0.01009631406529533 0.007274838376974776 -0.008841432512979266 0.009318604490774221 0.001196919234209514 -0.0132668163923866 0.01346812313153712 
0.0144383877025468 0.0009293960170562657 0.01542527405521401 -0.009134486296325316 -0.002330963328501356 -0.01373541617617962 -0.006520011040697012 0.004026068641233668 -0.0004345835455471293 0.003856651235458556 
0.00910198754615898 -0.005821557721335805 -0.0126175708770105 0.003823764682320127 0.0005904709173880038 0.01830549056625142 -0.01028579852133237 -0.003657287864408801 0.007217267662710919 -0.002899044688083236 
0.00740581102126353 0.00178099673198202 -0.002542830680694712 0.006937889059530731 0.004154062213031614 -0.0132100887651653 0.005387765861865985 -0.01038911987679103 -0.002208473801285295 0.01081106632967274 
-0.006870521548527104 0.003732341001531685 -0.0104365725239225 -0.01022470852347657 0.01094154490944939 -0.007245271458197976 0.008518713724614638 0.0009101896219546306 0.003408597677174158 -0.002358444544899741 
-0.01051729144172804 -0.003889842485161967 0.006297129645882141 -0.002615285184105699 -0.003290720195958153 -0.01119019600564806 -0.00929978617987196 0.006818349085142305 0.0002447821747228943 0.001867996038547412 
-0.02558495701343151 -0.01086983745991698 -0.006795878441880398 0.00444149852008912 -0.01209916974979266 0.0237092483672437 -0.01774456208202851 -0.007373793730172939 -0.003442225830145924 -0.006645318875429749 
0.04137023495073379 -0.003260801009915759 -0.01268930465491317 0.004864458101976901 -0.00567932031642736 -0.009720806675434429 -0.01011121160050561 -0.01163991637109671 0.00956545819478927 -0.01277249017206223 
0.002988690946597059 -0.007039800398032084 -0.002989558195781478 -0.002479591720239749 0.02578907979034952 -0.009878637984724008 -0.01158247213723987 -0.0003834876218609611 0.00510593623519971 -0.01312693473211944 
-0.02140616204863772 -0.001542036161481606 -0.0005863167167799434 0.001563786051152381 0.01322207398703043 -0.003363673007653885 -0.008181962643774857 -0.003130115647841924 -0.001886481205045745 0.02054312667959606 
-0.01030519914703215 -0.004613458438115247 -0.003652662665960941 -0.00545099277672186 -0.001164070273830215 0.01993782525441418 0.02014868515513852 -0.007126857296420851 -0.006354662121830919 -0.006217901890086464 
0.007421145718984396 -0.005784032442508551 0.0104959176094628 0.006490789320608667 -0.01217574711706682 -0.01071476105608779 -0.004458937653650836 -0.00619685360071785 -0.0002544272846351273 -0.003275835376331946 
-0.00358226182079875 0.007935673594349079 -0.008168607173521185 -0.00185474419200643 0.009332843115172986 -0.0005240283054667483 -0.001393020630431807 0.01070846277912496 -0.003563567044094173 -0.003779712538610833 
-0.01582852144507593 0.008903224020440758 0.002510640557794082 0.001982057275610852 -0.00756740183715412 -0.009927822879376295 -0.0123517618651954 0.001048016216382195 0.005352642949386058 0.001494420930845082 
-0.01789458354601425 0.001045883163235926 0.001928978537643137 0.004197563891098255 -0.01313645815174042 0.01631171885338966 0.01066274712414963 -0.003705488248074791 -0.00472069300388521 -0.005196367806753719 
0.02647314407402624 0.004094256808600726 -0.002973254764669405 -0.00547133596738027 0.0008036704685203378 -0.009515618034690847 0.007097235127681672 -0.002991295362077862 -0.001397592819469721 -0.009979456057379757 
-0.0001652216876324736 -0.01678076896481019 0.003311366622059415 -0.0007324295687607241 -0.0028362461740435 0.01067078926817478 -0.01381224960359353 -0.0009657121884326988 -0.002164210620531749 -0.02636431953194831 
-0.003600546064883964 -0.003924451285728985 -0.001852239942933156 -0.007761932819475809 -0.004774879541165639 0.01095304621727123 -0.03474902769722577 -0.004816215552381465 0.004797110348386683 -0.004362283347201595 
-0.007138554837978189 -0.00292257937609071 -0.001384828184657752 0.01076391340065487 -0.002402243183432368 -0.006232554424126284 0.01141832860967767 -0.007235175473117188 -0.001091155029352878 0.009119775794622878 
0.002643304938839504 0.001355670879956692 0.005166704772291524 0.004143820490674062 3.565997181177019e-07 -0.0002600034470655409 -0.01395518782729596 -7.437580650712292e-05 0.006010127259947445 -0.007184695988566687 
-0.006771288407596992 -0.001894946470716695 -0.002360486821454212 -0.004642775632588918 0.01309688316536832 0.005285273733533115 -0.001480651625969959 0.009125020062263609 -0.006879716610121017 0.003281945696472425 
-0.01509027473847355 -0.0004687535125281963 0.01172547690453065 0.0062765248746843 -0.001411878877616461 0.004936381133256161 -0.01381983740284671 -0.007741968189577998 0.00710666337668894 0.0009484061550359876 
-0.01818779854455094 0.002341344305107312 -0.002562159869908106 -0.005441164103833251 -0.003395560345166634 -0.001456274020957501 -0.00172392065346548 0.009520206524953353 -0.0116600496904432 -0.006155629636665118 
0.003451531050699013 0.002630159757921657 0.001367639918208975 -0.003541621097509806 -0.001755118530650766 0.001190521625214741 -0.006628953462102415 -0.002411495680804409 0.002088179430672163 -0.02008303696825382 
0.01034158151157272 -0.00152659512202542 -0.005792801718501331 -0.009918748221712759 -0.01101907774309424 0.002422887001734098 0.01760792695555284 -0.003893603546781008 0.002654709599563975 -0.01208826178742378 
0.004186137499298732 0.0007248967238190903 -0.009666854469766067 -0.005555427524029303 0.006847062926402451 0.0132158313016009 -0.007067880439100027 0.001412837317093503 -0.002023943059485362 -0.003551811304574634 
-0.0132243140509729 -0.007517348803212063 -0.002130051712762703 -0.004128648590003075 -0.004848826930769066 -0.003836614833837258 -0.001954545499874158 0.009868376456593417 -0.02104353675611688 0.0150412919419739 
-0.01107585957714757 0.01942348243902044 0.009009925437199341 0.0009041362957789359 -0.01002472933762415 -0.007544540540690739 -0.005531227827564067 0.005121456308093656 -0.0002914909120048915 -0.01564606768316947 
0.001903788206896772 -0.001992045981940712 -0.005998872960362927 -0.005285815465904373 0.005966379821666506 0.006058166470409902 -0.00577990260222025 -0.0021791154572863 0.008457394720945147 -0.01079365719599084 
-0.01295229891434208 0.0003122944010775336 0.01783477958905039 -0.001489894902881655 0.0024669080301106 0.003018768793097401 0.004626005032722791 -0.006429027729236445 0.00271159483714103 0.003650564938558062 
-0.00360121227171809 -0.01545002575280961 0.001051298139465523 0.006126230517342402 -0.005774479848012173 -0.001919380987541343 -0.0153906790564422 0.005444501294290078 -0.005634589499963342 0.005256227274547142 
0.008045337034077966 0.01089382987331813 0.00169847758318307 -0.003374612603168849 0.005800806037899686 -0.003588551811163329 0.003334527643539677 0.002318064468617686 -0.01121746206218682 -0.005040055340799154 
0.004240366469346501 -0.01223895270070837 -0.0004528720290999978 -0.001868084014285549 0.0204559067581145 0.0007670943362922145 -0.02166014360613737 -0.01067755130024953 -0.01345464986071313 0.007666547302018386 
-0.005845081823182114 -0.001356935359412135 0.006616195413269343 -0.002069166101410416 0.01923321574619416 -0.001822862658804779 0.00277033889351218 -0.007208645484394777 -0.01491246676273844 0.002277224790694054 
0.0007732106099046971 0.004358130884241198 -0.01087552030797253 0.00300919829123938 8.097220766832648e-06 0.002013933187562429 0.0009223604964984259 0.003365186026564093 0.0103942254212328 -0.01790098352096238 
0.004396046882260082 0.01053980234264414 -0.01122248112870283 -0.00391786300936733 -0.02819244616312416 -0.005178564312773476 -0.01675083298306093 -0.003727586721342966 0.02620656496526795 0.002240905883781407 
-0.006020441717332694 -0.008486908389319106 0.01828620935977219 0.00460711152780898 0.0008351722417719345 0.0006255426603212664 -0.008634842357439467 -0.002367757866976053 -0.00554351061471902 -0.0004686386485173939 
2.163896815719623e-05 -0.01278625080495897 0.00559425576381536 0.009430188162969514 -0.001130619131366542 -0.001794367527632824 -0.001614515033818065 0.004352918742094362 -0.01618023854613349 0.0007648660576960028 
0.003649242418849974 0.003998734774979247 0.008459996312885066 0.00184154598591629 0.006094385165578853 0.01073907869765206 -0.007349658110271452 0.003428113714934991 -0.0208839915755285 -0.0006265926979938343 
-0.001274096836183372 0.002870962913935581 -0.0001937164021871679 0.009636555887341617 -0.01065941733789408 -0.005244556409435093 -0.008733893096345927 -0.003459263776221229 -0.005400374763084209 0.008811898972311492 
0.003944975933441779 -0.002378824798535747 -0.007615295599026277 -0.005054473813950416 0.003097452515459919 0.004093846551576332 -0.003501352238324137 -0.01195932367772882 -0.004621775317549167 0.002523012649590052 
0.02380042592592693 0.008097366082573804 0.002709581042470528 -0.005939065859198111 0.0113630005643277 -0.001351163511081986 -0.002039163967760674 -0.003740701110281258 -0.009149429926706679 -0.01393981233817133 
0.0006990290353198873 -0.005991088968581922 0.007043946191616308 -0.003411797612495875 -0.01197696442308006 -0.0003450811759876433 0.005519622913962244 0.001011101035215397 -0.009459296485250065 -0.006085166280036622 
0.002417766622477664 0.009601410074838154 -0.02188463585839167 -0.007937084677643461 -0.01347873968587044 -0.001688418363549787 0.01287935546975775 0.0006955753999558686 0.002692386077832665 0.01050759810010946 
-0.005601420772641677 0.005477782773500011 -0.005057408473629677 -0.003925575162209264 0.003995228994915717 0.005294712948631589 -0.02021431838690176 0.007463188928386255 0.004158125377664646 -0.00240450327893217 
-0.004224909505660058 0.01531403091475961 -0.007452599184467793 0.004935150858065724 0.0005869661974297265 -0.005889739260508496 0.01330583723146359 0.001968602964112286 -0.007780888478280772 -0.00778445506558394 
0.003055634758775393 -0.01435891615569118 0.00428570020029584 0.003188085727411129 0.006077639508104841 0.0003655105621409352 -0.00508746918107154 0.0008145615611353422 0.000425978886955941 -0.004841493682936539 
0.02254460120071326 0.009985326289785077 -0.006671432551336149 -0.006523213372543089 -0.00574361347890625 -0.004881361626260952 0.01391668862288355 -0.005525412010381731 -0.001249110203102461 0.007936703841461548 
0.001755452369240515 -0.006083442012258493 -0.02038728027010116 -0.007257899453708823 0.004834510944603207 0.007796857029790707 -0.003261491101918773 0.003048323813940892 0.005905827446839873 -0.006957027621722941 
0.001809152289208603 -0.006065378320053058 -0.001427455203776524 -0.001535582353700678 -0.0028159027752677 -0.003150919647045774 -0.01038015120202928 0.007644094019063479 0.003379050640242842 -0.008634264751747755 
-0.003756240484227846 -0.002816077641034267 0.01021055804447678 0.008644672054627569 0.003641361337965121 0.002843117102918442 -0.01152991715319584 -0.007571889100201218 -0.002364501057286736 -0.0148787958984096 
0.007906991647020455 0.007510732455045351 -0.02983925128640559 0.006912893026144637 -0.002332741761659535 -6.086675884402785e-05 0.009480321515879341 -0.006586357615518846 -0.003520738347585312 0.02921524139625666 
-0.002091278318598021 -0.004962238007161541 -0.02719629530803703 -0.009988939630484833 0.009939528560360662 -0.004202274183422432 0.002861515095258729 0.007135240680786758 6.084768451822445e-05 -0.00727038683472334 
0.004846108681913253 -0.003935954665455849 0.0144223831809422 0.001460947510820995 -0.007024570406395215 -0.01007601877799209 -0.01584495700574667 -0.004678166797744597 -0.004973932330966535 0.00826951761732999 
0.006868183263036732 -0.01089672813379765 0.02606373984717007 0.000362098273552068 -0.01035260849814722 -0.002970546924864438 -0.00606809039359677 -0.0008532891606179679 -0.01149819108896749 -0.0003844666553739518 
0.01311461927195141 0.0006998964007417338 -0.0173203248535812 0.004196137773841566 0.0003331676856864544 6.712099997156421e-05 0.03356745512515235 -0.008727618265190657 -0.0008267698081507917 0.002523943702263582 
-0.0001882863888525374 -0.001998206517723883 0.004227397849996131 -0.002324982014961261 0.01283415107427456 -0.001445601196526178 0.0003611862756117293 0.007069251927542495 -0.006169053237357807 -0.01796648315882581 
0.00677632015591941 -0.002367021987993246 0.01280478684370518 -0.004416847889003604 -0.0128107001473805 -0.0131195060424829 -0.01375360165475809 0.007146784057577329 -0.0007442433076047411 0.0208928873414333 
0.003741592451084477 -0.01371321056240025 0.00822065034794035 -0.002294444921264618 -0.009096921353165664 0.008165763647885241 -0.01773950257566178 -0.00348838327014335 -0.002108595245362507 0.003249302470087344 
0.007775937661000836 -0.004753676880242632 -0.005357263628986344 0.009527074633491062 -0.003804692856279553 -0.002420864937605023 0.008245663953739296 -0.008021301300340702 -0.009097789210001187 0.0005561212038065077 
-0.001590770139992033 0.007594450544967362 -0.01936708301953442 -0.004415632753043252 -0.009307751006536708 -0.01390969696244244 -0.007896476689919964 0.004018585485889879 0.0007735674893972714 -0.01294191469132918 
-0.004475664553479526 0.0009727867196059919 0.002371600963045246 -0.005412487654692463 0.009939879007951935 -0.01270032405432206 -0.01862964804687835 -0.004609939102737048 0.005409895383751104 0.009379150412195652 
0.01413420479921739 -0.003004184486608567 0.005229616721132457 0.002901526361416298 -0.006685879120443109 0.01017620048777527 -0.00736244144504106 -0.006554288168407738 -0.005573882485510156 0.005466373229349532 
0.001919089760365185 -0.001131591940745065 0.003668729148940264 0.006251161408318542 -0.003584531019824872 0.0005345756816147386 0.01415955694734708 -0.01269879163120649 -0.003518871313678766 -0.01249129419574955 
-0.005529430340228154 -0.006531941838519007 0.005182160233521645 -0.008827984910525694 -0.002786322871300304 -0.004192756385886199 -0.01263695871071021 0.006969468254988934 -0.004515929573892291 0.01343534289119189 
0.007498362883112204 -0.01301772293286563 0.006554701956684312 -0.01062844076207082 0.02288923380251228 -0.007929159212478347 -0.004470574004007622 0.004697665914288509 -0.0008466958994409776 0.00842339887072879 
0.01683750977205745 -0.004941188555031917 -0.006124068910087636 -0.001394973524690232 -0.0007579822421456518 0.01390569306209168 -0.009268282665607863 -0.00957252419771912 -0.001584357872810756 0.003088254141206503 
0.001639614760277737 0.02047226982357643 -0.01196916731011072 0.007046224436997648 0.0172438812260416 -0.004229363848772066 -0.004732305697366451 -0.01186299301997834 -0.003669919371107159 -0.0006250007647295794 
0.00321009736014769 0.01249482253775046 -0.006639747633877167 -0.004775766602694555 0.0006942869442308553 -0.01127593301264374 0.008514366291586287 0.00718467739060023 -0.01570706460024945 -0.00701273264188707 
0.00386711506297757 -0.001153346345164463 -0.003284041733667609 -0.008542534655415344 -0.01225012385273671 -0.01460759484508163 -0.01639900846369255 -0.0001567402853595531 0.0196728394509206 0.01012380361805664 
-0.007138317929402343 -0.001355970887273241 -0.01089124262586481 0.002032159699116544 -0.01665553588279805 0.01885713068482751 0.004480985196985035 -0.008455670063184314 -0.009041087457948353 -0.01546271011720885 
-0.01281381084482438 0.00447753659373384 -0.007815495965607558 0.01359557574995485 0.001722688398407675 -0.0004344636136388296 -0.005714076809231236 -0.00545326824725941 -0.002819245886898737 -0.00191477784359484 
-0.003792959275606236 -0.004036144406976608 0.01996606073575536 -0.009303606521861229 0.009806819218170415 -0.007449291791607852 -0.01639525548560003 -0.0009136834185985747 -0.005966411560621368 0.008309647946509516 
0.003513139411206355 0.01078211478967172 0.01852178445051505 -0.006573967800504578 0.003951732956538249 -0.0003161621587811875 -0.02361543497903362 0.004009148509863595 0.002219743103078456 -0.01172505055346607 
0.008398272962767383 -0.01623615885569786 -0.009380625036868569 -0.009562374095785078 -0.004548726341561054 0.01187187260581563 0.009894864745007299 0.002957748907867161 -0.002532332031110729 0.01237806383111352 
-0.02070910117574023 0.00195581056307548 -0.01131039367554834 0.003915026675489172 0.002550629265997082 0.000362344705197566 0.01776366527122376 -0.0007219281502186413 -0.0008537592244479779 0.001263159356869265 
0.002212830667792909 0.008077676625890729 0.0008687546559748266 -0.0112000827667958 -0.01805906893171735 -0.006890588226877347 0.003368715791202736 0.006359645286748716 0.0007605717531810479 -0.006330918736465125 
0.005652301421772411 -0.006373447721685085 -0.0001498135529743794 -0.008385824685885307 0.01229117657087041 -0.009499217366185154 -0.005984671698650567 -0.002159193513852443 0.005634980129314121 -0.01142589980769128 
-0.008580370575880261 0.003379041483331043 -0.01342523469961682 0.006836268882500479 0.003075054683233598 0.009049224109563611 -0.01274629147387835 -0.005787744699286249 0.001651410776261053 -0.004845218749147837 
0.002951196694119125 0.01219748207042552 -0.008572992072157001 -0.004991428062401853 -0.01020290631111377 -0.01302123985163851 0.008017714422509988 0.0007024714890635855 -0.008716849829897318 -0.008008555810964666 
-0.009384974211245031 -0.007047873246167097 0.001852237053685628 -0.004452014996524912 0.002841465527985549 0.003836322995066665 -0.00518089123145344 -0.000753027730476707 -0.005233815902540475 -0.002175945873873372 
0.006497914030431423 -0.01706701982964827 0.0143156488402453 -0.009567218000974485 0.007957235136849055 0.007576043517254887 -0.01358021343083921 -0.003034673903880189 -0.008206704430318613 -0.0007113075486506912 
-0.001268783737048083 0.01409423101204282 0.005832856096412431 0.01097872212627254 0.008747193234590235 -0.004540833719681754 -0.002805591372686778 -0.007526479328771711 -0.003953996593978462 -0.0006351361470499242 
0.008616351036646914 -0.005808548304367281 -0.002242516248910018 0.01237349393654714 0.003200950357274981 -0.005867285224803353 0.009528992507185731 -0.004673047729013314 -0.007262502351216804 -0.009065701771261005 
0.003366868271397398 -0.02666132247712973 0.002662915001357708 -0.007107621979317142 -0.0132841829045578 0.008794721277620814 -0.009974656257240349 0.000865251925329452 0.0007038964647979476 -0.004669750794860145 
-0.01614008664124639 -0.01334697280153486 0.002680926415269695 -0.007524831804171229 0.01791421704022659 0.01244136714733756 -0.003064431070018783 -0.005541597738729022 0.01233327662751988 -0.004584519698816929 
-0.0009066810461914918 -0.002709318935120001 -0.01124397832798456 -0.006728785998874049 -0.006718011248355494 -0.001461152026231118 -0.00390037186074471 0.00510030355001589 -0.002786056175561665 0.006906947863891937 
0.002378859586650234 -0.001513949497704576 0.005392647167186146 0.007447441452088728 -0.02199499250314566 0.0008965209409531589 -0.004211504077843765 -0.001225235097647004 -0.00464228440574509 -0.005537126218282346 
0.007609790506087955 0.0009880064749091433 0.007077761397483218 -0.006339033663515071 -0.01132192988488258 -0.00286668975271339 -0.002377735292385681 0.0001832227423263611 0.003994504226075904 -0.00336692855804628 
-0.008462293044549839 5.50143911898071e-05 0.007272121390862907 -0.007809005504739965 0.02043866561014807 0.0004533783753806341 0.006229855600883541 -0.006004824319797247 0.004564671140932224 -0.008875396984381915 
-0.01151791044980587 -0.01779953622811143 -0.006539549037886535 -0.003349002894116066 -0.007885701354683495 0.01051121571765309 -0.00667541922643836 0.00692757949846649 0.001291055728418343 -0.005247194883296459 
-0.001918511041361084 0.0008535670993983411 -0.003018217971879409 -4.957339056033872e-05 -0.01055863312466185 -0.005771759002343112 -0.004633314634599039 0.0004305011842899552 -0.004879730942459569 -0.008774359830349859 
0.004309555088866537 -0.0002406097414042323 0.004802528150807134 -0.00751660892413007 -0.008906933864712653 0.002819823763784143 0.008524240460176084 0.001735143203421004 -0.003396589130275933 -0.007954787028464031 
-0.0005416717384284194 -0.003237974395688629 0.001523002260789979 -0.006079444723147097 0.001193743545612989 0.007695796410633387 -0.007717149571758885 -0.00293954851868538 0.004591006769704136 -0.01675905048594302 
0.00468636886320037 0.006799282593432892 -0.008267274217127203 -0.004983553545569181 0.002724074793154163 -0.004651068665471375 -0.0007541405936647222 0.009759354803369627 -0.0139192647862788 0.01099166990721061 
0.003106830092131868 0.004355788207032966 0.002785802467828265 0.007065578372556948 0.001985070396370566 -0.0006042871824715939 0.004910700303215542 -0.003969348258690164 -0.007353502059616538 0.001810182726009604 
-0.002042527702661653 -0.007907300806429544 -0.00119598594623836 0.004961511326345611 0.01549888513990355 0.0008706536909282834 -0.005836506399954572 -0.008091472915598225 -0.009437587961299636 0.0007020304286150912 
-0.006106097383555329 -0.01554265397531065 0.008229647076664629 0.003917650812790135 0.01637631835071889 -0.003202589918315535 0.01087792294949683 -0.002846125400386243 -0.01377620581209086 0.009555926709777115 
-5.991934710328379e-05 0.013620756080872 -0.01135179321263357 -0.01110167744166956 -0.01899385102005239 -0.001849741660987428 0.004520972778645708 0.0003709118879215507 -0.0002432917507146893 -0.0124956199132 
-0.006694684522089746 0.01828035048354706 0.007541410781768986 -0.008977160302251498 -0.02983792707051705 0.001812017326223136 -0.02183357640550063 -0.003668139724786189 0.03030837443012912 -0.009761663310667093 
-0.01143424609297251 -0.01974248177758492 0.005782288004120504 0.004521688618342689 0.02955566420693727 0.0005198687374125076 -0.004196652995408263 0.001883161614485186 -0.01795144149449859 0.003659278293624379 
0.01326773659856577 -0.003950782776863388 -0.01130590935296002 0.005582239327562463 0.02106070231513113 -0.007333797646290647 0.003128536188405686 0.0004563191086883428 -0.00961416191114624 -0.006741507368772943 
-0.002232490501542192 0.005828570083371666 -0.0003528052566589919 -0.0006818194683063517 0.01225002406052521 0.01176423046265925 -0.01152478644955543 -0.0009406509757527904 -0.007442035945659022 -0.009994235613600288 
-0.002401637460248397 0.001666003946508377 0.0153735827803634 -0.002038625925919086 -0.01387370241654717 0.003391366689320626 0.0006198543300621358 -0.004954360088283693 0.002387487097240497 -0.00552574852393749 
-0.004467812392585977 0.008899064789860958 0.004312767581108418 -0.004822422023771378 0.003098140993479274 0.01202017985437336 -0.009448217507041107 -0.001114116154668538 -0.003021925955606745 -0.005967770431512751 
-0.0008479838102680753 0.002610580197826895 -0.01004042843045052 0.001131483347756801 0.02960510115403353 0.001115497624013078 -0.01454504861761741 -0.008690206261473456 -0.002324554396371025 -0.007794242340788148 
0.0005047426866978184 0.001200109403301865 -0.02264402160666388 -0.0006917040894522386 -0.001106718488311509 -0.003411462116532633 0.009331325469149054 0.002544342726138166 -0.005556719117880154 0.01015878681781846 
0.007138883522213997 0.004477355888178579 0.003895990224754549 0.002928943198317617 -0.007129062800783325 -0.000325011395569646 0.002710704930434322 -0.0001167414038484803 0.009757510369940192 -0.007195990553910168 
-0.005584437917374231 0.005328501209024923 0.004660212953169009 -0.004864596004483202 0.02451969933479272 0.0008798691045474551 -0.01075401330254662 0.005369392475776641 -0.01210796542758876 -0.01599166921554134 
-0.004398783314171899 0.005329660778283786 0.01072093786647031 -0.003018565311685793 0.007618302767333486 -0.006160075566955511 0.008163296331633169 0.002055054242215168 -0.005766759081861798 -0.01035765118942126 
0.01718510376740371 -0.01579604367115009 -0.01759534485814481 0.0008215910862534399 -0.002584420217734626 -0.005194835153431768 -0.009425050037599461 -0.01396752532842031 -0.00604466303191448 0.01952744428844373 
0.0006855219718289688 -0.002333828092238773 0.0200953215329545 0.005165241682413431 -0.02732867925940391 -0.002280670309523044 0.009419751387059593 -0.007525610521832883 -0.003725302808174426 -0.0008018304649902725 
0.007009386177244981 0.008491110896264868 0.009899279345373664 -0.001522778127031135 0.02024203215554879 0.000852877605132592 -0.01099428323191425 -0.000742946473484644 -0.01544638476150876 -0.006837397259588925 
0.01332203485483549 -0.02092639330723408 -0.01326127917914476 -0.006287091145940928 0.009506588560589387 -0.0001782629569155886 -0.01305116750541398 -0.003332443724593997 0.0001188658316188786 -0.002673000849142964 
0.008804276197340926 -0.01377422659868975 -0.01591094035076251 -0.003758582694140803 -0.006243001511557091 0.007242754176082424 0.009493845345622453 -0.01551039751576924 -0.008584580811369707 0.004566001686748409 
0.0117056065442139 0.004318247761708511 0.002655401168351667 0.006215978645788623 -0.004283091430384499 -0.002282043139355807 -0.0006394559861053447 -0.0116949621644933 0.003779463109660501 -0.02184606208809764 
0.002894877060900676 0.008024257777435184 -0.01214281040319721 0.001577280813188732 0.01239795521780115 -0.00538320489992562 0.00867652569769878 0.006580138289522375 -0.007559577429354603 -0.01378300264158375 
-0.001268784266395472 -0.008945999446123225 0.008131006972242432 0.0007492972848378571 0.01845244079596085 -0.001989975951031034 -0.02577092028275896 0.004088374034707321 -0.004264859346493791 -0.00937455682350273 
0.0009992059955448664 -0.0174852344745119 -0.01739805983048466 -0.005970548133099377 -0.01353352123167349 -0.003730446945802961 0.008559688135561265 -0.006323212602468263 0.01297957698973052 0.02699385784607451 
0.009269933283640534 -0.005389340066748821 0.002146483464544091 0.004940453987033571 -0.01635586713918044 0.0007693406804123648 0.0008751189901275618 -0.01449093667010328 0.003382900217091712 0.01342303536023787 
-0.004685592065728263 0.009591072652277448 -0.002071013759165426 -0.006487253964615364 -0.003401646987683453 -0.006872340095757331 0.004010072134668339 -0.004769389387627642 -0.009006705435824314 -0.00904334310665429 
0.01062604007518033 -0.009185360140270613 0.006651336595419609 -0.006604271358882655 -0.0009438601378305566 -0.003575873510232007 -0.007023555878306876 0.003166453820698478 0.005874042385658353 -0.0134733776455514 
-0.000361425248928053 -0.01018646517457041 0.000501599935654053 -0.000356544858026022 -0.008263116004299381 0.004820936556531398 -0.007004152812397188 -0.00935393739501672 0.005281859897419562 0.004307042700405025 
-0.005175763617656792 -0.008366522309655266 -0.003637271039212694 0.002515831090803672 -0.002408023467119496 0.004867912115339612 0.008662222341731186 -0.01301426516928405 -0.01543938989086217 -0.00960418221309209 
0.003240250610119765 -0.008392459425553845 0.009630172738150441 -0.007159036176971319 -0.002534522908013871 -0.00127848487444017 -0.002615442047440695 0.001275790409345647 -0.005645921601448272 -0.002073227334099592 
0.002726705428103307 -0.01624748417592539 -0.007060001943270533 -0.006602110112800554 0.02388944483791944 0.002871533573614442 0.001304782105586771 6.227175508682166e-05 -0.007242411284402841 -0.01013100483268075 
0.01887740094584593 -0.006008150205629599 -0.001659910336049249 0.004300419663646018 -0.005772744282268251 -0.002252825772730778 0.006664730240526814 -0.01296425419762852 0.004690092683010899 0.002932855189432404 
-0.009351505394698431 0.002533684806218753 -0.006731011708501698 0.01124503723114665 -0.001754768049347879 0.005657092042217814 0.004744822686558982 -0.01495763045933981 -0.008255961126274549 -0.01317350384108495 
0.007190043359344742 0.002515443016176112 -0.01413203268495159 -0.01418788286548747 -0.007908305827051001 -0.006900691293447958 0.01200339434576713 -0.000129152561044812 -0.005155296548832635 0.0001606344244699967 
0.004812019752293856 -0.01001014971833243 -0.008411066126863129 -0.01066234888754683 -6.50218257190071e-05 -0.002375622382954613 -0.01603326919644218 0.009745257857325995 -0.004068969678453289 0.002759514597773237 
0.007092064404021569 -0.004613477721291557 -0.004097302461728456 0.005380226378792447 -0.005392932340923781 0.0003688452834663043 -0.00426400306635352 -0.01177786086655978 0.007971768644118846 0.004086853803819006 
0.01577767620719399 0.003287142898132174 -0.00206227877359103 0.006296575459742363 -0.001890931203365209 -0.006185463621875215 0.00101693385742132 -0.01388312695877969 0.0005659308965668098 0.006796917796935391 
0.00644864964656634 -0.003839903179383615 0.013946608142745 -0.01283686301369606 0.00763917470428214 -0.009050503165198145 0.003223998669065702 0.007275071811654529 -0.01067510960659576 0.006384519904074483 
0.003875994304311354 -0.01174013643103874 0.01221178022166527 -0.01436220805277116 -0.008199079851897625 0.0007390273180729358 0.007167819934015125 0.003446474781259329 -0.009873955019779617 -0.004902588043748093 
-0.006078227843086963 0.01008122360064301 -0.01310633035062026 0.001411499019193801 0.01046096293198489 0.009106873192478382 -0.01289574462856288 -0.01269751516548191 0.0006802689988524979 -0.003492818980099168 
-0.02677827968568747 0.006863360467987469 -0.01444525636996755 0.02557724823855383 0.005924718059494428 -0.009106731940937753 0.01667589578169373 -0.01288602064631268 -0.006935421719476095 -0.001748636112439038 
0.009574348096495487 -0.01381474083935598 0.01165706849315153 -0.01299144948603991 0.01306817255468215 -0.004847343056738524 -0.007883611304016002 0.008841997840817288 1.765576816884061e-05 -0.001230391199952855 
0.01026524309119593 0.0009246205076016917 0.002712627383810149 -0.01325092448144416 -0.02156844588502131 -0.009454898424282097 -6.970586692217512e-05 -0.003682270147175136 0.003423031376652998 -0.0008077801989338786 
-0.006583698026489263 -1.113055555854098e-05 -0.006454326670579109 -0.003790700594222628 -0.0009956598452562598 0.006046524992935372 -0.003315523395307802 -0.005307553997692962 3.857346850946004e-05 0.003800334811315344 
-0.006305318231569683 -0.01039968308959161 -0.01944424328930385 -0.002383055413288435 0.004435681291698761 0.01822536627202629 0.02875273792594466 -0.002776369087682185 0.003047572157472991 0.005838602772068434 
0.01097615707581129 -0.0002112450796393463 0.0243316912839773 -0.01126912455030297 0.01064044021141657 -0.008017844908699664 -0.009993658568663522 0.01316164632683582 -0.009499007979439804 -0.0194892033043561 
0.0147779472124245 -0.001359781729837552 0.009882625596232084 -0.01011492609503619 -0.01084399117251438 -0.009181863161321482 -0.01587382243402117 -0.0006990219622805121 0.002250029780928319 -0.004050979445751599 
0.006554750170773832 0.007327997839043571 -0.007579002111483444 -0.001015723814456711 0.004520279174682481 -0.0005380870862214902 -0.009655906872215571 -0.01427473780859986 0.01444708753712277 0.003247737363786903 
0.002207990944285322 -0.01998343624673824 -0.005202141053742224 -0.006175576217179932 -0.004414409014279763 -0.003989903937668743 0.02205404882528335 0.005090683078683034 -0.01601532336838564 0.005610123987265032 
-0.004390987979102963 0.004447127249774014 0.01084743421926649 -0.008883575064888247 0.01063071541854028 -0.008494886095646021 -0.01087417865325312 -0.006298090607472348 0.007943845472973998 0.008243109303687456 
0.006806910018328779 0.001234239791611641 0.002962289830556364 -0.008713768027031225 -0.005240047583062697 -0.001286152063007659 -0.01117769868144006 -0.0001520784963741204 -0.002003216570791381 -0.004104561860964257 
0.001035852870239292 0.006173064422707126 -0.01571699101274302 0.02101350928630729 0.002976551883524917 0.001338421862349969 -0.005202658992670661 -0.01342474946592671 0.001956024338878432 0.00287513375276287 
0.001571167292094823 -0.004838711848486976 0.001403435051889466 0.0003551724143745556 0.008802658004556157 -0.004905966467631306 0.004369391662915488 -0.004295925463052752 -0.00498619398600105 0.01105421500671883 
-0.005095131996299589 -0.01058573497331602 0.004133951241065068 -0.01117549773363977 0.01590685357879093 0.001899633290939697 -0.005093943051840216 0.000554600832846662 -0.005482626141944587 -0.02003686383995324 
0.006422574350142683 0.00275108303033172 0.008864816276016124 -0.004770687259454541 0.009569415455484164 0.001107518439863684 -0.001712410242514721 -0.01402107216006888 -0.01278345287955511 -0.01712025462299073 
0.007316983900764131 0.01462979362297458 -0.001330324131407163 -0.008230368402967571 -0.01180193192843435 0.004150659489536048 -0.0136257948960765 0.01963981889278623 0.003715425754679241 -0.01685308013951186 
0.0008072111799997864 -0.02559492972248625 -0.001649227085484184 0.006652892434364985 -0.008264986157719886 -0.008716131881142893 0.01163723492443975 -0.004051142634821075 0.005267107547999896 -0.005006703642343115 
-0.01091810222729544 -0.0003849738034055761 0.00655751504766764 -0.003825711417417369 0.007365059741835869 -0.0009408983714637094 0.009210313028298467 -0.007901236102222866 0.005829226404202194 0.003587508589834143 
-0.002843817535723417 0.01429178368799374 0.00601353626386252 -0.001480665679906993 0.006873929171247975 -0.001608673331893836 -0.005839796629597623 -0.003484478289875053 0.002327650757659911 -0.01313148458930499 
0.003392890253128088 0.006210175005794467 -0.007308375165525889 0.001927524135704967 -0.002748087731872175 0.007275895889692491 -0.01471917706767043 0.006309351939756385 -0.0004623168793033281 0.003454168962906739 
-0.007491716575438943 -0.01043866334521438 0.005359944029222818 0.002871649782987839 -0.009532532912544963 -0.009063118103404559 -0.004310243845426397 0.006958575153654985 -0.005111803577735171 0.02305259462434947 
0.01189607167654124 -0.009928834412797209 -0.001729494273385514 -0.009052813302591061 0.01788256247523578 0.0114479470838677 -0.007228633979210991 -0.004092707403539028 -0.001841288586139033 -0.003849287241598151 
0.008446898146686987 0.002231340731829539 0.001117002141202938 -0.01432380597026862 0.01321870800012938 0.00886740492942388 -0.02491865117702668 -0.009346429760650627 -0.004352459239353561 -0.01162484876139521 
-0.001569906405486717 -0.001952188191117916 -0.006435453156924544 0.001457275407462376 -0.004480471197788926 0.00072949180940352 -0.004139729996759875 0.01397410356530792 0.001119050766924558 -0.004407424920707592 
-0.01389890050528787 0.005674396779689748 0.006230384743759654 0.005165956623353201 -0.001046233714386199 0.01012366998754027 -0.008195973437784087 0.002137783881556577 -0.0134721540165266 0.003390415127270206 
-0.001370564890750968 -0.005592186619593385 0.008570361329644886 0.005902713561633283 -0.004007098242952648 -0.0055541294798042 -0.01508140303862642 0.001194943677172569 -0.007268015611771595 -0.0003793536263798378 
0.0006367005741745151 0.000680590826519459 0.009453850298615302 0.001643405274460548 0.007225560988017264 -0.00175894971262043 0.02016856732621066 0.003270693506815654 -0.01314280514768405 -0.005272378261155752 
-0.005278336883757648 0.02021345646738011 -0.001385464463115326 -0.008880220629334523 0.00178849988722791 0.000230664742769294 0.01247555355997918 -0.008709796613591961 0.009719414919131888 -0.0207313391606477 
-0.008189083236992229 -0.01893829751264991 -0.009838497946149695 0.0001943945840663572 0.002763068981978209 0.00279991353479374 -0.02223843147003085 -0.002739942854623912 0.01428484218864237 0.001492255734481662 
0.00227344356860165 -0.005582206266465287 0.007921560643241463 0.003635970894913301 -0.007673780774924683 0.005659085470026385 -0.01176145209349058 0.001174060207019823 -0.001714719328636888 0.006642982181494616 
0.01006689894767225 -0.01981260425076067 0.008358234304895679 0.001553673007132576 0.001616784529154822 -0.006043884620802071 -0.01469726138506072 0.001579565837583836 -0.002545825094226568 0.01262480647901839 
0.00885928969975402 0.02116775317088785 -0.006470804264534449 0.002530461871346145 0.009826695986403282 -0.003335601398124871 0.01283841846542769 -0.006359013828164982 -0.002411452118141023 -0.006738552242235404 
0.01343555096285945 -0.0003629240434747219 0.006027385564914308 0.001732405163635857 -0.0114031898782804 0.01132039409367838 -0.01910485627810941 -0.003784233660319498 -0.01705615189084157 -0.007901312855303827 
-0.001446154111142555 -0.01519373635420172 0.01515901762539195 0.007652882363252325 0.01687941300682779 0.0003619414334078929 0.0003966647906716693 0.003961882412524484 -0.005450001259759367 -0.01593086494626947 
0.0034319555681107 0.003220079580097105 -0.01950419173545991 -0.005114018704326659 -0.003018065333400072 -0.00129933517416905 0.01394115620796776 0.005244860934593478 -0.01037384630090774 -0.009527813503454007 
-0.009463919340020851 0.01007539892531864 -0.01185042614725132 -6.507241221930229e-05 -0.005602900963581956 0.002360685846991448 0.01068168202314538 -0.006134625606377149 0.00290880551224373 -0.01223524140342006 
0.006578049631399561 -0.006033169052761301 0.005857979047983504 0.00276031279795444 0.009035185448526448 -0.005064068164429039 -0.007439935694792888 -0.001522482412862864 0.006052115583511116 -0.01138351206373117 
0.003283716150002731 0.008255241862539201 -0.004455037360420369 0.004081826359850623 -0.004297929250076188 0.001284092415683809 -0.008406231808429558 0.01392719190548169 0.008092574773074344 -0.007979397737587633 
-0.002825202579419339 -0.003700653392218278 -0.01216115062652873 0.003101062427993299 -0.008994196478451764 -0.001080588496368098 -0.005497389377402621 -4.322680267078229e-05 0.007548436263606807 0.00447357768946007 
0.004893282664986157 0.009016442870876669 -0.01220749224583335 -0.005857932325695162 -0.01721725019015465 0.005919491663498261 0.01300813840621546 -0.006736088783653726 -0.0205117454322026 0.02226492562645024 
0.008463757062266994 2.166088158786865e-05 0.03080601322380815 -0.004740963341492072 -0.01100860186770596 0.002958582278029949 -0.0009322359159406987 -0.0003207530035034868 0.0008189510330862413 -0.009775993530408433 
0.005748429226032861 0.01054877208274265 -0.01912588688530815 0.005472884080141034 0.0006361989962838618 -0.005345219886988914 0.00692422309884555 -0.0003028853517875612 -0.007383013888837948 -0.009028996003955006 
0.0109109928316216 0.002290699402129834 -0.02600353391559718 -0.002737778778606536 -0.008462346175939594 0.001343466460607908 -0.002964943056933221 0.0002419399417618168 -0.01015324053143112 -0.00585454568487356 
0.01015862094946498 -0.01038328615262962 -0.01508555816713357 0.005014669859333095 0.004030467031138129 -0.001527277335889006 0.003654536949646479 0.000642369338329831 -0.01324763477561547 0.00896785098239742 
-0.006159589767590721 -0.004825196634350762 0.01710268582190718 -0.00779471053272066 0.00262195887668604 0.01008042342234867 0.003548815868664311 -0.006555705643880591 -0.001949414300812732 -0.01892927317507782 
-0.006217537973540581 0.009296336672918711 -0.003948525088494733 0.002445486042464361 -0.0006212064081004414 -0.004764170287196983 0.006334712586424119 0.002816455941549422 0.006654484389794226 -0.01154025958786645 
0.004205831423110555 -0.009568545539605474 -0.01475771987799935 0.002543322504728891 0.0145149380022759 -0.004213625794433313 -0.01395531848757705 -0.0002922038782779153 -0.008085366241684881 0.004496418318081379 
0.007046057747943 0.002386211258975683 -0.001568306795084626 0.001354256372539382 -0.009140460864801886 -0.005836546538984909 0.003327675050407307 -0.004344325373344688 0.0003115727089237515 0.02049921287232253 
0.006733978301973188 -0.003649380744714224 0.003377246378674218 -0.004112241601217462 -0.006113984571375105 0.009317681859512539 -0.005480796144049913 -0.009385219853510882 0.008295717339831588 -0.003552316386627988 
0.005099679125272026 -0.001131362238205272 -0.006653114697138282 -0.003633005843124731 0.00522241630959984 -0.008841803171651166 0.005540814145183343 -0.005080327834780027 -0.003711992851806266 0.001914363385911076 
-0.00102872480852311 0.0008297222102381381 -0.01675730570193848 -0.004996213502998577 0.008155706416876162 0.001978416099170949 -0.01032915582373399 0.004437912948680236 -0.006337159233034542 -0.002532780549777467 
-0.01128309186242536 0.001250051115144311 -0.0106924240229902 0.005473674890908271 0.001133730405027099 0.01052474441853766 -0.006383696438795685 -0.00118872110345295 -0.008405087798933277 -0.001609754843477218 
0.0214758794001392 -0.004407654207445757 0.004663844044845192 -0.005225279239502864 -0.01342304105747712 0.004658932500780285 0.01357461503496354 -0.007356530144726433 -0.01092375955175165 -0.01445466767887539 
0.007007794392733009 -0.001266313506243008 0.00435448984717668 -0.008489244402124261 -0.0142223168256664 -0.005335331238261295 -0.007885878344846617 0.003494025047927545 0.009932514356128177 -0.0003746757488474853 
-0.001732992116291497 0.008975047788324749 -0.002691939044487906 -0.002024826827517523 -0.007316393474617344 -0.00596773500402547 -0.006137070699208705 0.002158480099204538 0.003636717372732221 0.008721674989559353 
0.00613053090710238 -0.003210852849718651 -0.00257714365210405 0.003632664382207996 -0.001276214276350394 -0.002537063841766392 0.0005105878127129252 -0.003346876152879015 0.005989717140486601 -0.002088180704455425 
0.0003704729666753948 0.002280823921431371 0.01577870831268427 0.004912358451900601 -0.01542875746944186 0.01272313463809344 0.006511031523278712 -0.00980316804002589 -0.01297945656811895 -0.007786345297232128 
0.004112220110660175 -0.02333373118179387 -0.004499312908927165 -0.01403389261566354 0.004017215238579907 -0.009239735787456375 -0.001777573858654697 0.003190491771694874 -0.003690539739970929 0.006118110678698144 
0.00629847232150395 0.00403675220932874 -0.002646688209568218 -0.01018720045024247 -0.007155242388956031 0.0021485786918329 -0.01010775675441739 0.008865922695614512 0.007741877216127703 -0.002119768327463542 
-0.002399817445837207 0.01231346466449706 0.008617645158913981 0.01390281634926902 0.005088396264858157 -0.01295661483539863 -0.02012469068815866 -0.006748611308813632 -0.01008755724658827 0.01849583066358251 
0.01320578856376426 0.007813781930569474 -0.01630409887837711 -0.005139361640117329 0.02376073482391622 -0.002010963468747138 0.01712028536533802 -0.01473398112804672 0.004421103520897425 -0.007988096508345246 
0.009240354168834796 -0.005805150556212173 -0.009451175684212741 -0.0100195900586935 0.0001846731765241659 -0.001305299692491849 0.01446837158212054 0.003260334528225252 -0.008048410885685305 -0.0005774403020792076 
-0.006632190021894266 -0.01701379904441221 -0.003097372303396282 -0.005226983037016427 0.002137040723527811 -0.003894710691754473 -0.004004872547586439 0.003416601455352615 -0.001645874415367057 0.01124334494561727 
-0.0004620822946369936 0.005439320820127991 0.004002827524093263 0.005766764662309858 0.005495169728449713 0.003724832387810199 -0.005630181295547947 -0.01511831309203864 0.0001238481983944299 -0.02331715200459852 
0.0004240560281706148 -0.001003231536090819 -0.0005529779064451528 0.01136583485890262 0.003062054592494977 -0.01257003817627088 -0.0001098681715377778 -0.0136014465995424 -0.007829025211820575 0.01096398455963369 
0.0007923893622757082 0.01429318488441196 0.004400359672905164 -0.003778653622906835 -0.0107856669316593 -0.0001626871092567265 0.00346491255938508 -0.000228036112839765 0.008580475387668297 0.002860626807165512 
0.01018477385053766 -0.004847735468789572 -0.01439381620875944 -0.004963851889000634 -0.006891690818004952 0.001708566800450049 -0.01582871189124168 0.007766981902226206 -0.003736936391561698 -0.004775124580758175 
-0.003201061338170085 -0.01487543418696503 0.008280580995771551 0.002558869172526609 0.008966447307481447 0.002205850766597306 -0.006962771173937967 -0.001616488657304599 -0.005419775727260192 0.0005029714927590241 
-0.009686317493243153 0.001816738626989513 -0.003449486318226265 0.001470828842811306 0.00339515228358623 0.01281949110958069 -0.0005789397850963204 -0.002795304446443034 -0.0009822040235906635 -0.01090231025662841 
-0.004221157048489865 -0.01858035693685539 -0.00420133559439645 -0.006789083464214004 -0.003463802474684911 0.001190835180917102 0.0008586348264187283 0.0007356859737950685 0.009470570183859914 0.009810556790183271 
-0.01626233983324176 -0.008477259923928211 0.0008469101475729577 -0.006891311699506828 0.001938426742567648 -0.008252854103943101 0.002763949325890164 0.001666321854526791 0.00988661822995167 -0.008024681925757489 
-3.878761127275016e-05 0.001649184845175612 0.00266180271605914 0.003691823484687419 0.004559449592780872 -0.01102614706295733 -0.008032541342889105 -0.01681562536704004 -0.005807720046216234 0.002804881262663223 
-0.002692969487042924 0.009184517047527286 -0.002899038819244957 -0.004003342851022746 0.005568447341667112 -0.009170346669146189 -0.003555831701965072 -0.001681707970129295 -0.01637305946907753 0.001761604811822684 
-0.01161593423662323 0.004762550186541665 -0.007682131608030736 0.0001755585880215174 -0.0003114827501288909 0.006480128803124782 0.002031855222378668 -0.002937636654022867 0.004519401924588222 -0.002317798220077826 
-0.0009010427847963139 -0.004720770107038196 0.005585151540350026 -0.004799414240283907 -0.006302296321211451 0.002112487857972178 0.0003314144895299428 -0.002756926344984466 0.0005800981881623209 0.003777928080566941 
0.01077098781501733 -0.02099197426027071 0.007456114858933895 0.008079212992102704 0.007913510379816602 -0.01112418528678598 -0.02294087989563145 -0.01154623172490633 -0.006533862642862252 0.002219547379226726 
-0.006821155417186501 -0.007723958620174666 -0.006210996561488838 -0.001132604766793834 0.0006556267955526435 0.004468885373977282 0.002272744489814444 -0.01052744556335933 0.004257567393256187 0.000495266045857471 
-0.01132518454730607 0.004008235939295499 -0.001283453917200205 -0.009712263206554442 -0.007664677139088237 0.0009023685355852891 0.009644801450796502 -0.0008497109965424706 0.009088056118987619 0.003485068930312763 
0.01409112895947161 0.01154873147064571 -0.002087801899331315 -0.002088058501931743 0.0006925485432792983 -0.003264155081014276 -0.01061699416196868 -0.002143121049426658 0.001504988085970508 0.001792824279472367 
0.004606738886441533 0.009376804546001717 0.004874424547554395 0.000708803998731514 -0.00361914290663939 -0.005751493456956266 -0.002993419615277701 0.009769418691196491 -0.01551484604137724 -0.004076617065899756 
-0.003177458793117937 -0.007830258690326192 -0.01186451622749012 -0.001330962980886679 0.004659201912601966 -0.008125926371422133 -0.01539703241667866 0.00202754248325366 0.005251458856193521 -0.007162280882014588 
-0.01361484107776426 -0.006845629088780868 -0.007405945099085664 -0.0003768163669089483 0.0206496006202301 0.005252462378090695 -0.01427830867085409 -0.003348577490928364 -0.01141829968170565 0.004531169024963809 
-0.008528745189379737 0.009024583548900187 0.004088653471446162 -0.0006269141589904748 0.005637702312714013 0.005806876096243785 0.0004023666804177648 -0.001332742259623926 -0.01348715655903888 -0.00340292902125202 
0.008385400927138392 0.01949040764092171 0.003108249469711867 0.001247918062853317 0.007576029914113328 -0.006549961916196781 -0.001188925787780556 0.007711991532431707 0.01005384189595666 -0.0254422018560306 
0.006203767065468013 -0.011286084501295 -0.008637419404479508 0.002615897578235733 -0.01552670757925978 0.004865386647920006 0.005373314998972849 0.003999092423834646 -0.01569058637514507 0.002078877317012542 
1.967086390995302e-06 0.0006765362331259821 -0.0007968392539509065 -0.00947158889793303 -0.005552879585242245 0.006439242851562524 0.0110711737386128 0.005263706089722633 0.007569092592423523 0.004964049212899069 
0.005921834998553649 0.008787540080439096 0.0007442741062424047 -0.01035059804816309 0.002234459129292752 -0.008620906261055699 0.006999840266202231 -0.0001305990853204902 -0.0004641704107286212 -0.005243671451510563 
0.01263006874191308 -0.0119810167886183 -0.0002658291925294158 0.0002004698180113333 0.002540899025665592 -0.006517097532511127 0.007024847026242912 -6.80163856742831e-05 0.01259484432828886 -0.009343027098507015 
-0.01180525946786088 -0.01532900463041508 -0.003122605782626064 0.001677735572282837 0.00675399639664663 0.005037423828908006 -0.006726523972604922 0.002866819551409309 -0.0002339697905248947 0.01337362165525972 
0.005516920158080313 -0.01519823213864579 -0.012200549685035 0.0007392164815810306 -0.001374310955392541 -0.0006692422067205918 0.004324287414922018 0.005302062097070352 -0.01531795711832511 0.01888784779139321 
0.02036645737896231 -0.005220317779562611 0.006451802612945407 -0.001915420950899517 0.005678465932570921 0.002500934113199424 0.01114000171176628 0.004555059461154957 -0.02604495980507587 -0.01689468775589828 
-0.008709966207005494 -0.001126152967706725 -0.001694844260942705 -0.0011031692793773 0.0002048923074213615 -0.003424404703155943 -0.0147037575693703 -0.006889912629477666 0.02182409087930911 -0.01574021672229318 
0.002816487047142345 0.0003949910792123341 -0.007464821047054581 -0.005074257988215445 0.008792400797117798 -0.001680192756558207 0.00118759404360418 -0.0009172523005872169 0.01547348661432812 -0.002816207946328581 
-0.002525378094543308 -0.008253467830246683 -0.00617448623042981 0.009627705387364406 0.008814878713033865 0.004293959531496354 -0.01508715407759954 -0.0006873439131344395 -0.005993847084764854 0.003722704510335955 
-0.001685151110719414 -0.006914510362804924 0.0004372697663243718 0.007908797386800281 0.01070255229441998 -0.005901732668821389 -0.001907484503309437 0.001879981636119164 -0.001866476633493022 0.003971478918373061 
0.01491682124162696 0.02834334546030539 -0.007058940714098224 0.004009773015808819 -0.005840835919539595 0.0085438852704406 0.008628732288178028 0.002980210156057157 -0.01146616759146724 -0.01926804281257673 
-0.002022941705009162 -0.002543045955641592 -0.002643021436957146 0.002161395551912693 -0.006175575388984626 -4.474434776501987e-05 0.009721047818692676 0.003657042566492311 -0.01031666985306937 -0.009580967865928701 
0.009198107924874807 -0.01306855706702251 -0.003250689536626209 0.001819944968390393 -0.01049016324525152 -0.009881825445400451 0.005953084679064636 -0.009510497064597438 0.0008790197140632232 0.01910727337860741 
0.01115665762629735 -0.000571500207488881 -0.01176821867973731 -7.530133106962765e-05 0.006332630200582975 -0.005714489544108827 -0.007693284922691963 0.008808099495739647 -0.003580954166508584 -0.003208202140436108 
-0.01052059984410039 0.01130532133783141 0.007939693566960284 0.001993893282273138 -0.003635988523094424 0.001844587525849841 -0.004080087926232223 -0.004188735715025138 -0.007254132449787649 -0.01023380632334519 
-0.009846612797930749 -0.001086515315529778 0.01383080237788458 -0.0005282342352947503 0.003489909877024243 0.005705337146833094 0.009329700121547775 0.003468501915666444 -0.007737124752330802 -0.005880551234247315 
0.004972910765426553 -0.0007735437280721087 0.0006751034420198626 0.001297559982453183 0.008231356151129864 0.006980112893104204 -0.01830805446839277 0.001466397465236468 0.00356452256540827 -0.004070021642412074 
0.01481484258806193 0.004597329241467588 -0.008104116957329604 0.002552254645861825 -0.003664188092472178 -0.00454867515064233 0.008902496119058988 -0.001853832613863885 0.002866339338060463 0.002389213676592096 
-0.002096617229791384 -0.002862634782636521 -0.001574244756351623 -0.001008361683388852 -0.02301610149994032 0.007880959104959406 -0.01840820064321191 -0.004301753242225265 0.0002913226363620569 0.02141778787061422 
0.004299188763524371 -0.008028252289307347 0.01415945730684417 -0.0006576744653753186 0.009088645542788341 0.004683081746209151 0.007843152505351258 -0.0008958100537916166 -0.001392167775813915 -0.01897492041287596 
0.001657859427742986 -0.005811170021327158 -0.01133964911187519 0.003594925171496198 0.01354356420536758 -0.00344367055273916 0.000471660640171364 0.001733247588508157 0.002301976344113615 -0.003764961075116985 
-0.002343764107213882 0.002969808891472521 0.006202274845107524 -0.001352283927667219 -0.009689486804993036 -0.005951037953025425 -0.005828595840299803 0.01203129614270087 -0.006613216927150653 -0.01149812870995174 
-0.01876107955663444 0.006732871774224672 -0.0007509070925399525 0.007218005774668254 -0.0006152413573116142 -0.00216376798882544 -0.001146947239580592 -0.005457507449651467 -0.002908501553105529 0.01019394518907834 
-0.001777633472606578 -0.01313721766355597 -0.003104836283627118 -0.004878774428296463 -0.01660880765296265 0.009980223198664069 0.01658079090405565 -0.008335940430414884 0.006335681598373709 -0.0190856500790163 
0.008571219230395659 0.01372750627471364 0.005600563947721992 0.0009609637411551781 0.001438740957066358 0.005683834621138638 0.00641639664142223 -0.002396133422692219 -0.0061027816588248 -0.02506358544428076 
0.008326688934461446 0.01094886692857161 -0.005419514284703734 -0.001342386793314123 -0.001054915145364353 -0.003322300460307518 0.002927632914731019 0.007225827616017638 -0.003377650970747787 -0.0008496341031547894 
0.001688408473687359 0.004370681296542884 -0.003693864879455634 -0.006671049951373765 -0.02397033695454781 0.0002190029882262605 -0.01775098887649346 -0.000242719944049334 -0.003217191961813525 0.02662952094986979 
-0.00778188949557831 0.009770258600055971 -0.005001460058886914 0.001408088853291879 0.00109937858265196 0.0151212845465639 0.01896073620059121 -0.004873551488113616 -0.00839250527515701 -0.0142948402549974 
0.0002464681970686063 -0.008317059701177191 -0.002145039027868287 -0.002107854409479596 0.001439729399971668 -0.00145721077793649 -0.002136991112717335 -0.004783495187371727 0.005083236434296586 0.02068355408761438 
-0.01083295921102851 -0.001427726564000369 -0.002926840336067946 -0.004829115021942804 -0.01440597257624362 -0.008386885355052538 -0.006753200172688325 0.001423339024802593 -0.003905717439616121 0.005721832798683704 
0.01130330364332712 0.0007917675132047903 0.00677097248672665 0.005228843492944208 -0.002616599917373292 -0.006070586799584212 0.00888317240792672 -0.003298842550017441 -0.004946341203719335 -0.01359041264383933 
0.01293212069924301 -0.01963721974565603 0.001873267212193852 -0.006060864811942799 -0.0005443848637980002 0.0127103143136766 0.003015136413115446 -0.0100207148170249 -0.001676085085482547 -0.002684689107709635 
0.005646227650692569 0.002341563653692059 -0.002118961711252867 -0.007700819852204894 0.007897796424005331 -0.002217990697167352 0.002421068059210318 -0.009499751093653027 0.007870347267347758 0.002896365116654324 
-0.00974767127002724 -0.002105449115955408 -0.001797767066323783 -0.0008165119754517653 0.002202980712520783 -0.00152881220793587 -0.01018504237652913 0.007861589564511433 0.0007488038092956941 0.004096856013470638 
0.01464886807783681 -0.004183077590341573 0.007162615648312586 0.002119258217270818 -0.008743506738635505 -0.002372607593093394 -0.01260911887789819 -0.002512458900481825 -0.01345076722274789 0.006621516804063894 
-0.02476885962948194 0.009972731449626172 0.0049777572986006 -0.002715422369541845 0.002707521540533922 0.0147359142814447 0.009377776077287351 9.772042087127532e-05 -0.0007764764343730351 -0.0129473022769915 
-0.00969259181630331 -0.01106872178671602 0.002716017065504121 -0.00711429896956884 0.01461332898143814 -0.004083713876775005 -0.01576986018907828 -0.009509407573430405 -0.003425611143594654 0.0112869589561759 
-0.01635259020026513 0.002151370481475353 -0.01574367682070583 -0.001286588208678423 -0.003716907108754219 0.001236474543888077 0.0009334132083582045 0.001507771063553989 -0.008381417595242819 0.009672267591534788 
0.007499473865151821 0.006603976392182983 -0.009279940509726787 0.008645510236400355 0.002617928933470673 -0.003953462226974236 0.009915793796262198 -0.0006238828587345417 -0.006592702294992696 -0.009578815197135195 
0.006227948065520146 0.005983802332381313 0.0004141596200820515 5.675583661028954e-06 0.009087141124323917 0.002255341373639845 -0.001758878729720115 -0.007425342185818952 0.004785236444572721 -0.007243398455969107 
0.001305883429900123 -0.004869204802524126 -0.002157243270187324 -0.009891174505605912 0.00872384421269151 0.005236208045993175 -0.01162266283221033 -0.00315462091282504 -0.001084856123895658 -0.01005266047426365 
0.006726044651059075 -0.002293278910018373 -0.02387171715136183 -0.0009357677759761086 -0.005652071071814532 -0.002150934678558395 -0.02453641659309441 0.003889532937313301 -0.004671640732015619 0.01437446946723177 
0.0281939779752596 0.00410814561417767 0.01370094060734382 0.0009339084645142196 -0.008475749180222602 -0.004092520800654176 -0.00500524105651153 -0.005293425611777864 0.001164837925886835 0.007980952595985399 
0.001779247939551419 -0.001541645028595722 0.006611605927519589 0.003875358769599076 0.00584072740064069 -0.004361936387379093 -0.01410577708947783 0.001533754989199642 0.001755025927490392 -0.01139771900299429 
0.0001573726715598579 -0.002458069333503856 0.01058388651775592 -0.001574403880749593 0.009415285489617719 -0.003816723607249454 -0.01810346319871956 -0.008241969154267132 -0.006988531877702232 0.007228307145805176 
-0.01372452996206752 -0.006796104280349443 -0.01693046066935744 -0.003696258765606304 -0.003004748220586855 0.009596810719594732 0.001307740875508069 0.005730648766682845 -0.009814388762710376 -0.003880673190582374 
0.004744429133924536 -0.0004317629145980103 0.004455941958870455 0.00478942171433819 -0.0007317649572580111 -0.001301390395255576 9.444905583473244e-05 0.005588016235941609 0.007810284101014185 0.005032287032685525 
-0.01204728297280775 0.01168970392027309 -0.000923536325202403 0.004291783504022525 -0.004335141839951587 -0.0006359223217642148 -0.01554566255820516 -0.01052034869268541 0.01336940696117426 0.008559465206680708 
-0.01806991210468949 -0.005525889283183484 0.001057922149771174 -0.003212014788645286 0.009731929389554471 0.01613744766795145 -0.02231133151324929 0.0001234159240603092 -0.009352494918352395 -0.0002761937763578388 
-0.005177862316586348 0.00184377732886512 -0.001754539206807381 -0.0009444810684369585 0.00529981759220416 -0.005351202856296212 0.01156443010708857 0.001904477194403788 0.003273404515184319 -0.0119597499071186 
0.02129861703117564 0.007243767022609747 0.003290731062101127 0.0001511813768901618 -0.004225201230253115 -0.01223118699956283 0.01321063529277853 -0.01242750438502786 -0.0008835406751945064 -0.005339613952393681 
0.002711956854708962 0.01295625816224483 0.004250507494648806 -3.929822436093189e-05 -0.005906761100320578 -0.003609511055953243 -0.0155305156326171 -0.004282683843870986 -0.01171582952713518 -0.005759694604192872 
-0.003140496668288168 0.004725933464998361 0.0004559363954621614 -0.005159808081039727 0.01969097632510219 0.004684797223225162 0.003774398482017277 -0.01005745058532199 -0.01039018115832901 -0.006878249708052789 
-0.01327634429381194 -0.002494963270502907 -0.005825301699866919 -0.006804830687297269 -0.002877028209306474 0.006818429731272508 0.01671275758883714 0.01302257289015398 -0.006301038974673433 -0.003776950842698185 
0.02845584665997571 -0.01519707152206067 0.01011441131314102 -0.000605114792402827 0.004479610868301396 -0.002983892303594657 -0.009077901808436152 -0.002522446008452083 0.007091185144460416 -0.006710752889617676 
-0.0121144018774501 -0.01029028668540706 0.002090953783138071 0.006869922126647987 -0.00630152589662158 -0.005032971340799274 -0.01816885405433007 -0.007358758235880327 -0.003446938377344998 0.008960754803282891 
0.004536182159694929 0.0101224065599157 -0.006254278350570387 -0.01164479100224206 -3.405752432559044e-05 0.005057421990790709 0.01857669660167333 -0.0005744726893806203 -0.002581625216738363 0.01064056360107261 
-0.01509348836333772 0.002468421045853562 -0.01220913907741313 -0.00635554960731198 0.003040182699299237 0.0003663969636063938 0.01004428267882279 -0.001591152394681244 0.01723624218599819 -0.004916450927284303 
0.001836623929995078 -0.01583301449079478 -0.006403851608290584 0.001542443199066571 -0.002585502018312357 -0.009072911040473653 0.006588761275854938 0.007835981433771972 -0.002664464208409733 -0.009996972736181048 
-0.00283128493879983 -0.006998759720770601 -0.008810200194042545 0.002505180678796389 -0.009613948962597572 0.002024883951851049 -0.03687684892272764 0.007304796640711574 -0.004344822772559293 -0.001969546240069042 
0.003657474760259626 -0.009450939699131905 0.005539419371833795 -0.002201988718284191 -0.001603458305726667 -0.0004116584720324748 0.01657340626614008 -0.008422584037195254 -0.002274184790673947 -0.002833366762503998 
0.002429264134524673 -0.005827614012108913 0.006154192279846742 -0.0001765321270435486 -0.01121586964607485 0.002392681215750008 0.005474664392470741 7.899777497885591e-06 -0.002988139585787608 -0.009084186736664031 
-0.007356028024907458 -0.007014125925227385 -0.003505800563652664 -0.003568235388624988 0.01435664011285564 0.001636984614035102 -0.004919541115282644 0.004906833994473704 0.0006140103244326277 -0.0009044174812332252 
-0.00247286222861636 0.01191438042591178 -0.002848713634796726 -0.0001085486970388154 0.001889109721567432 -0.00663064515418486 0.005948872318451177 -0.00665811696360665 -0.01099359641618361 -0.003284916629202059 
0.013667834267222 -0.01817908670377817 0.002327309999442541 -0.01355636296217907 -0.01292663219645626 0.008367600196684012 0.01022883541446163 -0.004022090091143004 -0.0001982000873327142 0.003996863732213064 
0.006305682777484839 0.001196114125880764 0.01784711905393915 -0.007758234872303069 0.005632260190094094 -0.008245194253499809 -0.004406611260351435 -0.005505867820865845 0.001919510110561264 0.005275282251407253 
0.002296643547575062 0.0002910585289190308 -0.003036955294703389 0.00431969654825588 -0.002336286218467798 -0.00863944733679531 0.0004568245631543369 0.008694797090704727 0.009876410374617308 -0.01357173390825547 
-0.002145423148106262 0.003993175891626739 0.007287847143105693 -0.0002711599037468319 -0.01372299334827185 -0.001459764217772785 -0.00220243764993301 0.008327327273673774 -0.006118301253399965 0.003373715049247448 
-0.00587841409952088 0.0148888084092545 -0.004756766073665877 -0.0002190123081330636 0.007371656292775208 -0.008736197037350145 0.0006009090461798982 -0.003555941052447182 -0.007844003857596683 0.02192114136308315 
0.01433171695719621 0.001885657832009528 0.006608679521167123 -0.003412954272178063 -0.003825218295290179 0.004471528963902568 0.008608127480276449 -0.005417278170643465 -0.01413924994145123 0.008012708752956533 
0.006031672589450566 -0.01838209843020814 -0.001155764626543134 -0.0008635525613486886 0.00371307749451437 -0.005757799908396367 0.002111536109982376 -0.006019997529803784 0.03326913498013634 -0.02670097380451346 
-0.008446566214896565 -0.005506108232446671 -0.01386020854874075 0.0009436745533622626 -0.002352557890836524 -0.001626475944073007 0.001683403526891085 0.006037031358731597 -0.00308549172048689 0.001185324536567157 
-0.01206783981345366 -0.001794669001880364 -0.002436934171285115 0.005294617232311406 -0.01123838314778679 0.006094019184258336 0.002906119231722045 -0.0006042935589198994 0.001780945253843918 0.001158188504461435 
-0.006038019182108595 -0.01454060869865696 0.00796923130167638 0.009609397217538691 0.01468092283560087 -0.00114049277008073 -0.01619251750376215 -0.004095220827640679 -0.0009067793739468268 0.01127721889429424 
0.002807404842078826 0.01754353501313966 -0.009421833663854275 0.001760109288631718 0.001037549865454043 0.002716097993366608 -0.01657064501509442 0.007690885045459221 -0.004001717337168419 -0.01068230000937231 
-0.008749150287548515 -0.01505397585803592 -0.006802544977764703 0.009048958776567051 0.002131713358835124 0.005314371797758093 -0.002372880726661611 0.0026836730095658 0.007431942346688009 -0.003045684100933099 
-0.006116817035084564 -0.01145026750479078 -0.003811775221362657 -0.0005848485078386339 -0.002025975333714382 -0.00103406577256478 0.001100933759561493 -0.001920977341799966 0.001353319427014054 0.008372182412685683 
0.0142779615761559 -0.01264963410773528 0.005357143706069363 -0.006202259591835232 0.003758868587444173 0.004087667661297264 -0.009218085927072128 0.008611387523095006 0.001011190566176226 0.002035480039689258 
-0.005907823937202199 -0.01330655076640273 0.008308490875402447 0.002627742890696493 -0.002610571294374866 -0.002327177738980494 -0.01019766317662923 0.001748142166724348 9.077697384694518e-05 0.00799102064881518 
0.000430132690164495 0.01705571025879022 -0.01002707827863519 0.002883551787607675 -0.01667156011481169 0.0002784790597747058 0.004647855159695501 0.01017363054010532 -0.01058394337505788 -0.0040385692859667 
0.005936793823504764 -0.003204378140205815 0.0006437202879933787 0.002392764894096908 0.01359428946207855 -0.002216817085677464 -0.01159031180908515 -0.0008530887682766764 0.002125594284712314 0.002690807626679067 
0.0111258661185102 -0.0004890848256464522 0.0005519574869749734 0.0006080787043711599 -0.002323964619181413 -0.004348729472884494 -0.006737967292365709 -0.01394749613169877 -0.005495955625425668 0.004253251757686658 
-0.01335685852431742 0.01162198621198861 -0.003165386194798344 0.0006755963630285936 -0.01245626847881477 -0.004404124049626391 0.008954328952067513 -0.00225333848590261 0.007148794956925403 -0.001197634954148811 
-0.00604380337087105 -0.006435554432022749 -0.008970858964848009 -0.002262603502883389 0.001343093220441707 -0.002383115817071912 -0.005190514907971339 0.005563429264067227 0.001606175310575373 0.01303432897139739 
-0.002566007084680688 -0.01643717279776203 -0.002722386718368097 0.001616471026876879 0.01135496018848449 0.006969808438579712 -0.00430263291671419 0.002961294751483221 -0.005368922717276571 -0.003828967381178038 
