solver_type L2R_L2LOSS_SVC_DUAL
nr_class 2
label 1 2
nr_feature 8512
bias -1
w
-0.005856586797645991 
0.008233941870022216 
0.007157439647671238 
-0.0185532924864641 
-0.008136155752404518 
-0.008327515216732912 
0.003658780493147011 
0.006487598486416312 
-2.328310996258802e-05 
0.009675718338068002 
-0.006456644758371141 
-0.01960452520613741 
-0.004192031484564379 
-0.004306794733852663 
-0.002496772614448744 
2.378929524386592e-05 
-0.008428331346735278 
0.003923590338400057 
-0.01283107378760615 
-0.0007658238437166679 
0.009399981321994239 
-0.004802140634458947 
-0.002847794783169426 
-0.0025401112913441 
0.004029603798216413 
-0.007594244343172254 
0.00428164036816403 
-0.01928577090468154 
0.002483625508141942 
-0.004248476060997708 
-0.0006163799001742633 
0.009049970576410682 
0.003645152392179895 
-0.001203305043216705 
-0.002377820928393528 
0.00173436554998867 
-0.002980592279343897 
0.00231586613190643 
0.0001730586619130195 
0.00832356688120867 
0.002772402552880252 
0.0005062947027281643 
0.001718193672300101 
-0.001906730492143275 
-0.002789808319863515 
-0.007284588480063192 
-0.002844852358904641 
-0.003141405299158144 
0.0008756547645788677 
-0.003897594891039973 
-0.004598526214638632 
-0.003820411910116822 
-0.008447625959067534 
-0.0004533733306127222 
-0.007838238128824752 
0.02000625063782258 
-0.003049410574342828 
0.00195552901567954 
0.009445811252486905 
-0.01448547120694282 
0.004108609228113669 
-0.007519945470761583 
-0.01132063030075868 
-0.004251881826898077 
0.008630243874768441 
0.004534861392343237 
-0.01273527310990409 
-0.002323410179136093 
-0.004065869366581114 
-0.00470560490979259 
0.01125894568147063 
0.003370666601128497 
0.000249358145950285 
-0.01176822429654776 
-0.01387293712063582 
0.005479492327920495 
0.006912499055417923 
-0.01157065613631007 
-0.01154321673325964 
0.01463359103120157 
-0.01427842015289338 
-0.01278334542701661 
0.01072360674156368 
0.008249206404915136 
-0.008873537015442199 
-0.010694758680422 
0.01060906468495181 
0.0006981269129413798 
-0.002147006778664587 
0.008492574605242241 
0.02517292913520212 
-0.003858049600241581 
-0.01253531572318765 
-0.0130183935923504 
0.01209161402693284 
-0.002445224512657125 
0.006634326445958441 
-0.0122141474154883 
0.01800189662709908 
0.004500017594023665 
0.0101384601936963 
-0.009998249830651437 
-0.0007008872964867312 
-0.005700841684696574 
-0.004639012716008058 
-0.01159788705716101 
0.005760179571761024 
0.01757339035528755 
-0.009436042927944373 
-0.006085606278523174 
0.008919462886232373 
-0.01653572115768646 
0.01374198227172811 
-0.004840589175042696 
-0.0002768984963283317 
0.00838439645847924 
-0.006362772095655978 
-0.01079823747706905 
-0.002912007481285379 
0.01279703655751818 
-0.002991292323675251 
-0.00360893603109959 
-0.008633978854130761 
0.004556989013242155 
0.009831449545389245 
-0.00114090032001565 
-0.006890601147424714 
0.00643626968688805 
0.002616311620943883 
0.003782117835140865 
-0.008675457478219167 
-0.01298485277679704 
0.009892997170426219 
0.006435216575005565 
0.01188930386365008 
0.000215642324761578 
-0.01396273621208343 
-0.005219865093708215 
0.005061489192201467 
0.01251208031828033 
-0.007454530890232257 
-0.002346712190749514 
0.001031068009493252 
0.01078369119871942 
-0.01246665105611735 
-0.004419689196971385 
-0.001064200989114378 
-0.005809264659550213 
-0.01022732327154901 
-0.003679078223358953 
0.01258950825243197 
0.003029629337856752 
-0.009738268643457629 
-0.01454642499116075 
0.006617902375481299 
0.017090181649462 
-0.02707529217258189 
-0.0135855401271603 
0.0270411114110183 
-0.004400212480595328 
-0.01230311958495621 
-0.01358254334178145 
0.0001128829721374784 
0.006627090788005756 
0.01211127585327718 
-0.01273337728820377 
-0.01021986807431719 
0.005049812144763275 
0.001998411642267445 
-0.01412938639280322 
-0.01381521692898183 
0.009353762039711506 
-0.0124859855839791 
-0.02139071324773629 
-0.01851035925381865 
0.02569680653966896 
0.006891994026714955 
-0.01266869073598377 
-0.006094326461336519 
0.01243939982972628 
0.01419226850312963 
-0.006820118878411121 
-0.01116521238169957 
0.006135479736196607 
-0.007624415685266731 
-0.007401763001092776 
-0.008665932222327389 
0.01302176149405478 
0.009995414475771257 
-0.007714085764593995 
0.002511854305936363 
0.00703990345166227 
0.002360870058334938 
0.005695575872669823 
0.006675815794666732 
0.002279285460747657 
0.01027941409468688 
-0.008408962554564062 
0.003696027014131682 
-0.0002497983364402117 
0.005009676220246422 
-0.002125155632385503 
-0.004554265566364621 
-0.005983353441074061 
0.01562333770864393 
0.002567739491199073 
-0.001679857710670561 
-0.006511812838221345 
-0.001286186020176069 
0.008025194843592945 
-0.003970358893899051 
-0.01183645067334665 
0.00781618899381162 
-0.002672642468232454 
-0.001668542681299482 
-0.00260066795663427 
0.007320317325693939 
-0.00893613051708125 
-0.004779572845974001 
-0.00710779461759557 
0.01371196474549455 
-0.01192514975221943 
-0.01734877393419011 
-0.0004620719487704374 
0.002252525308452592 
-0.008598300364157704 
-0.006887403568845807 
-0.004792907655406058 
0.02311178711690779 
-0.01795775024873921 
-0.01190208921015283 
-0.007043759271701433 
0.01230045788576069 
-0.01543523006095867 
-0.01264557814321388 
-0.004086273860229678 
-0.01096932609416974 
-0.0101686933155073 
-0.01739357005420792 
0.0129999059075712 
0.002388635630025103 
-0.009811771356923711 
-0.01197162343557765 
-0.001811827172692009 
0.0245302506916951 
-0.001754255264727977 
-0.01954172374621126 
-0.000468566849107427 
0.005280032538983073 
0.0002750523646045796 
-0.007181017867593145 
0.01033349704682318 
0.007773066133327101 
-0.003734587981711043 
0.0007652585331638373 
-0.002554231108563669 
0.009121588445915672 
-0.002784645407526679 
0.003510139929529866 
0.004448223898449396 
0.007665207798959569 
-0.003772450000911518 
-0.009477373073437139 
-0.00227784994710903 
0.00791733172069097 
0.005501814788883273 
0.005967750968622887 
-0.008010089950433898 
-0.004408216416180001 
-0.009799235790343881 
0.0009563573180347835 
-0.01033527462400653 
-0.00384822083484534 
0.008048826898609489 
-0.005643766526290837 
-0.005642150604501004 
-0.00326978691845308 
-0.0007931631301138358 
5.284987600875694e-05 
0.0006182483254388667 
0.003817656243737394 
0.001634093972766798 
-0.01138940659301632 
-0.01367647478298662 
-0.004101507227909666 
-0.005590175214935206 
-0.008254525627632583 
-0.006549036301542293 
-0.01131937805419431 
-0.01308581231703126 
-0.01694633850233365 
-0.008904387127300141 
0.03043272335681446 
-0.01584673531306567 
-0.009923842917859058 
0.00624903830867388 
0.01787232936211426 
-0.0222457296112222 
-0.01508492709648718 
-0.01333546524160295 
0.007951268260404687 
-0.01062186976412089 
-0.01047128762414768 
-0.001901946072605856 
-0.006388662567110773 
-0.006727690007977136 
0.005816950166366881 
-0.003163624208855063 
0.0110740359975229 
-0.004205151062637749 
-0.004393208072136391 
-0.001858490311803739 
-0.004481561575088946 
-0.007499333080576884 
-0.007283418592755586 
0.02134088057908959 
0.01793959055009901 
-0.004408177724495002 
-0.004450364633002389 
-0.01287510095719071 
0.003566781346631309 
0.002898476682250441 
-0.004207420492953163 
-0.0003703353754312969 
0.002985006830857422 
0.001113063229052562 
0.006674533780999385 
0.005569868035678423 
0.0103160296066044 
0.007631197599460121 
-0.004907306044060966 
-0.01036043714564472 
-0.0006015332724576689 
-0.008031386925163813 
-0.01265493705350534 
-0.006386145818402268 
0.0007845402785855885 
0.001140088520876013 
-0.002189187884107423 
-0.0003403535293208577 
-0.0006665498422670435 
0.00032080486701894 
-0.006379859223470464 
-0.01504581289005163 
0.001799934260902074 
-0.005012230543504645 
-0.01413705596623405 
0.0004190355215605372 
0.003838538695455582 
-0.01417417243370052 
-0.009870266875000668 
-0.009355182274713133 
-0.01435710831153644 
-0.002544772092135183 
-0.01252371942926491 
0.007828354651832266 
0.02188981950839841 
-0.01343336029090414 
-0.01005022262969512 
0.0002255357628867652 
-0.002367701870942442 
-0.01365932760987318 
-0.002022838620512027 
-0.00954509459033335 
-0.002601063468603804 
-0.01398506972540377 
0.001928888899502887 
0.01009957995212736 
-0.005546030510304473 
-0.008342443815475196 
-0.002556840980417452 
-0.003039971561668612 
-0.006392883900211083 
-0.01475121989947197 
-0.003642911104724299 
0.008681065917631403 
0.000667353357430183 
-0.002903586287871391 
-0.006105976560683264 
0.001999197384234302 
-0.0008937658524504734 
-0.00338718735183375 
-0.01289828839425392 
-0.009211888216348442 
0.007337562306873809 
0.01819808975230259 
-0.002099470752757649 
-0.003417809985987097 
0.006499474591837283 
-0.006657235664431767 
-0.002412004503833838 
-0.00987736573832057 
0.005008847708931684 
0.001101634117755585 
0.007932196702688736 
0.008301546993767074 
-0.003184450160887945 
0.001133516633798422 
0.002047753709571701 
-0.007978263833974266 
-0.006005933144851764 
0.008226746794544115 
0.001104769219064394 
-0.005058365636230188 
0.011066892123203 
0.009140526151881516 
2.1874391931831e-05 
-0.009331587287860908 
0.002324347115410463 
-0.002052590147175299 
-0.001594682941421683 
0.006467398338806429 
-0.002921499774111173 
-0.007821432449567995 
-0.001681840066270549 
0.002421566095111358 
-0.01923006732149556 
-0.01498364837177067 
-0.009598737440521071 
0.01946310586043611 
0.005661976517490706 
-0.01555156065884477 
-0.009250483166878144 
0.01051736639549519 
-0.001087370461893305 
-0.01316364936342411 
0.0004028475157255547 
-0.0001991115057893929 
0.006122345300780148 
-0.01125780815932815 
-0.01100140423266886 
0.01553136685801986 
-0.005632546474449854 
-0.006541463963431256 
0.01213070969045675 
-0.02495797670917041 
0.01773060188000469 
-0.0003808698640166728 
-0.008926577325478052 
0.02455493380166249 
-0.005852695446388801 
0.007216067053928932 
-0.00223674131363254 
0.01314427435957325 
0.01063630871771399 
-0.002737425662747487 
-0.005365510999344698 
-0.009641173351980439 
0.00255531716944579 
0.0001628107635913041 
0.008416385017226195 
-0.01300776715957071 
0.005219856425563122 
0.009227159844119009 
0.01773511955651439 
-0.003096023279160922 
0.002405271082148524 
-0.01300992915571703 
-0.002995862690219797 
-0.005372083080743015 
0.002780409646272839 
0.001428964202958329 
0.0112892404800976 
0.007825614373019105 
0.005686849773892156 
-0.01271356593724156 
-0.01151655100859541 
-0.007322779007368468 
0.003573869723314495 
0.006255100054277428 
0.01334504851301325 
0.006378270038576182 
0.005742011144168638 
-0.01909969401289164 
0.004970719082131697 
0.0002968455360026133 
-0.0004184240319545588 
-0.001576260488009149 
0.005607785116787965 
-0.006457193136971154 
-0.01186122516721518 
-0.006627240315126072 
0.007255917742790109 
0.002987643510264996 
0.004601201830840032 
0.009925855935815355 
0.003349725736209851 
-0.001771780751133888 
-0.00287352399432007 
-0.007329944682103254 
-0.001619729187646119 
0.007023900140434905 
-0.006262146769176519 
-0.004318951901911919 
0.01310021085970712 
1.57419321364207e-05 
-0.006080907273785852 
-0.005450618661195258 
-0.007358643804582186 
-0.012417931431139 
-0.002990351788577179 
-0.01164348902511226 
0.01297166337065959 
0.01123115246332238 
-0.0066470619634072 
-0.01106994732346222 
-0.009620878352570887 
0.001157362590466731 
-0.005525381317308371 
-0.006220087601375809 
0.0166262952536319 
-0.003185377800363477 
-0.006033957710706158 
0.006694483746282994 
0.008511189953294087 
-0.02048551599854741 
-0.007958517598069995 
-0.007859299828972103 
0.002669467055381704 
0.006728404760730796 
-0.003357457522927848 
0.01353578123398196 
-0.004872767775999673 
-0.01905254887684524 
-0.005524454483744807 
-0.005528628237493043 
-0.005336733765125099 
0.0005317051938265558 
-0.01076242527786396 
0.01072332533197753 
-0.01183092862730296 
-0.0005312410252291381 
0.007381500281341777 
-0.004885455764672032 
-0.007446795271683815 
-0.003842090262021655 
0.002796413723243637 
-0.001749942155613284 
0.006929748313236075 
-0.02005484313292907 
-0.002960447813395625 
-0.003788798879988428 
-0.009518427260283437 
0.009686218745309411 
0.009854258478335792 
0.005183544065423693 
-0.009689982397171823 
-0.001208999196892838 
-0.006908109818944396 
-0.006020329697327125 
0.008685677664417347 
0.004680672953584267 
0.002612143890407217 
-0.01320158968271903 
-0.01223449767799254 
0.008380241075584407 
0.008682875431152271 
-0.01221489370915381 
-0.0129529496554862 
0.01362609377519343 
-0.01312083253463074 
-0.01603704048077457 
0.009024096581389808 
0.009780902663908485 
-0.007970018502237115 
-0.01039715985041335 
0.01144028097683342 
0.002429202513143616 
0.001130781406327029 
-0.0003547766666753868 
0.01824133776620715 
-0.004169470499983565 
-0.01064585635835156 
-0.01263475046366331 
0.01244905898553708 
0.0005690475501235319 
0.0005722602342581636 
0.00242029770108203 
-0.008809477568811596 
-0.01479218570124362 
0.0087528479003912 
0.008090345724415705 
0.01876298881027318 
0.000167901178610927 
-0.01127033508351093 
-0.006971223675470746 
0.0039307044350449 
0.008609221237137692 
-0.007032006550045493 
-0.005303793943980738 
0.003018439741116161 
0.009550853012505073 
-0.01480546305513586 
-0.005895029279230967 
-1.706818153838912e-05 
-0.008045961084082443 
-0.00978626363164403 
-0.003669013905019326 
0.009631863804096129 
0.003207798553854987 
-0.007473067797905568 
-0.01300558874525787 
0.005260214124965564 
0.01752155147977924 
-0.02856827543315636 
-0.01417136006515323 
0.02790821338371412 
-0.004918099789408941 
0.008912322275084039 
0.009305542056331027 
0.005294123902117315 
0.004634250219742619 
0.01493339644022308 
-0.01212949146406747 
-0.002911805831940121 
-0.0007418376157306932 
0.000515920631667203 
0.005565585356570021 
-0.001894310652845826 
-0.001639888969861128 
0.009306788887619908 
0.001222791806595717 
-0.004426606275450553 
-0.002216986905674553 
0.0007808522841790372 
0.00966387975634429 
-0.002190900564930775 
-0.007786783619185436 
0.007596882787365775 
-0.00190033920399762 
-0.001050887410978656 
-0.005168811967287438 
0.004898940652957711 
-0.004555869719316944 
-0.001190713335430667 
-0.0058726114375528 
0.009624913801720683 
-0.01390527496701118 
-0.01452586371171691 
-0.005396397700475416 
-0.001436300290780377 
0.004668856664387966 
-0.001057950962862092 
0.0004915898828350742 
0.005712906413395132 
-0.00621250477875482 
-0.003358095135558838 
0.001589630977867625 
0.0001271706709362018 
0.005343105877147449 
-0.009330797777385652 
-0.003271928191987648 
-0.01901824908549112 
-0.003764850339499108 
-0.01208910516563316 
0.01416743082452536 
-0.0007920567524634232 
0.006892999202888122 
0.0108702682485183 
-0.003283391224173272 
-0.00154182969133853 
-0.002399778352828461 
-0.01557825139685655 
-0.00429842034717729 
-0.01823333369190224 
0.01387220533722168 
0.008763223623541093 
-0.01525960292677845 
0.007162595680842244 
-0.01783349609563408 
-0.01605291666663869 
0.00582255841092821 
-0.01165003649327458 
-0.02442282367412908 
0.01635088339847766 
0.01678026892003474 
-0.003206375000033182 
-0.00905062774880069 
-0.002787022548461809 
0.004368907271359016 
0.007287464156742138 
-0.004917775751438436 
-0.003937279985334005 
0.01448749777247424 
-0.01362462598895639 
-0.009111572448636798 
0.006076015911072767 
0.001885083134363687 
0.01220258133386849 
-0.009393651136215108 
-0.01216766458994207 
0.00577673559848762 
0.01072708128789656 
-0.001599722364703409 
-0.006850085789394788 
0.01869003048825079 
0.003223710818544495 
-0.003381474318613317 
-0.00923245696454404 
-0.00931528870466739 
0.006658682244646981 
0.002488804128704942 
0.001711523645493549 
0.004027285880330514 
0.00112015107279262 
-0.01485618351569353 
-0.008726879640466739 
0.00253921893334226 
0.01011208523908574 
-0.01607412993112803 
-0.01800845707568738 
0.008405706862799346 
-0.006895014041008559 
-0.01273321813317204 
-0.009374379647833933 
0.02324459903633506 
-0.006939691250807798 
-0.01532633565175885 
-0.01588834563217097 
0.007006382638418503 
0.002094890003153443 
-0.003213323141755389 
-0.002069318886786903 
0.001788780452499187 
0.01560784203055562 
-0.00154682201650227 
-0.00481356469433749 
-0.001434968702880797 
-0.007459198272503635 
-0.00694589105847254 
-0.002817661047868065 
-0.003761504575889467 
0.0009461091980166128 
-0.002458977777485477 
0.005394478492976456 
0.02126324914830808 
0.0007805731125714362 
-0.01372061247513969 
-0.004437463036610734 
0.002084715254538804 
0.01125360533445493 
-0.01370881588952682 
-0.01218693245020453 
0.01433112950579179 
0.01559203603226819 
-0.007749458898531874 
-0.009581108755588737 
0.008680887863114677 
0.003785400963848932 
-0.005452147615586808 
-0.01766556757332004 
0.01052096245055698 
0.006765128565522465 
-0.002930665959315939 
-0.01034289290999188 
0.009517730773421209 
0.02781606148346333 
-0.008241378327280131 
-0.01203470745364661 
-0.01524346506572785 
0.01946319475179455 
0.01427094607865519 
0.008099932297352338 
-0.01230787282202463 
-0.005636409195008653 
-0.005572029579105854 
0.0006840939655660209 
0.005025855698878887 
0.004763028255698823 
-0.004595344632500053 
-0.001217305184962715 
-0.0005903285344232922 
0.00679786444540123 
-0.002560779848549116 
-0.005928657236627475 
0.001660528230990273 
0.006433160382551688 
-0.003057929010943494 
0.002118901287099854 
-0.0105341986475316 
0.006593555545895634 
-0.008384434972535991 
-0.002049680725958411 
-0.01444207872069874 
-0.004470971388070321 
0.006434662982873598 
-0.002056185212200458 
-0.007135109296629566 
0.0002075860020212797 
0.0009625614931019803 
-0.003220648296888506 
-0.005211102001503206 
0.005637430591985214 
-0.005506494167362525 
-0.01366129024885792 
-0.01181231267053252 
-0.007112645178282736 
-0.006557929296187769 
-0.004833529707158237 
-0.00181589869577531 
-0.003005579931898632 
0.008649129311413775 
0.001555962865278962 
-0.0002370134317588405 
0.001475906652117574 
-0.001513217087950236 
0.006253021089638659 
0.004676402834252539 
0.01250705333440124 
0.008854460751767889 
-0.007391274057501528 
-0.003514131382055657 
-0.004809823500458352 
-0.005272819185460563 
-0.01391473967492005 
-0.0004376750056408715 
-0.002301731672980085 
-0.002358843891070305 
-0.003430890955744955 
4.96747204969118e-05 
0.005734146252034172 
0.001393231797481471 
-0.003931070713680449 
-0.01066740169337636 
0.007895008721220899 
-0.00644252828000766 
-0.008048520591833787 
0.001048825098785224 
0.008893718577532937 
-0.007551352744356719 
-0.008759050711631263 
-0.0121928121297776 
0.007820351822186681 
0.01472418102513959 
-0.002628302081577478 
0.002140740292845043 
0.005858770449538068 
-0.005229192195005157 
-0.005488070985728515 
-0.01201050675842814 
0.005605100202304522 
-0.007567802138542712 
0.009638490191518528 
0.0008495996242233087 
0.001942364564410084 
-0.004116996055907569 
5.019076550931347e-05 
-0.007092559055145844 
0.00614452499720585 
0.01048190221299796 
-0.001124082225244347 
-0.00102464757556058 
0.004018806801685097 
0.001509335944667604 
-0.00101004164860302 
-0.01163358552740957 
0.000363726974814228 
-0.004450635163706345 
0.001824065537715925 
0.01256776475443786 
-0.01171630505182171 
-0.007198440766518036 
-0.007304987167600935 
0.003929770642980609 
-0.001207675783836467 
0.002587574014408382 
0.003158739634156253 
-0.01173983685789692 
0.002956750686302224 
0.008908072053997658 
0.01834631961663023 
-0.003351971889344738 
-0.004577164338502313 
-0.003538557572991859 
-0.006207047527884143 
0.002433830769197204 
0.004135922768635208 
0.001206874769529087 
0.0002761348214861476 
0.01506486806548724 
-0.004647423087692084 
-0.0116882572897087 
-0.009266826036434216 
0.001561463178015112 
0.003565994427475971 
0.008394823627776833 
0.004924171758247492 
0.02611763506606412 
0.01077837829448808 
-0.0006239473138975773 
-0.002972228775224981 
0.002308734172823499 
-0.000969735462479824 
-0.009547878175050971 
-0.002324098528009048 
0.005507979422926866 
0.02282299919197754 
-0.01861096782839545 
-0.01688428198499704 
-0.01865455750028258 
0.007125928078253605 
-0.01075207769071043 
-0.007915921941145446 
-0.00704565098444072 
0.002628958287077078 
-0.02039508848967181 
-0.001966747512140294 
-0.002090744430926115 
0.01529169331999248 
-0.01224310787479114 
-0.008893553123550953 
0.007161897245748447 
-0.002626616647813967 
-0.006941566266460384 
-0.003960138530132557 
0.007064663106389972 
0.01269466812493478 
0.003261836351891795 
-0.005096561847508101 
-0.005234816651392239 
-0.002060423415504519 
0.002513016032928494 
0.002136955910134161 
0.008959548286931953 
-0.005570134514302151 
0.002339651455069604 
0.01008226730399563 
-0.006710308395744231 
0.004640695936292615 
-0.01013089326557478 
-0.007745531396722431 
-0.007960184199272738 
0.005349852209324675 
-0.01716157726602289 
-0.004806095670325453 
0.0009484037131294898 
-0.006054555776406925 
-0.01116905097699867 
0.002847269264168049 
-0.006687798549808579 
-0.01158729408677417 
-0.009270804668915361 
0.003558170335803071 
0.02631524166907511 
-0.006727012835048791 
-0.001721611205831734 
-0.007280925721277448 
0.003419214262012769 
0.004035488023860386 
-0.005948004740019518 
-0.009777771459756042 
-0.004764296585041332 
-0.01123149179521197 
0.007479130839476521 
0.002347263201272618 
0.006004212720789564 
-0.001972240449616802 
-0.0002629093765113334 
-0.003804464293075666 
-0.001879125854991641 
0.002319492016617051 
-0.01200323879805097 
-0.005129896536736595 
0.00664699867764693 
0.008565668139770766 
-0.01666047105929084 
-0.01304471555776354 
0.009363018062792081 
0.001679063173133408 
-0.008061098596901706 
0.004098081836257354 
-0.003915151073500561 
0.008403154322822787 
-0.01141795742134034 
-0.01256934391624328 
0.02064607334952622 
-0.004524435357858445 
-0.0005397796113849329 
0.00931690354199185 
-0.008550825311492869 
0.01230640866662951 
-0.007679588468591144 
-0.008999121954963236 
0.008416721823622332 
0.001089229322139828 
0.005552811515668196 
-0.002447560163994962 
0.0151773628269585 
0.005621953197516591 
-0.008018650720877811 
-0.004011958233095194 
0.00562129238243857 
-0.008765727794612288 
0.001244342357696525 
0.003725975387973167 
-0.001218887255587802 
-0.01092916140923869 
-0.01094222412942731 
0.009371295278300988 
0.00905534226722216 
-7.193030175726178e-06 
-0.003690715573809534 
-0.003719397275083536 
0.01002710512338088 
-0.001556651508923438 
-0.01663854693313747 
0.007343632714125576 
0.0005459241342765409 
0.006190427901637532 
-0.0008281322764929467 
-0.003517934068922049 
-0.005530655077576962 
-0.01796053998234784 
-0.00806499237463573 
0.006976404332751301 
0.005022301790029758 
-0.003990543701795114 
0.0003083809686331457 
-0.006621125113837265 
0.00426420062067324 
-0.0005686123560490846 
-0.009923555113710025 
0.01828325676420671 
-0.003696178363253978 
-0.004563054388878204 
-0.008094385642397442 
-0.005661173478255535 
-0.001694518112622152 
-0.0006166691545089254 
-6.978532782039665e-05 
-0.001576992192544751 
-0.001832346452450981 
-0.004556270313946094 
-0.005353205471868385 
-0.008392569675061313 
-0.00994188034539303 
-0.00482758047735988 
-0.006740569283951179 
-0.008425443606313204 
-0.01109379327606737 
-0.01052562710538535 
-0.007605800651199228 
-0.01303028046959349 
-0.009504475126823061 
-0.006264674340782732 
-0.01949476502905289 
-0.007646202216428076 
-0.009444561673423736 
-0.01387829221947684 
-0.008753563959533741 
-0.01434504487077724 
-0.009148596537016683 
-0.009380290889728084 
-0.02141911946198543 
-0.01284096762027537 
-0.008536323052597421 
-0.01426984112537264 
-0.0119246972271589 
-0.01684832905652872 
-0.01264435908853472 
-0.01579736192125425 
-0.01815358785356668 
-0.01593135498782141 
-0.007805047691938687 
-0.01058625970547854 
-0.01135325626229973 
-0.01875561286404665 
-0.01317810190693661 
-0.006986793240555179 
-0.01433418736632445 
-0.01718908716831422 
-0.01548797944248003 
-0.01227750707446444 
-0.01562411515871229 
-0.01605579971143864 
-0.01157089069269734 
-0.003032108611069473 
-0.002567154459276857 
-0.01337631383961651 
-0.01786379323191981 
-0.00249541152728444 
-0.003571282840599601 
-0.005827510175743762 
-0.003203738282346927 
-0.001327104498768642 
0.0004318499581155657 
-0.006458182064390383 
-0.01143082520127597 
0.00820119454558909 
0.006378745724365985 
0.004754533569945937 
0.005551379618510017 
0.007374765424261986 
0.007873745756981689 
0.006131851331410251 
0.005645209182286304 
0.008609141725054351 
0.01307684915721435 
0.002445640575339949 
-0.004918112756765797 
-0.003193871822601511 
0.001405545334785433 
-0.003302990434060931 
-0.00632606960820094 
0.003475379993117257 
0.01160577234348538 
0.00487433578844033 
-0.000998245291070122 
-0.005752450424315708 
-0.009766289168939575 
-0.001273415701800357 
-0.005894744447953394 
0.001166828630441443 
0.008935315853080593 
0.00448348996513735 
-0.00106672126222507 
-0.007143601167479215 
-0.0159572254630972 
-0.004337382113845126 
-0.005084216710119891 
-0.0009375052046657832 
0.008645977271337826 
0.002441919069869862 
-0.003480989257022352 
-0.0127650356052434 
-0.0143483250033635 
-0.008252499831105072 
-0.004768772033976494 
0.00360819415402159 
0.004654185917415487 
-0.00150680627989167 
-0.003425402898168463 
-0.005483574247522615 
-0.007773128351812705 
-0.007401450723638613 
-0.01144958726336003 
0.001550434058148903 
0.00134286411346477 
-0.001912490869017998 
-0.002122526907552495 
-0.0004708910281745374 
0.006398301823019875 
-0.005114186832788885 
-0.01326779215060639 
0.009799262222523038 
0.009314826464239844 
0.005905403496415466 
0.002813395209097428 
0.005673965566622286 
0.007758665598947866 
-0.001474591660537561 
-0.007840064057872787 
0.01082930846749879 
0.009262514468721783 
0.004544981320555218 
0.004786240303806788 
0.008199021805630135 
0.00874461625490015 
0.006384706837002415 
0.003921507068940655 
0.01284081282881989 
0.0143679406849976 
0.002991638706690331 
-0.003043763854709653 
-0.002876355381337918 
-0.001025197210693638 
-0.01034503996463462 
-0.01507077779644654 
0.007550889621948537 
0.01428759001153194 
0.007428366898010223 
0.00213726751736189 
-0.001619846227650973 
-0.00942889739659303 
-0.007316865522714966 
-0.01568713532493464 
0.004975848160112163 
0.008101776477689327 
0.0034054914846147 
-0.0003412867188498333 
-0.001668084321597851 
-0.01479111643914868 
-0.006655723388372522 
-0.01534593099412907 
0.001597188167113993 
0.009239381773091158 
0.004429311348973716 
-0.003230245427475326 
-0.01178019495883502 
-0.01466733778673805 
-0.01010000530972251 
-0.01375076229105447 
0.004535715620951408 
0.004536591107221467 
-0.001981398947411494 
-0.00329822991194062 
-0.006515686288772402 
-0.009634162765837952 
-0.01102433026597524 
-0.01871279041072476 
0.003589285633597351 
0.00166124092663934 
-0.00230340689720467 
-0.0009306843175182316 
-0.00108925605894452 
0.0003792617185035937 
-0.01082769396965039 
-0.01993832608952843 
0.009414470857571166 
0.007522039252000227 
0.002286477733276245 
-0.002933511235412382 
0.0001436285941488416 
0.000550507942910473 
-0.003964375694320578 
-0.0121700264213207 
-0.005731783687216026 
0 
-0.005287204774773921 
-0.0004090760325827279 
-0.005287204774773921 
0.0004090760325827279 
0.01053686754509041 
0 
0.008751197796245516 
-0.00134130100151665 
0.008751197796245516 
0.00134130100151665 
0.01078517754169983 
0 
0.007828466971841447 
-0.003099577456578379 
0.007828466971841447 
0.003099577456578379 
-0.01637127334626123 
0 
-0.01609533722661546 
-0.00294648357485846 
-0.01609533722661546 
0.00294648357485846 
-0.004243498540394491 
0 
-0.004712945578934268 
-0.002937293609137448 
-0.004712945578934268 
0.002937293609137448 
-0.008429103627146134 
0 
-0.007502462191900904 
-0.0003539381472623251 
-0.007502462191900904 
0.0003539381472623251 
0.001707169702425846 
0 
0.001306295372907536 
0.001080360966257515 
0.001306295372907536 
-0.001080360966257515 
0.002967307412096678 
0 
0.002354383620979454 
0.001739260899589525 
0.002354383620979454 
-0.001739260899589525 
-0.005901799849672092 
0 
-0.005635004163317813 
0.002501687047368808 
-0.005635004163317813 
-0.002501687047368808 
0.01274990082650262 
0 
0.00947982553142742 
-0.002890822548205894 
0.00947982553142742 
0.002890822548205894 
0.001211574065744661 
0 
-0.001275063176316223 
-0.005951410151604311 
-0.001275063176316223 
0.005951410151604311 
-0.01933568815875689 
0 
-0.01813878236718551 
-0.001677347617625522 
-0.01813878236718551 
0.001677347617625522 
-0.005243289186028798 
0 
-0.004545393839635734 
0.0005696784606813356 
-0.004545393839635734 
-0.0005696784606813356 
-0.006136328033005516 
0 
-0.0055911966797631 
0.0008349897416039498 
-0.0055911966797631 
-0.0008349897416039498 
-0.0018000213928596 
0 
-0.001980551048976203 
-0.0005718529954869366 
-0.001980551048976203 
0.0005718529954869366 
0.004095526604982262 
0 
0.001922211762078493 
-0.003421096685083522 
0.001922211762078493 
0.003421096685083522 
-0.002256353122939233 
0 
-0.003562802811920359 
-0.004561970544649139 
-0.003562802811920359 
0.004561970544649139 
0.004496385848666636 
0 
0.002870277506567008 
-0.0015302477583511 
0.002870277506567008 
0.0015302477583511 
-0.007596234059265542 
0 
-0.009180586779764195 
-0.004870830413597911 
-0.009180586779764195 
0.004870830413597911 
-0.001832675804159652 
0 
-0.002295870738990821 
-3.594725430654412e-05 
-0.002295870738990821 
3.594725430654412e-05 
0.005464582624556001 
0 
0.004635948373000052 
0.00207156163966876 
0.004635948373000052 
-0.00207156163966876 
-0.001803832424938017 
0 
-0.002617325164909934 
-0.002204969713473689 
-0.002617325164909934 
0.002204969713473689 
-0.003503040191581587 
0 
-0.003532116758309388 
-9.044751288054569e-05 
-0.003532116758309388 
9.044751288054569e-05 
0.002616493204878723 
0 
0.0004459293902091452 
-0.003904357122552965 
0.0004459293902091452 
0.003904357122552965 
0.00522559272007398 
0 
0.004745676101241154 
-0.0004211306755200067 
0.004745676101241154 
0.0004211306755200067 
-0.006937169464541178 
0 
-0.006626772602417115 
-0.0009328602541378865 
-0.006626772602417115 
0.0009328602541378865 
0.007232180657386983 
0 
0.005664205053010033 
-0.001887197685259169 
0.005664205053010033 
0.001887197685259169 
-0.01803191588264928 
0 
-0.01693111918218283 
-0.001974342463946324 
-0.01693111918218283 
0.001974342463946324 
0.001014970040515024 
0 
0.001079415113553523 
0.0008363575814278262 
0.001079415113553523 
-0.0008363575814278262 
-0.003622945557050481 
0 
-0.004547913761244417 
-0.001207097808117159 
-0.004547913761244417 
0.001207097808117159 
-0.002441079163517664 
0 
-0.002413104859311535 
0.0006426302606780027 
-0.002413104859311535 
-0.0006426302606780027 
0.009206385599078278 
0 
0.008382028787993221 
0.0003626276050416112 
0.008382028787993221 
-0.0003626276050416112 
0.000373239111558286 
0 
0.0001978249765826313 
0.001613556038718088 
0.0001978249765826313 
-0.001613556038718088 
0.00131506388893806 
0 
0.0005755013481768844 
-0.001758382755434552 
0.0005755013481768844 
0.001758382755434552 
0.004623218863219683 
0 
0.00298458756781142 
-0.00447967520229359 
0.00298458756781142 
0.00447967520229359 
0.009630044568345405 
0 
0.006873928710489078 
-0.005490254875612918 
0.006873928710489078 
0.005490254875612918 
0.001478413460957481 
0 
0.0002082246502585929 
-0.003055427114464884 
0.0002082246502585929 
0.003055427114464884 
0.008181240308708964 
0 
0.005258669463767702 
-0.004393542284783917 
0.005258669463767702 
0.004393542284783917 
0.0007485417618771455 
0 
-0.0003741599162368026 
-0.0007901089580409648 
-0.0003741599162368026 
0.0007901089580409648 
0.01177525429702119 
0 
0.01042189658316825 
-0.001527812152208323 
0.01042189658316825 
0.001527812152208323 
0.001599466124614734 
0 
0.001575192914727522 
0.0007399300912559199 
0.001575192914727522 
-0.0007399300912559199 
-0.003147783283278713 
0 
-0.003172267605564434 
0.001251558531625222 
-0.003172267605564434 
-0.001251558531625222 
0.003127421446749405 
0 
0.002133551270997357 
-0.001088874063217277 
0.002133551270997357 
0.001088874063217277 
-0.003416115968649862 
0 
-0.003558902497300155 
0.0003804529103228606 
-0.003558902497300155 
-0.0003804529103228606 
-0.005297054661377053 
0 
-0.005042124968757551 
0.0009102625664186576 
-0.005042124968757551 
-0.0009102625664186576 
-0.003564996153405208 
0 
-0.004596281151673308 
-0.003164226641737058 
-0.004596281151673308 
0.003164226641737058 
-0.002260118173851631 
0 
-0.002474884033800862 
-0.0007342595742449949 
-0.002474884033800862 
0.0007342595742449949 
-0.002685525859376788 
0 
-0.001547841613373966 
0.0004217045812432573 
-0.001547841613373966 
-0.0004217045812432573 
-0.001397185597415254 
0 
-0.002137866949219893 
0.0004012369028817294 
-0.002137866949219893 
-0.0004012369028817294 
-0.00433608929261443 
0 
-0.004013835950051697 
-7.714777575009032e-05 
-0.004013835950051697 
7.714777575009032e-05 
-0.009126739920308531 
0 
-0.008026051024539608 
0.002091317028416874 
-0.008026051024539608 
-0.002091317028416874 
-0.005084505286404572 
0 
-0.004023074705226058 
0.0008640360479656561 
-0.004023074705226058 
-0.0008640360479656561 
-0.008304673117066839 
0 
-0.007329090536335111 
-0.0003308193673025816 
-0.007329090536335111 
0.0003308193673025816 
-0.001870745442942776 
0 
-0.001619250407728301 
0.0005633282095090162 
-0.001619250407728301 
-0.0005633282095090162 
-0.01055033555317408 
0 
-0.009731389262489291 
0.001119029488195471 
-0.009731389262489291 
-0.001119029488195471 
0.02284175347174893 
0 
0.02023880860735515 
-0.001083080126361202 
0.02023880860735515 
0.001083080126361202 
-0.002295238237429333 
0 
-0.003472500204966544 
-0.001618349406196157 
-0.003472500204966544 
0.001618349406196157 
-0.0007913473206196326 
0 
-0.00130735926554863 
0.0008066986248066976 
-0.00130735926554863 
-0.0008066986248066976 
0.01149732615190954 
0 
0.01028136672147878 
-0.000779636002465183 
0.01028136672147878 
0.000779636002465183 
-0.01761543341284328 
0 
-0.01643895178126954 
0.000631614502715511 
-0.01643895178126954 
-0.000631614502715511 
0.002155922614810539 
0 
0.0013614256908506 
0.0005499560297495131 
0.0013614256908506 
-0.0005499560297495131 
-0.009532913661417154 
0 
-0.009300580584595085 
0.0001938746159146883 
-0.009300580584595085 
-0.0001938746159146883 
-0.01924654946758778 
0 
-0.01755400342181668 
0.003383245852132771 
-0.01755400342181668 
-0.003383245852132771 
0.000839576494423199 
0 
-0.00097593715689992 
-0.004114027221582744 
-0.00097593715689992 
0.004114027221582744 
0.01087872473220992 
0 
0.009565296697058107 
-0.001030123179763162 
0.009565296697058107 
0.001030123179763162 
0.01486270580026468 
0 
0.01153496932122051 
-0.006474165625375984 
0.01153496932122051 
0.006474165625375984 
-0.003340764540592668 
0 
-0.005817367382028846 
-0.007294863081317618 
-0.005817367382028846 
0.007294863081317618 
0.0006266770298251705 
0 
-0.001312130256545643 
-0.003284320385480989 
-0.001312130256545643 
0.003284320385480989 
0.003389442525612193 
0 
0.001125033039997528 
-0.005368167224323634 
0.001125033039997528 
0.005368167224323634 
0.0007725106980310702 
0 
-0.001019880766940815 
-0.004280020076666603 
-0.001019880766940815 
0.004280020076666603 
0.01434391474639153 
0 
0.01253448309557974 
-0.001284847160364411 
0.01253448309557974 
0.001284847160364411 
0.004128582053263485 
0 
0.003411220157006258 
-0.0007618308945995378 
0.003411220157006258 
0.0007618308945995378 
-0.001014726013424017 
0 
-0.0007657217430570915 
0.0007898829676736736 
-0.0007657217430570915 
-0.0007898829676736736 
-0.01040200658126543 
0 
-0.01001955010964771 
-0.001700275564136806 
-0.01001955010964771 
0.001700275564136806 
-0.009149586240659804 
0 
-0.008828596060711876 
-0.003275386079485274 
-0.008828596060711876 
0.003275386079485274 
0.008269928724007881 
0 
0.006135081140116398 
-0.002242744028634372 
0.006135081140116398 
0.002242744028634372 
0.005835474857291428 
0 
0.005180599930148282 
0.0007029902799143674 
0.005180599930148282 
-0.0007029902799143674 
-0.007808329950828905 
0 
-0.008676583481568238 
-0.003624376235458958 
-0.008676583481568238 
0.003624376235458958 
-0.003487956418771926 
0 
-0.004695559158259551 
-0.005726712365044057 
-0.004695559158259551 
0.005726712365044057 
0.009932253237680908 
0 
0.00892413396631607 
0.002751096114680879 
0.00892413396631607 
-0.002751096114680879 
-0.01114267978021289 
0 
-0.0114509713283959 
-0.00325530188270852 
-0.0114509713283959 
0.00325530188270852 
-0.01118781084414955 
0 
-0.01195094822865289 
-0.002855196749908466 
-0.01195094822865289 
0.002855196749908466 
0.01602120414289336 
0 
0.01411989984334045 
-0.002270371745111941 
0.01411989984334045 
0.002270371745111941 
0.008250258669159391 
0 
0.007116554566442127 
-0.0001920683699930369 
0.007116554566442127 
0.0001920683699930369 
-0.008676680484748078 
0 
-0.008984565765068869 
-0.001328713739245016 
-0.008984565765068869 
0.001328713739245016 
-0.01207379912218782 
0 
-0.01157143956394992 
-0.0002030244269460958 
-0.01157143956394992 
0.0002030244269460958 
0.01403322908904643 
0 
0.0121032403623593 
-0.001346900164881413 
0.0121032403623593 
0.001346900164881413 
0.003438570474367951 
0 
0.002331835093901212 
-0.002028673053286574 
0.002331835093901212 
0.002028673053286574 
0.0001835238093211368 
0 
0.0001990697651993602 
-0.001267969556728023 
0.0001990697651993602 
0.001267969556728023 
0.009057442722362804 
0 
0.008465153573349996 
1.941631338673222e-05 
0.008465153573349996 
-1.941631338673222e-05 
0.03462464973193721 
0 
0.03184050082648872 
-0.003241507237765673 
0.03184050082648872 
0.003241507237765673 
-0.0002559439315681698 
0 
-0.001786498875804356 
-0.003064779899090978 
-0.001786498875804356 
0.003064779899090978 
-0.00666679112922206 
0 
-0.0085066121850161 
-0.005391429713791044 
-0.0085066121850161 
0.005391429713791044 
-0.003561036503444665 
0 
-0.006199684823540643 
-0.007464781255713148 
-0.006199684823540643 
0.007464781255713148 
0.0199351314388737 
0 
0.01656778910824118 
-0.004312908303730675 
0.01656778910824118 
0.004312908303730675 
0.003012478831671337 
0 
0.001823287791416293 
-0.00372144808443666 
0.001823287791416293 
0.00372144808443666 
0.007581100885262806 
0 
0.006658248023084859 
-0.0003869421549371528 
0.006658248023084859 
0.0003869421549371528 
-0.001965747413045888 
0 
-0.003919277049199775 
-0.006955088611409681 
-0.003919277049199775 
0.006955088611409681 
0.02063651443615159 
0 
0.01791440397048728 
-0.001106969927122588 
0.01791440397048728 
0.001106969927122588 
0.01014654053255312 
0 
0.008968597318574396 
-0.002348604367860256 
0.008968597318574396 
0.002348604367860256 
0.01376183810123568 
0 
0.0120910255144033 
-0.001527893443278634 
0.0120910255144033 
0.001527893443278634 
-0.005804278587890617 
0 
-0.006579309393181064 
-0.003573946002470857 
-0.006579309393181064 
0.003573946002470857 
-0.0002816423301720036 
0 
-0.0007390415033289802 
-0.0006252724222127685 
-0.0007390415033289802 
0.0006252724222127685 
-0.0008930533775783443 
0 
-0.001746153787893486 
-0.003549060758927228 
-0.001746153787893486 
0.003549060758927228 
-0.004434901095601219 
0 
-0.004434255697858583 
-0.0005725374294277345 
-0.004434255697858583 
0.0005725374294277345 
-0.0123474682974076 
0 
-0.01192820443761859 
-0.000875994328235529 
-0.01192820443761859 
0.000875994328235529 
0.00916446704305608 
0 
0.006470567959158439 
-0.003003386133165828 
0.006470567959158439 
0.003003386133165828 
0.01343854668562216 
0 
0.01254282481476759 
0.002704752573402157 
0.01254282481476759 
-0.002704752573402157 
-0.003816060145311721 
0 
-0.004466183190763772 
-0.003733779385486618 
-0.004466183190763772 
0.003733779385486618 
-0.003472003202548075 
0 
-0.004209268512735747 
-0.002292479025358425 
-0.004209268512735747 
0.002292479025358425 
0.008766816243631903 
0 
0.007406857047171171 
0.0001716051447439747 
0.007406857047171171 
-0.0001716051447439747 
-0.01509624723386178 
0 
-0.01409260423727352 
-0.001722413192862227 
-0.01409260423727352 
0.001722413192862227 
0.01701073375407243 
0 
0.01491323521787483 
-0.001425644521937933 
0.01491323521787483 
0.001425644521937933 
8.256328169982012e-05 
0 
-0.001339907998074617 
-0.003735615239843677 
-0.001339907998074617 
0.003735615239843677 
0.004131929580214864 
0 
0.003034438420585739 
-0.002790275631652092 
0.003034438420585739 
0.002790275631652092 
0.006081275988334098 
0 
0.005214224780081558 
0.001272121813857309 
0.005214224780081558 
-0.001272121813857309 
-0.002575350981738736 
0 
-0.002652972534355437 
-0.002363603799868924 
-0.002652972534355437 
0.002363603799868924 
-0.009707213862342728 
0 
-0.01012969927059139 
-0.002205551026691943 
-0.01012969927059139 
0.002205551026691943 
0.001859765135540557 
0 
0.0001038352091672094 
-0.003622745250764804 
0.0001038352091672094 
0.003622745250764804 
0.01541914263509792 
0 
0.01380309881558942 
-0.0009357062195925175 
0.01380309881558942 
0.0009357062195925175 
0.0008055125653296114 
0 
-0.000570354472799176 
-0.003033056084909244 
-0.000570354472799176 
0.003033056084909244 
-0.002415588024734249 
0 
-0.002747536480056407 
-0.001210167848659081 
-0.002747536480056407 
0.001210167848659081 
-0.005189794624701502 
0 
-0.005661411963983537 
-0.002792592469378545 
-0.005661411963983537 
0.002792592469378545 
-0.001514367213903396 
0 
-0.0003259502027711484 
0.003960727175693264 
-0.0003259502027711484 
-0.003960727175693264 
0.01062834243211961 
0 
0.009333022478453398 
-0.0002936193298569815 
0.009333022478453398 
0.0002936193298569815 
0.003966523445147188 
0 
0.001420178785078683 
-0.00429005658683377 
0.001420178785078683 
0.00429005658683377 
-0.007087933043315673 
0 
-0.006906806132406566 
-0.0006330141156763373 
-0.006906806132406566 
0.0006330141156763373 
0.006732829736472152 
0 
0.006451549810276237 
0.0003866650635701073 
0.006451549810276237 
-0.0003866650635701073 
0.005769950822039229 
0 
0.005177359511145628 
-0.001495770231402811 
0.005177359511145628 
0.001495770231402811 
0.008373710120465266 
0 
0.007056754547198596 
-0.002587055177984174 
0.007056754547198596 
0.002587055177984174 
-0.00170333999100889 
0 
-0.003485376160603572 
-0.005280543107700568 
-0.003485376160603572 
0.005280543107700568 
-0.009291792681257072 
0 
-0.009853830242683116 
-0.003627854700144639 
-0.009853830242683116 
0.003627854700144639 
0.006807408399346558 
0 
0.006782569813499738 
0.002315921675857417 
0.006782569813499738 
-0.002315921675857417 
0.006643378975492529 
0 
0.006831167222510696 
0.0008681464799128211 
0.006831167222510696 
-0.0008681464799128211 
0.01379206676474091 
0 
0.01292704704522147 
-3.460294219724931e-05 
0.01292704704522147 
3.460294219724931e-05 
0.002022332369954621 
0 
0.002068603067802694 
-0.0006192063196124799 
0.002068603067802694 
0.0006192063196124799 
-0.01121964242310048 
0 
-0.0113035686675585 
-0.002792929395359219 
-0.0113035686675585 
0.002792929395359219 
-0.002015321530096573 
0 
-0.002177740496435584 
-0.002132531862540431 
-0.002177740496435584 
0.002132531862540431 
0.009470821738053007 
0 
0.007304916454302963 
-0.002952252507803675 
0.007304916454302963 
0.002952252507803675 
0.01438296750312027 
0 
0.01242891442023387 
-0.0009527214618748354 
0.01242891442023387 
0.0009527214618748354 
-0.001861985322452461 
0 
-0.002907422208628968 
-0.003841412883856284 
-0.002907422208628968 
0.003841412883856284 
0.006818536627591216 
0 
0.004445357804697534 
-0.006214649172923399 
0.004445357804697534 
0.006214649172923399 
0.008898845711351997 
0 
0.008331262463812288 
-0.003415058609962411 
0.008331262463812288 
0.003415058609962411 
0.00395349036639552 
0 
0.004435808253814694 
0.004371108891072343 
0.004435808253814694 
-0.004371108891072343 
-0.01286361744104348 
0 
-0.01202896959442259 
-0.0006887523440589039 
-0.01202896959442259 
0.0006887523440589039 
0.002392622951607629 
0 
-0.0001312202844961859 
-0.005258831120028 
-0.0001312202844961859 
0.005258831120028 
0.007392695182192461 
0 
0.004497329061239868 
-0.006060027345616712 
0.004497329061239868 
0.006060027345616712 
-0.006586165549682858 
0 
-0.00684733669009556 
-0.0006470308169146649 
-0.00684733669009556 
0.0006470308169146649 
-0.01271039822212538 
0 
-0.01202279898660154 
0.0001671759131936666 
-0.01202279898660154 
-0.0001671759131936666 
-0.003055985481438638 
0 
-0.003382843100235905 
-0.0009137840042781749 
-0.003382843100235905 
0.0009137840042781749 
0.01667291537380005 
0 
0.01549134468910628 
-0.001046558778369752 
0.01549134468910628 
0.001046558778369752 
0.001393986605511777 
0 
0.0003946966085124347 
0.0003876630965397012 
0.0003946966085124347 
-0.0003876630965397012 
-0.01070480659708068 
0 
-0.01060724183040572 
-0.0005959920623156065 
-0.01060724183040572 
0.0005959920623156065 
-0.01731459838763058 
0 
-0.01657577964184838 
-0.000123437223585264 
-0.01657577964184838 
0.000123437223585264 
0.01279068374396939 
0 
0.01108641935080254 
-0.003141280652365875 
0.01108641935080254 
0.003141280652365875 
0.0135029702063085 
0 
0.01233738588803682 
0.002512979430242827 
0.01233738588803682 
-0.002512979430242827 
-0.02465414519316471 
0 
-0.02298165992271612 
-0.002783523023689487 
-0.02298165992271612 
0.002783523023689487 
-0.01055005759837441 
0 
-0.01073141606043802 
-0.003147203996442855 
-0.01073141606043802 
0.003147203996442855 
0.02808774773563827 
0 
0.02647332861483564 
0.001287259742275818 
0.02647332861483564 
-0.001287259742275818 
-0.0005292441345889894 
0 
-0.001447514392039751 
-0.003104350885092599 
-0.001447514392039751 
0.003104350885092599 
-0.01236571042618807 
0 
-0.0116008301628038 
-0.0008696784748288471 
-0.0116008301628038 
0.0008696784748288471 
-0.01999233947471343 
0 
-0.01820296833043212 
0.002441989672015172 
-0.01820296833043212 
-0.002441989672015172 
0.002216014491444936 
0 
0.00134909833185649 
-0.001707052692141992 
0.00134909833185649 
0.001707052692141992 
0.005006176520592099 
0 
0.003818565753826003 
0.0002619492837248582 
0.003818565753826003 
-0.0002619492837248582 
0.01118217972442196 
0 
0.01034947017236837 
0.0009430856883405912 
0.01034947017236837 
-0.0009430856883405912 
-0.006024521850379367 
0 
-0.008192004322591585 
-0.005799443591185502 
-0.008192004322591585 
0.005799443591185502 
0.004174703523145289 
0 
0.0002153777378468499 
-0.01043464647913717 
0.0002153777378468499 
0.01043464647913717 
0.0018535892731358 
0 
0.001106067483073594 
0.001170542716621103 
0.001106067483073594 
-0.001170542716621103 
-0.0009175204350003298 
0 
-0.001340174376520416 
0.0009288316757123721 
-0.001340174376520416 
-0.0009288316757123721 
-0.0166161589329091 
0 
-0.01509739266030062 
0.0004799117721860313 
-0.01509739266030062 
-0.0004799117721860313 
-0.01128324739440036 
0 
-0.01331142016603414 
-0.004110113578435408 
-0.01331142016603414 
0.004110113578435408 
0.007846223912570675 
0 
0.006490709858333433 
0.0004038075154897509 
0.006490709858333433 
-0.0004038075154897509 
-0.007985044207845508 
0 
-0.009221050867523483 
-0.004672461864982638 
-0.009221050867523483 
0.004672461864982638 
-0.02237229505776691 
0 
-0.02183864224412782 
-0.001696827880695226 
-0.02183864224412782 
0.001696827880695226 
-0.01659264588323851 
0 
-0.01642956020820449 
-0.002827491903211671 
-0.01642956020820449 
0.002827491903211671 
0.01902932836329125 
0 
0.01729528753969464 
0.004185898627119851 
0.01729528753969464 
-0.004185898627119851 
0.009938031106742727 
0 
0.008692752766953865 
-0.001515963943701107 
0.008692752766953865 
0.001515963943701107 
-0.009449230004595631 
0 
-0.01095345563855397 
-0.003921291260142488 
-0.01095345563855397 
0.003921291260142488 
-0.006824730566174762 
0 
-0.007980358909593704 
-0.001388015831597325 
-0.007980358909593704 
0.001388015831597325 
0.01795397154837735 
0 
0.01536646808421025 
-0.002967120441951262 
0.01536646808421025 
0.002967120441951262 
0.02125301554601989 
0 
0.01802906435324187 
-0.003779533167694026 
0.01802906435324187 
0.003779533167694026 
-0.01091074257296449 
0 
-0.009864667385008593 
0.001815800258818481 
-0.009864667385008593 
-0.001815800258818481 
-0.009286990206866554 
0 
-0.008800325664340606 
-0.001680155188968266 
-0.008800325664340606 
0.001680155188968266 
0.008373025789329528 
0 
0.007309836997960536 
-0.0009374560380015591 
0.007309836997960536 
0.0009374560380015591 
-0.002574928034897707 
0 
-0.003054581215092178 
-0.00336959119060814 
-0.003054581215092178 
0.00336959119060814 
-0.006986006123615936 
0 
-0.007179839607925204 
-0.001002868073394246 
-0.007179839607925204 
0.001002868073394246 
-0.009465779677505075 
0 
-0.00959830610907419 
-0.0006324975095746608 
-0.00959830610907419 
0.0006324975095746608 
0.00769433263861375 
0 
0.007271283475732017 
0.003256198196260393 
0.007271283475732017 
-0.003256198196260393 
0.01194486509585076 
0 
0.01118318292428546 
2.120507160556855e-05 
0.01118318292428546 
-2.120507160556855e-05 
-0.001845780350031116 
0 
-0.003367787162536483 
-0.004519874079119929 
-0.003367787162536483 
0.004519874079119929 
0.002808334922313134 
0 
0.002569598178029709 
-7.44221877903765e-05 
0.002569598178029709 
7.44221877903765e-05 
0.007802452011990442 
0 
0.006640281150390602 
-0.000427365445731916 
0.006640281150390602 
0.000427365445731916 
0.002316891298780653 
0 
0.00175830212247248 
-1.934659234992353e-05 
0.00175830212247248 
1.934659234992353e-05 
0.01374461792368078 
0 
0.01088336555857061 
-0.004925467718206645 
0.01088336555857061 
0.004925467718206645 
0.01614015555409011 
0 
0.01227906073317083 
-0.006177735895426793 
0.01227906073317083 
0.006177735895426793 
0.005471771898786834 
0 
0.005355715317314495 
-0.001131915855003564 
0.005355715317314495 
0.001131915855003564 
0.009603005698772617 
0 
0.008486008174405126 
0.0004958037943477756 
0.008486008174405126 
-0.0004958037943477756 
-0.0005799809225756647 
0 
-0.002584929442626839 
-0.005610887824467451 
-0.002584929442626839 
0.005610887824467451 
0.01090521046732444 
0 
0.008559595466774466 
-0.004342822527085735 
0.008559595466774466 
0.004342822527085735 
0.002011278195778155 
0 
0.002252901420450603 
-0.0006774191904942833 
0.002252901420450603 
0.0006774191904942833 
0.008169878308581579 
0 
0.007277102471690847 
-0.001513425756510759 
0.007277102471690847 
0.001513425756510759 
0.004782533097157838 
0 
0.003066462142083122 
-0.004523347051072035 
0.003066462142083122 
0.004523347051072035 
-3.926769116595835e-05 
0 
-0.0003980787269965228 
-0.002693222794822251 
-0.0003980787269965228 
0.002693222794822251 
-0.006124706596113589 
0 
-0.00476358696583942 
0.0003705308584869351 
-0.00476358696583942 
-0.0003705308584869351 
0.01262007444167459 
0 
0.01120268488689461 
0.001871010098997316 
0.01120268488689461 
-0.001871010098997316 
0.002834609826120426 
0 
0.002389165776875965 
-0.0002159602184454318 
0.002389165776875965 
0.0002159602184454318 
0.005590431860513265 
0 
0.004636355910222345 
-0.003936034491397618 
0.004636355910222345 
0.003936034491397618 
-0.008640483995180319 
0 
-0.008278242303596237 
0.0002599763445211871 
-0.008278242303596237 
-0.0002599763445211871 
-0.0001769057040321564 
0 
-5.191876827668523e-05 
-0.0005758073856135415 
-5.191876827668523e-05 
0.0005758073856135415 
0.01196198998899097 
0 
0.01054181283617595 
-0.00168405150751048 
0.01054181283617595 
0.00168405150751048 
0.003290583429568606 
0 
0.001286162724015514 
-0.004923041200370254 
0.001286162724015514 
0.004923041200370254 
-0.01358496804012489 
0 
-0.01275932176052202 
-5.529649837723308e-05 
-0.01275932176052202 
5.529649837723308e-05 
0.00613538564784938 
0 
0.005078289764017544 
0.0007119403496667645 
0.005078289764017544 
-0.0007119403496667645 
-0.0006127777483529969 
0 
-0.001164097333737629 
-0.00171123228718327 
-0.001164097333737629 
0.00171123228718327 
0.0008113532290841864 
0 
3.192581774725133e-05 
-0.001889500330486384 
3.192581774725133e-05 
0.001889500330486384 
-0.002484305927007468 
0 
-0.002393569021804031 
-0.0002531589343736404 
-0.002393569021804031 
0.0002531589343736404 
0.003864553053706004 
0 
0.0032949616546834 
0.001564729768633887 
0.0032949616546834 
-0.001564729768633887 
-0.007614743650162515 
0 
-0.006950721730238475 
-0.001075988094246352 
-0.006950721730238475 
0.001075988094246352 
-0.006915596824365014 
0 
-0.006497458323876275 
0.0006792229724590244 
-0.006497458323876275 
-0.0006792229724590244 
-0.005946844101620184 
0 
-0.005737770420647 
-0.001070170880488686 
-0.005737770420647 
0.001070170880488686 
0.009219545109596015 
0 
0.008585799051456259 
0.002780777925575894 
0.008585799051456259 
-0.002780777925575894 
-0.01484643462505161 
0 
-0.01322974199391789 
0.001150683515100331 
-0.01322974199391789 
-0.001150683515100331 
-0.01894787799329385 
0 
-0.0173675188190326 
-9.631873494291602e-05 
-0.0173675188190326 
9.631873494291602e-05 
0.001676840853395901 
0 
0.0002526332578288663 
-0.00213335904618226 
0.0002526332578288663 
0.00213335904618226 
-0.0003476225110600526 
0 
-0.000898869492526032 
0.0009074615665525514 
-0.000898869492526032 
-0.0009074615665525514 
-0.006051125785020379 
0 
-0.00748576753711132 
-0.003350413291394854 
-0.00748576753711132 
0.003350413291394854 
0.0001872137828528335 
0 
-0.00156320068792863 
-0.005254401542000299 
-0.00156320068792863 
0.005254401542000299 
0.003075297663750382 
0 
0.001141127888569205 
-0.005261390267660836 
0.001141127888569205 
0.005261390267660836 
0.01644207522212077 
0 
0.01479904548555753 
0.00376301130467526 
0.01479904548555753 
-0.00376301130467526 
-0.02154557060113897 
0 
-0.01961732037718118 
0.001003614913501504 
-0.01961732037718118 
-0.001003614913501504 
-0.01346427080888449 
0 
-0.01223569764550063 
5.194519809059983e-05 
-0.01223569764550063 
-5.194519809059983e-05 
-0.00612483543747635 
0 
-0.006817371667158937 
-0.00186312167008597 
-0.006817371667158937 
0.00186312167008597 
0.006964279812585247 
0 
0.006624872105134893 
0.003191983424088707 
0.006624872105134893 
-0.003191983424088707 
-0.01742478401039867 
0 
-0.01570799325786791 
0.0003120637983186204 
-0.01570799325786791 
-0.0003120637983186204 
-0.009689186175653891 
0 
-0.009916464392368747 
-0.002871306688864241 
-0.009916464392368747 
0.002871306688864241 
-0.006647457284752928 
0 
-0.007427669294563695 
-0.000372838609467638 
-0.007427669294563695 
0.000372838609467638 
-0.006613674624707177 
0 
-0.006734638154840164 
-0.003362591978394204 
-0.006734638154840164 
0.003362591978394204 
-0.01682273353187606 
0 
-0.01492776060508728 
0.003247167909058768 
-0.01492776060508728 
-0.003247167909058768 
-0.02429283966130712 
0 
-0.022369450040371 
0.00264252563466414 
-0.022369450040371 
-0.00264252563466414 
0.006992684263763037 
0 
0.005704600756495499 
0.002782583195949799 
0.005704600756495499 
-0.002782583195949799 
0.00119429582519641 
0 
0.001866878891667066 
0.001068904350946247 
0.001866878891667066 
-0.001068904350946247 
-0.0107609639500104 
0 
-0.01024786524994505 
-0.0004096873853741221 
-0.01024786524994505 
0.0004096873853741221 
-0.0130203645800794 
0 
-0.01144011392577423 
0.000281822210526638 
-0.01144011392577423 
-0.000281822210526638 
0.006089992568984737 
0 
0.00472453664851835 
-0.00438149513728888 
0.00472453664851835 
0.00438149513728888 
0.02311032323014514 
0 
0.02098111741129677 
0.001392352751973631 
0.02098111741129677 
-0.001392352751973631 
-0.003843171883962439 
0 
-0.003266890384453609 
0.0009908146710153121 
-0.003266890384453609 
-0.0009908146710153121 
-0.02095158540245172 
0 
-0.02041731927939441 
-0.001377491012891905 
-0.02041731927939441 
0.001377491012891905 
0.003704232661348905 
0 
0.001325737973396715 
-0.003944240882347087 
0.001325737973396715 
0.003944240882347087 
0.01005850817704542 
0 
0.009261619848688615 
-0.001543510355414185 
0.009261619848688615 
0.001543510355414185 
-0.002519530393974268 
0 
-0.002095578242445846 
0.00177128716604898 
-0.002095578242445846 
-0.00177128716604898 
-0.004082200541025889 
0 
-0.003613959827639015 
-0.001633621655968946 
-0.003613959827639015 
0.001633621655968946 
0.007275925715700935 
0 
0.006740158356202359 
0.001971278209430402 
0.006740158356202359 
-0.001971278209430402 
0.006674555482504374 
0 
0.006490544949579302 
0.001611591944118898 
0.006490544949579302 
-0.001611591944118898 
-0.002133418635542813 
0 
-0.002178424627788276 
-0.00118858600256597 
-0.002178424627788276 
0.00118858600256597 
0.0006852620644627263 
0 
0.0007368094726195319 
0.0002211307495156225 
0.0007368094726195319 
-0.0002211307495156225 
0.002268126801763223 
0 
0.001731288692824719 
-0.002718510472711669 
0.001731288692824719 
0.002718510472711669 
0.01054282573299722 
0 
0.009464305666403484 
-0.0003638769945174522 
0.009464305666403484 
0.0003638769945174522 
0.004632501009021405 
0 
0.002791380643135635 
-0.004945896476411523 
0.002791380643135635 
0.004945896476411523 
0.01041314127986678 
0 
0.008248359264117254 
-0.004302766648645599 
0.008248359264117254 
0.004302766648645599 
0.0001449301374439579 
0 
-1.408196143498507e-06 
0.002112628165000582 
-1.408196143498507e-06 
-0.002112628165000582 
0.008397871986071396 
0 
0.007207918189487258 
-0.000205245545574132 
0.007207918189487258 
0.000205245545574132 
0.001686279019550744 
0 
-0.0006129553325311102 
-0.004536094006872843 
-0.0006129553325311102 
0.004536094006872843 
-0.0001502015585303918 
0 
-0.001988178383797201 
-0.006174705079866934 
-0.001988178383797201 
0.006174705079866934 
-0.000961876959690264 
0 
-0.001079096672392394 
-0.0009787620665995032 
-0.001079096672392394 
0.0009787620665995032 
0.00512074420002558 
0 
0.004628092109200819 
0.001525596342210488 
0.004628092109200819 
-0.001525596342210488 
0.007864972566376548 
0 
0.007812066653375491 
-0.0003472661755584142 
0.007812066653375491 
0.0003472661755584142 
0.009310316959351259 
0 
0.007573851589814692 
-0.001964220000573207 
0.007573851589814692 
0.001964220000573207 
-0.007463542882558521 
0 
-0.007292631139769253 
-0.001153451351259629 
-0.007292631139769253 
0.001153451351259629 
-0.004526328001132372 
0 
-0.003746258519217761 
0.0002760780597633035 
-0.003746258519217761 
-0.0002760780597633035 
-0.01310612405332116 
0 
-0.01021344015108114 
0.002473131844946228 
-0.01021344015108114 
-0.002473131844946228 
-0.003464021164882654 
0 
-0.002046022440685697 
0.003049907332044236 
-0.002046022440685697 
-0.003049907332044236 
-0.006586793178291024 
0 
-0.006056447327084278 
-0.002476680575273954 
-0.006056447327084278 
0.002476680575273954 
-0.004306902613823296 
0 
-0.00352257693364235 
0.0002507817879782111 
-0.00352257693364235 
-0.0002507817879782111 
0.009247813743079569 
0 
0.007969330433402044 
-0.0004741508243961407 
0.007969330433402044 
0.0004741508243961407 
-0.00355935144327822 
0 
-0.003176778264416444 
-0.001314596969655127 
-0.003176778264416444 
0.001314596969655127 
-0.007551424329406474 
0 
-0.007425782389794392 
0.0002413220580611981 
-0.007425782389794392 
-0.0002413220580611981 
-0.004782217792704224 
0 
-0.004584781376398212 
0.0004158035030045431 
-0.004584781376398212 
-0.0004158035030045431 
0.002476163811962962 
0 
0.001481182366863368 
-0.002034977076772589 
0.001481182366863368 
0.002034977076772589 
0.005444409187049273 
0 
0.004134738990032882 
-0.003298952965000645 
0.004134738990032882 
0.003298952965000645 
0.000798778881028712 
0 
0.0002177475293705084 
-0.0005453375202762304 
0.0002177475293705084 
0.0005453375202762304 
1.911909298841534e-05 
0 
-0.0001146243517229094 
0.00188952659810622 
-0.0001146243517229094 
-0.00188952659810622 
0.001274342197689011 
0 
0.001112658411635568 
0.0003323623088933826 
0.001112658411635568 
-0.0003323623088933826 
-0.009567935152914852 
0 
-0.01011476843867931 
-0.002572815685273631 
-0.01011476843867931 
0.002572815685273631 
-0.01211848667341463 
0 
-0.01229210717240049 
-0.002441444402009153 
-0.01229210717240049 
0.002441444402009153 
-0.00821699196104788 
0 
-0.00824539880008834 
0.0009511884238521057 
-0.00824539880008834 
-0.0009511884238521057 
-0.007432395870982831 
0 
-0.007980745157281198 
2.309488249980664e-05 
-0.007980745157281198 
-2.309488249980664e-05 
-0.00852772490395925 
0 
-0.009042474482786965 
-0.001004539062258757 
-0.009042474482786965 
0.001004539062258757 
-0.01095917410535491 
0 
-0.01003513467140878 
0.001553685855925748 
-0.01003513467140878 
-0.001553685855925748 
-0.007388682653703104 
0 
-0.006668537799570003 
-0.002426169628637419 
-0.006668537799570003 
0.002426169628637419 
-0.01360822347543358 
0 
-0.01331334725021066 
-0.0009462676984043755 
-0.01331334725021066 
0.0009462676984043755 
-0.0232650738254879 
0 
-0.02147683060140614 
0.002097325757949097 
-0.02147683060140614 
-0.002097325757949097 
-0.005556061132185449 
0 
-0.006613584355937717 
-0.003354069961982141 
-0.006613584355937717 
0.003354069961982141 
0.02731269486739149 
0 
0.02579605950829102 
0.003480866813845637 
0.02579605950829102 
-0.003480866813845637 
-0.01546175821212264 
0 
-0.01499694805880074 
-0.001739690166956698 
-0.01499694805880074 
0.001739690166956698 
-0.01342655767668652 
0 
-0.01238051393889673 
0.001217632134834444 
-0.01238051393889673 
-0.001217632134834444 
0.001351922164871375 
0 
0.0007565833470138539 
0.001803234959827621 
0.0007565833470138539 
-0.001803234959827621 
0.01234696608579031 
0 
0.01101576430234545 
0.003312898959824495 
0.01101576430234545 
-0.003312898959824495 
-0.02054345553350614 
0 
-0.02059827998063613 
-0.003232012265222594 
-0.02059827998063613 
0.003232012265222594 
-0.01572227334631685 
0 
-0.01570537777646116 
-0.001676841825369826 
-0.01570537777646116 
0.001676841825369826 
-0.0104610851245401 
0 
-0.01065827768832246 
-0.002844776540168393 
-0.01065827768832246 
0.002844776540168393 
0.003430994932329876 
0 
0.003435983379002447 
0.002470254044212976 
0.003435983379002447 
-0.002470254044212976 
-0.01337582487033632 
0 
-0.01380572895079966 
-0.0004555652282888617 
-0.01380572895079966 
0.0004555652282888617 
-0.008498087840430692 
0 
-0.00892903991990864 
-0.002256903596482312 
-0.00892903991990864 
0.002256903596482312 
-0.005754008149599872 
0 
-0.006375065736929599 
0.0008509840650301439 
-0.006375065736929599 
-0.0008509840650301439 
-0.00575116245791829 
0 
-0.005463918361860012 
-0.0008235914474899822 
-0.005463918361860012 
0.0008235914474899822 
-0.002768980871704822 
0 
-0.003494397253555939 
-0.002943949624477564 
-0.003494397253555939 
0.002943949624477564 
0.009280092893995017 
0 
0.007482993520091017 
-0.00206236765661364 
0.007482993520091017 
0.00206236765661364 
-0.0002177556255054148 
0 
-0.0001964507466499689 
-0.001675663344631731 
-0.0001964507466499689 
0.001675663344631731 
0.01154924997659765 
0 
0.01005607485816011 
-0.0005303783817987096 
0.01005607485816011 
0.0005303783817987096 
-0.003390371589652216 
0 
-0.002603663626520196 
-0.0002180449067509648 
-0.002603663626520196 
0.0002180449067509648 
-0.005260685102482227 
0 
-0.004064896244543052 
0.0006705165146412281 
-0.004064896244543052 
-0.0006705165146412281 
-0.001004570261920553 
0 
-0.002212499337848662 
-0.001579724529642455 
-0.002212499337848662 
0.001579724529642455 
-0.005289324057038638 
0 
-0.005288267689315806 
-0.0002169324250130808 
-0.005288267689315806 
0.0002169324250130808 
-0.00899894321488265 
0 
-0.007867051100288106 
0.0007218909542510505 
-0.007867051100288106 
-0.0007218909542510505 
-0.0048157634988595 
0 
-0.004662373002466202 
-0.001856963922387651 
-0.004662373002466202 
0.001856963922387651 
0.01844999251010648 
0 
0.01743108525736729 
0.002891794515960852 
0.01743108525736729 
-0.002891794515960852 
0.01916618962600673 
0 
0.01710178853757102 
1.819215094434345e-06 
0.01710178853757102 
-1.819215094434345e-06 
-0.003147577612846413 
0 
-0.004033515119011081 
-0.001754420726263028 
-0.004033515119011081 
0.001754420726263028 
-0.006481314566078156 
0 
-0.005746037913768271 
0.001011937688748597 
-0.005746037913768271 
-0.001011937688748597 
-0.002125668932955919 
0 
-0.003982191706157661 
-0.007097710236475712 
-0.003982191706157661 
0.007097710236475712 
0.004011161998456748 
0 
0.004339256522681544 
0.0005823973858647722 
0.004339256522681544 
-0.0005823973858647722 
0.005358391784126085 
0 
0.003515404792414123 
-0.002025334019110081 
0.003515404792414123 
0.002025334019110081 
0.004382386367614017 
0 
0.003451375618714035 
-0.004758833736191655 
0.003451375618714035 
0.004758833736191655 
0.0005368811443091625 
0 
-0.0007124550918894929 
-0.001497667005583993 
-0.0007124550918894929 
0.001497667005583993 
0.005186426139030931 
0 
0.004954178330971487 
-0.000594723367272964 
0.004954178330971487 
0.000594723367272964 
0.009690261528524683 
0 
0.006859145480341641 
-0.005762350985576446 
0.006859145480341641 
0.005762350985576446 
0.01765126101918539 
0 
0.01391050848164689 
-0.006667207235092554 
0.01391050848164689 
0.006667207235092554 
0.006008377366252785 
0 
0.005972082458333187 
0.0005850113767120186 
0.005972082458333187 
-0.0005850113767120186 
0.009587587308003787 
0 
0.008712747792358371 
0.0007001563535370401 
0.008712747792358371 
-0.0007001563535370401 
0.009058118658905318 
0 
0.007876426570736958 
-0.0004896410546860317 
0.007876426570736958 
0.0004896410546860317 
0.002010447662928398 
0 
0.0002666188891698218 
-0.00444707511158966 
0.0002666188891698218 
0.00444707511158966 
-0.01687924609349458 
0 
-0.01402043187578798 
0.003718412599006635 
-0.01402043187578798 
-0.003718412599006635 
-0.006892100335199472 
0 
-0.005223749937438589 
0.003878144139433601 
-0.005223749937438589 
-0.003878144139433601 
-0.008990331331128705 
0 
-0.007266288716943617 
0.0009579745445836232 
-0.007266288716943617 
-0.0009579745445836232 
-0.008133129680185203 
0 
-0.009200158483766544 
-0.004242872074939828 
-0.009200158483766544 
0.004242872074939828 
-0.00584839786549247 
0 
-0.00553473688735177 
-0.0009602630416699079 
-0.00553473688735177 
0.0009602630416699079 
-0.0003288315591800988 
0 
0.0001179429213662881 
0.0008339015557609318 
0.0001179429213662881 
-0.0008339015557609318 
0.00395805187220033 
0 
0.002849514282027595 
-0.001931110867947984 
0.002849514282027595 
0.001931110867947984 
0.001285577439400772 
0 
0.001458467703247465 
-0.001455894440373053 
0.001458467703247465 
0.001455894440373053 
-0.001933825724063929 
0 
-0.002164795769385652 
0.0003231768892956662 
-0.002164795769385652 
-0.0003231768892956662 
-0.0004843764784043604 
0 
-0.0001026861487923406 
0.0001321572209549771 
-0.0001026861487923406 
-0.0001321572209549771 
0.002951195059161671 
0 
0.001458092658227517 
-0.002233909110829669 
0.001458092658227517 
0.002233909110829669 
-0.0006883510731536176 
0 
-0.002564601868971168 
-0.004573440937262362 
-0.002564601868971168 
0.004573440937262362 
-0.01882543949257484 
0 
-0.01647790567260583 
0.001586615797004462 
-0.01647790567260583 
-0.001586615797004462 
0.0004711219433186262 
0 
-0.0002914964703653055 
0.0001104060405188363 
-0.0002914964703653055 
-0.0001104060405188363 
-0.003831116932830889 
0 
-0.004785419642775146 
-0.001680297310119659 
-0.004785419642775146 
0.001680297310119659 
-0.01887746866359436 
0 
-0.01771519391379074 
0.00133955715004141 
-0.01771519391379074 
-0.00133955715004141 
-0.002112754777304853 
0 
-0.002259914453679487 
0.0008635995650282133 
-0.002259914453679487 
-0.0008635995650282133 
0.001467066246497589 
0 
0.001934492794707575 
0.001750808618821492 
0.001934492794707575 
-0.001750808618821492 
-0.02375165856359053 
0 
-0.02035968570263889 
0.004962697080526803 
-0.02035968570263889 
-0.004962697080526803 
-0.0128250482218146 
0 
-0.01021865109185001 
0.002053176477208124 
-0.01021865109185001 
-0.002053176477208124 
-0.008514695654165579 
0 
-0.008442486788864258 
-0.00141313817790131 
-0.008442486788864258 
0.00141313817790131 
-0.006973477567327213 
0 
-0.006410673334104112 
-0.004410139727448872 
-0.006410673334104112 
0.004410139727448872 
-0.0005618603044253866 
0 
-0.001604973118801965 
-0.001860432624874203 
-0.001604973118801965 
0.001860432624874203 
-0.01305561504622383 
0 
-0.01327924533507022 
-0.001434467072430084 
-0.01327924533507022 
0.001434467072430084 
0.01033643507938469 
0 
0.00918375410718327 
-0.001033525364964389 
0.00918375410718327 
0.001033525364964389 
0.01758376817141694 
0 
0.01693914384222526 
0.003650153965987908 
0.01693914384222526 
-0.003650153965987908 
-0.01649955656566435 
0 
-0.01506252086050461 
0.0006734909264011343 
-0.01506252086050461 
-0.0006734909264011343 
-0.007348146206458022 
0 
-0.007951986494636958 
-0.002606004535829637 
-0.007951986494636958 
0.002606004535829637 
0.001360627781015019 
0 
0.0005481687739400536 
-0.001122210114523344 
0.0005481687739400536 
0.001122210114523344 
-0.00320525500378006 
0 
-0.003165152900101911 
4.289423238662243e-05 
-0.003165152900101911 
-4.289423238662243e-05 
-0.0170559881477969 
0 
-0.01531579281943776 
0.001153731623902838 
-0.01531579281943776 
-0.001153731623902838 
-0.00270995897979492 
0 
-0.00238123560072942 
0.0003211689980980795 
-0.00238123560072942 
-0.0003211689980980795 
-0.005854626589554299 
0 
-0.00516545082539678 
-0.001963737127695317 
-0.00516545082539678 
0.001963737127695317 
-0.00531526616252828 
0 
-0.005397135787246288 
0.000365656142644429 
-0.005397135787246288 
-0.000365656142644429 
-0.01596744374875671 
0 
-0.01383584751105464 
0.0008258443509883543 
-0.01383584751105464 
-0.0008258443509883543 
-0.0003905518957742906 
0 
0.001258543245027931 
0.002682870965828871 
0.001258543245027931 
-0.002682870965828871 
0.00448247804474952 
0 
0.004025389417906235 
0.003028498030424783 
0.004025389417906235 
-0.003028498030424783 
-0.008945154519650238 
0 
-0.007950538207486124 
0.001674763052211624 
-0.007950538207486124 
-0.001674763052211624 
-0.009945080670810477 
0 
-0.008572192576455707 
0.0006987313737322141 
-0.008572192576455707 
-0.0006987313737322141 
-0.007828149387506199 
0 
-0.005956241547493854 
0.003381789689996252 
-0.005956241547493854 
-0.003381789689996252 
-0.005356547964728074 
0 
-0.00486660874926042 
0.0007862228149032529 
-0.00486660874926042 
-0.0007862228149032529 
-0.009391450570321234 
0 
-0.00775336673957884 
0.001709325278156634 
-0.00775336673957884 
-0.001709325278156634 
-0.01789914436984145 
0 
-0.01629494983672259 
0.0008428134030771594 
-0.01629494983672259 
-0.0008428134030771594 
-0.003704573999561001 
0 
-0.003749788587134601 
-0.0003956024837568079 
-0.003749788587134601 
0.0003956024837568079 
0.00825933372781717 
0 
0.008002370664903509 
0.0008929434895131785 
0.008002370664903509 
-0.0008929434895131785 
-0.0009064450249384701 
0 
0.0004620544955346428 
0.001894794413290972 
0.0004620544955346428 
-0.001894794413290972 
-0.01247509601989912 
0 
-0.01004612917425861 
0.005523742166462522 
-0.01004612917425861 
-0.005523742166462522 
-0.008209563366712252 
0 
-0.008398964271774166 
2.936663727339253e-05 
-0.008398964271774166 
-2.936663727339253e-05 
-0.001281724355391707 
0 
-0.0006093471671778078 
0.002028417252366597 
-0.0006093471671778078 
-0.002028417252366597 
-0.001644939588308836 
0 
-0.001445267187528501 
0.0003109820326636646 
-0.001445267187528501 
-0.0003109820326636646 
0.0008574803285217739 
0 
-0.001281017864464202 
-0.003727321786050758 
-0.001281017864464202 
0.003727321786050758 
-0.02022736463020525 
0 
-0.01688851665848618 
0.004152303432910168 
-0.01688851665848618 
-0.004152303432910168 
-0.005895976666323468 
0 
-0.005323965810822459 
-0.00222051382922819 
-0.005323965810822459 
0.00222051382922819 
0.01038756369741699 
0 
0.009083285306655765 
-0.001556365051145417 
0.009083285306655765 
0.001556365051145417 
0.02328916833548703 
0 
0.01984661758178296 
-0.002645465828551677 
0.01984661758178296 
0.002645465828551677 
0.007442011031792261 
0 
0.006142779122485594 
-0.004968931175101619 
0.006142779122485594 
0.004968931175101619 
-0.002206337389985759 
0 
-0.002784995907623711 
-0.00157503486170431 
-0.002784995907623711 
0.00157503486170431 
0.007774081966924347 
0 
0.006649661729040539 
-0.0006306447256156832 
0.006649661729040539 
0.0006306447256156832 
-0.002624524369382048 
0 
-0.004149519170246531 
-0.003659884315948419 
-0.004149519170246531 
0.003659884315948419 
0.0006157554035664572 
0 
-0.0001813044302413372 
-0.002282462273697277 
-0.0001813044302413372 
0.002282462273697277 
-0.004233771021365367 
0 
-0.00540072786107632 
-0.004303769593495399 
-0.00540072786107632 
0.004303769593495399 
0.008836097994095689 
0 
0.00749090476673432 
-0.001945412153641407 
0.00749090476673432 
0.001945412153641407 
0.007337219777109447 
0 
0.006082816603127297 
-0.003439262699295203 
0.006082816603127297 
0.003439262699295203 
0.01168392048691048 
0 
0.01049533765022175 
-0.001427723875959929 
0.01049533765022175 
0.001427723875959929 
0.01038429579850277 
0 
0.01013291145184579 
0.0002686011622755846 
0.01013291145184579 
-0.0002686011622755846 
0.00258210810417988 
0 
0.001376234039611075 
-0.003558940456223851 
0.001376234039611075 
0.003558940456223851 
0.005977964361988759 
0 
0.004831912018765316 
-0.002845596347483311 
0.004831912018765316 
0.002845596347483311 
0.003095073066098618 
0 
0.002229543978648359 
-0.000870438845723661 
0.002229543978648359 
0.000870438845723661 
-0.008470298912889022 
0 
-0.006993547079171418 
0.0003550694403280797 
-0.006993547079171418 
-0.0003550694403280797 
-0.002643741147261561 
0 
-0.002235737728120058 
-0.001586481603207352 
-0.002235737728120058 
0.001586481603207352 
0.01337106160287345 
0 
0.0120435116143531 
-0.002117874631512303 
0.0120435116143531 
0.002117874631512303 
0.001978894776982671 
0 
0.001006696025528306 
-0.000791284610561986 
0.001006696025528306 
0.000791284610561986 
-0.008783727054908843 
0 
-0.008336735198409833 
0.001302408135424104 
-0.008336735198409833 
-0.001302408135424104 
0.01388412994037129 
0 
0.01323079977443059 
-0.000254680711665085 
0.01323079977443059 
0.000254680711665085 
0.01404098502488179 
0 
0.0112090059587055 
-0.003224411671614596 
0.0112090059587055 
0.003224411671614596 
0.01119084373271027 
0 
0.008570836731653141 
-0.007003340015805814 
0.008570836731653141 
0.007003340015805814 
-0.006561363621789646 
0 
-0.006999112324095533 
-0.002835387551607375 
-0.006999112324095533 
0.002835387551607375 
0.001745209783950013 
0 
0.001195768084266719 
-1.323896429345935e-05 
0.001195768084266719 
1.323896429345935e-05 
-0.002365438446174399 
0 
-0.001777903593251921 
0.0002704028671438464 
-0.001777903593251921 
-0.0002704028671438464 
0.004894920448527017 
0 
0.002496742721478637 
-0.004734593936279735 
0.002496742721478637 
0.004734593936279735 
-0.0007844478553734768 
0 
0.000693812428798042 
0.0049315707323006 
0.000693812428798042 
-0.0049315707323006 
0.000428007191804827 
0 
0.0003763671470038052 
-0.001664319641652725 
0.0003763671470038052 
0.001664319641652725 
-0.005186748772585331 
0 
-0.006890025899389134 
-0.003181049506683598 
-0.006890025899389134 
0.003181049506683598 
0.0009736346753564678 
0 
-7.09455951218806e-05 
-0.002118556698255288 
-7.09455951218806e-05 
0.002118556698255288 
0.0101728730934553 
0 
0.007991862076516002 
-0.004756285584748965 
0.007991862076516002 
0.004756285584748965 
-0.0170680828016091 
0 
-0.01531036712195968 
-0.001610839914424641 
-0.01531036712195968 
0.001610839914424641 
-0.01103654763128658 
0 
-0.01209747121178038 
-0.004112425865248849 
-0.01209747121178038 
0.004112425865248849 
-0.003500295102588299 
0 
-0.004904495635283478 
-0.005000411303472001 
-0.004904495635283478 
0.005000411303472001 
0.01910110439303904 
0 
0.01608828016926564 
-0.0001538644936111662 
0.01608828016926564 
0.0001538644936111662 
0.005992527522343477 
0 
0.004596971158198675 
-0.0009953691933736045 
0.004596971158198675 
0.0009953691933736045 
-0.01260534626911683 
0 
-0.01332643163096571 
-0.00392560301676213 
-0.01332643163096571 
0.00392560301676213 
-0.00323449662180778 
0 
-0.005255853488868645 
-0.005312315416241935 
-0.005255853488868645 
0.005312315416241935 
0.006920572612707026 
0 
0.005091333203993562 
0.001004473408777243 
0.005091333203993562 
-0.001004473408777243 
-0.001963990181095316 
0 
-0.00188244562536696 
0.0002832823108734489 
-0.00188244562536696 
-0.0002832823108734489 
-0.01371688976721726 
0 
-0.01290432391843032 
-0.0006236613800048764 
-0.01290432391843032 
0.0006236613800048764 
0.005664769628166669 
0 
0.003548269089546643 
-0.003757631643656632 
0.003548269089546643 
0.003757631643656632 
0.006197920760038492 
0 
0.004869957486876175 
-0.003801519575343406 
0.004869957486876175 
0.003801519575343406 
0.005970333927950839 
0 
0.004451658330285201 
-0.0006418832371612724 
0.004451658330285201 
0.0006418832371612724 
-0.009662904909422732 
0 
-0.009674441168182482 
-0.001878143918025066 
-0.009674441168182482 
0.001878143918025066 
-0.01188902316905124 
0 
-0.01129928101998388 
-0.0003514100771072484 
-0.01129928101998388 
0.0003514100771072484 
0.01218370884021601 
0 
0.01108550012749492 
0.002348196717974639 
0.01108550012749492 
-0.002348196717974639 
-0.005348527408699748 
0 
-0.00472437014352431 
-0.0004726340216323431 
-0.00472437014352431 
0.0004726340216323431 
-0.002691120321472894 
0 
-0.002170006695753853 
-0.002081813531693749 
-0.002170006695753853 
0.002081813531693749 
0.01836421472846856 
0 
0.01542495841544778 
-0.003435665130344425 
0.01542495841544778 
0.003435665130344425 
-0.01797725567689046 
0 
-0.0165216668852402 
-0.004356609036980961 
-0.0165216668852402 
0.004356609036980961 
0.01298975959714489 
0 
0.01315631948848249 
0.004281139786078678 
0.01315631948848249 
-0.004281139786078678 
0.0009150303325446463 
0 
0.001002094793135193 
-0.000574901570495526 
0.001002094793135193 
0.000574901570495526 
-0.001483119186496584 
0 
-0.002920000858088932 
-0.005548216408402004 
-0.002920000858088932 
0.005548216408402004 
0.01943814311966699 
0 
0.01835052346100887 
0.004275236632305601 
0.01835052346100887 
-0.004275236632305601 
0.001001993620083844 
0 
0.000513712353855486 
-0.003635362511165326 
0.000513712353855486 
0.003635362511165326 
0.004595499055984498 
0 
0.004160532744490651 
0.001544684421006743 
0.004160532744490651 
-0.001544684421006743 
-0.001817783729402443 
0 
-0.0006686235088839279 
0.0004353807238334461 
-0.0006686235088839279 
-0.0004353807238334461 
0.00990774308500778 
0 
0.01007468918504419 
0.003277236305839116 
0.01007468918504419 
-0.003277236305839116 
0.007700770872749141 
0 
0.008561831241958216 
0.003373758856146912 
0.008561831241958216 
-0.003373758856146912 
-0.002041932175083888 
0 
-0.001874751562553226 
-0.0002551824125145952 
-0.001874751562553226 
0.0002551824125145952 
-0.005446578846066797 
0 
-0.004887606404617344 
-0.0001197385395767149 
-0.004887606404617344 
0.0001197385395767149 
-0.004717401040662958 
0 
-0.005982466745976642 
-0.004314238609489447 
-0.005982466745976642 
0.004314238609489447 
0.008218282962946804 
0 
0.006849504493627063 
-0.002885136624502093 
0.006849504493627063 
0.002885136624502093 
0.009020232454142839 
0 
0.006909538678477455 
-0.005293138332983582 
0.006909538678477455 
0.005293138332983582 
0.01013310393257888 
0 
0.0088973693735062 
-0.000871158402817722 
0.0088973693735062 
0.000871158402817722 
-0.003045530443479939 
0 
-0.00448445584946569 
-0.006734613714839228 
-0.00448445584946569 
0.006734613714839228 
0.003667176508431816 
0 
0.004580962933098932 
0.001972463154503647 
0.004580962933098932 
-0.001972463154503647 
0.01754355548588099 
0 
0.01435618139076782 
-0.004754268524251368 
0.01435618139076782 
0.004754268524251368 
0.02175096721705413 
0 
0.01963666542543124 
-0.001371019786373496 
0.01963666542543124 
0.001371019786373496 
-0.003466686988742986 
0 
-0.003256683849031012 
-0.0001981067074031035 
-0.003256683849031012 
0.0001981067074031035 
0.007830757850189577 
0 
0.006449584092766316 
-0.002914949541146962 
0.006449584092766316 
0.002914949541146962 
-0.01106662847680426 
0 
-0.01080908395258361 
-0.00185582720640981 
-0.01080908395258361 
0.00185582720640981 
-0.00387709490315256 
0 
-0.003618109689582981 
0.0004588630426067158 
-0.003618109689582981 
-0.0004588630426067158 
0.001244636278065521 
0 
-0.0002668003400279082 
-0.004279602364872318 
-0.0002668003400279082 
0.004279602364872318 
0.001825271422837456 
0 
0.001689889201390801 
0.0006244330618337354 
0.001689889201390801 
-0.0006244330618337354 
0.003648090056017025 
0 
0.00346271539804949 
-0.001059337644823175 
0.00346271539804949 
0.001059337644823175 
0.01650192243974679 
0 
0.0135221892063594 
-0.003087251239264482 
0.0135221892063594 
0.003087251239264482 
0.01058842372811846 
0 
0.009215880373354062 
-0.001454970091863149 
0.009215880373354062 
0.001454970091863149 
0.01038882063512507 
0 
0.009607957766273224 
-0.001660904293906285 
0.009607957766273224 
0.001660904293906285 
-0.01101145508701019 
0 
-0.01039694125546505 
-0.001702131910165171 
-0.01039694125546505 
0.001702131910165171 
-0.01011052527739313 
0 
-0.01032803303302248 
-0.002288043749552296 
-0.01032803303302248 
0.002288043749552296 
-0.002563004915442818 
0 
-0.002639537630029633 
-0.00284522699254219 
-0.002639537630029633 
0.00284522699254219 
0.006848040037244 
0 
0.005268053104273083 
-0.002180577857284914 
0.005268053104273083 
0.002180577857284914 
0.01671218629186161 
0 
0.01259230087582014 
-0.006864503635693626 
0.01259230087582014 
0.006864503635693626 
0.01597012792841123 
0 
0.01371128631931948 
-0.001515774416193773 
0.01371128631931948 
0.001515774416193773 
0.005994894335439684 
0 
0.004890673398267386 
-8.245397246660051e-05 
0.004890673398267386 
8.245397246660051e-05 
0.008326336170393377 
0 
0.007981355562409401 
-0.0007549639017966706 
0.007981355562409401 
0.0007549639017966706 
-0.01874575086368103 
0 
-0.01816055513921937 
-0.001797980579258835 
-0.01816055513921937 
0.001797980579258835 
0.005139066152381179 
0 
0.004153309662901932 
-0.0001209459000418369 
0.004153309662901932 
0.0001209459000418369 
3.512884798772714e-05 
0 
0.0004675757014715894 
0.0005352460245142057 
0.0004675757014715894 
-0.0005352460245142057 
-0.002075560055033484 
0 
-0.0007949063108400366 
0.001628480851916579 
-0.0007949063108400366 
-0.001628480851916579 
0.005226317828236335 
0 
0.002852074735490984 
-0.004892021222806964 
0.002852074735490984 
0.004892021222806964 
0.006647184791907329 
0 
0.005829643669423972 
-0.0005103536203456036 
0.005829643669423972 
0.0005103536203456036 
-0.0078144181455835 
0 
-0.006967051599003872 
0.0004027708774764385 
-0.006967051599003872 
-0.0004027708774764385 
-0.006637884657997708 
0 
-0.006103455171234379 
-0.003198432926057611 
-0.006103455171234379 
0.003198432926057611 
1.696520082161795e-06 
0 
-0.001906956525882377 
-0.004830498500853325 
-0.001906956525882377 
0.004830498500853325 
0.01132221337652052 
0 
0.008903605705804708 
-0.002782634489260971 
0.008903605705804708 
0.002782634489260971 
0.006815827346881717 
0 
0.005195762976303053 
-0.00238675015936184 
0.005195762976303053 
0.00238675015936184 
0.00268202149850378 
0 
0.002341385180141746 
0.0009693016622746561 
0.002341385180141746 
-0.0009693016622746561 
0.01926173953874982 
0 
0.01540774151517181 
-0.005761817253846115 
0.01540774151517181 
0.005761817253846115 
0.01047161691549032 
0 
0.007426891774665598 
-0.005218725276285813 
0.007426891774665598 
0.005218725276285813 
-0.001207328519207926 
0 
-0.00145167932754259 
-0.0007325997747048433 
-0.00145167932754259 
0.0007325997747048433 
-0.0006678355172718678 
0 
-0.0007466809764273868 
-0.001431105821166009 
-0.0007466809764273868 
0.001431105821166009 
-0.006360355545296016 
0 
-0.006987613677634801 
-0.001615767857809643 
-0.006987613677634801 
0.001615767857809643 
-0.003013158848932113 
0 
-0.003048123438686891 
0.0005378608475012204 
-0.003048123438686891 
-0.0005378608475012204 
0.006006444366988481 
0 
0.005949532792489293 
0.001197813002435915 
0.005949532792489293 
-0.001197813002435915 
-0.007926945192808595 
0 
-0.00561671397154507 
0.002027692203687466 
-0.00561671397154507 
-0.002027692203687466 
-0.0003316669919492281 
0 
-0.0006907875221148983 
-0.002426141718962052 
-0.0006907875221148983 
0.002426141718962052 
0.01560383381621915 
0 
0.01323672572284616 
-0.001570658400273542 
0.01323672572284616 
0.001570658400273542 
0.00178604095479524 
0 
0.001490508547998699 
-0.0010671284968997 
0.001490508547998699 
0.0010671284968997 
-0.001964197707647156 
0 
-0.002058622625303289 
-0.002377861006472701 
-0.002058622625303289 
0.002377861006472701 
-0.00395475686128889 
0 
-0.005288863091960839 
-0.00225220319084459 
-0.005288863091960839 
0.00225220319084459 
-0.008510020278981668 
0 
-0.008095434231470291 
1.419626094340366e-05 
-0.008095434231470291 
-1.419626094340366e-05 
-0.0110153985395426 
0 
-0.009995716967125243 
-0.00115082626663104 
-0.009995716967125243 
0.00115082626663104 
-0.007590983045972689 
0 
-0.005129160481030041 
0.003520107054166318 
-0.005129160481030041 
-0.003520107054166318 
-0.01164891759183774 
0 
-0.01082207778080089 
-0.0006559474658163469 
-0.01082207778080089 
0.0006559474658163469 
0.007293273081384091 
0 
0.006629772642632301 
0.003159381253233077 
0.006629772642632301 
-0.003159381253233077 
0.009176789674902304 
0 
0.007796161393866166 
0.001047551200920474 
0.007796161393866166 
-0.001047551200920474 
-0.004101639851239282 
0 
-0.00486495950697474 
-0.00231360901171342 
-0.00486495950697474 
0.00231360901171342 
-0.01183551521008573 
0 
-0.01241849409726568 
-0.001598541362046931 
-0.01241849409726568 
0.001598541362046931 
-0.01004124684701204 
0 
-0.00939862245456514 
-0.0004774361580934332 
-0.00939862245456514 
0.0004774361580934332 
-0.003462825594259523 
0 
-0.003079872362271992 
0.002299652298554825 
-0.003079872362271992 
-0.002299652298554825 
-0.009959569518077775 
0 
-0.008027118325087044 
0.0029569704180143 
-0.008027118325087044 
-0.0029569704180143 
-0.00388796047330448 
0 
-0.003662838721407404 
-0.001498405336017585 
-0.003662838721407404 
0.001498405336017585 
0.01178313160147965 
0 
0.01043047289795219 
0.002626488765022767 
0.01043047289795219 
-0.002626488765022767 
0.001598618664360627 
0 
0.0007150571126425373 
-0.003171917236802859 
0.0007150571126425373 
0.003171917236802859 
-0.004546429843116636 
0 
-0.004806533441536619 
-0.001478986789501072 
-0.004806533441536619 
0.001478986789501072 
0.008826844273087425 
0 
0.007082735682463163 
-0.00147770125335443 
0.007082735682463163 
0.00147770125335443 
0.01230432264482654 
0 
0.008949828187845017 
-0.003432940331874427 
0.008949828187845017 
0.003432940331874427 
-0.01940004479612036 
0 
-0.01870835099000971 
-0.00243048853515095 
-0.01870835099000971 
0.00243048853515095 
-0.005059382819278566 
0 
-0.005436861299248036 
-0.002425905932464055 
-0.005436861299248036 
0.002425905932464055 
-0.007138229697731648 
0 
-0.007028544318413348 
-0.001232116719916464 
-0.007028544318413348 
0.001232116719916464 
0.002435319531627725 
0 
0.001990232452530661 
0.0002758916166595001 
0.001990232452530661 
-0.0002758916166595001 
0.003439434940123071 
0 
0.002527238454980237 
0.001473293727747712 
0.002527238454980237 
-0.001473293727747712 
-0.00873254534176616 
0 
-0.008271132968873532 
0.002045762175603731 
-0.008271132968873532 
-0.002045762175603731 
0.01603094974411111 
0 
0.01256992020554703 
-0.002444241671142226 
0.01256992020554703 
0.002444241671142226 
0.002603801967002668 
0 
-0.0001869653553550199 
-0.005895679685952167 
-0.0001869653553550199 
0.005895679685952167 
-0.01673435513868109 
0 
-0.01679018070498874 
-0.0034076400314556 
-0.01679018070498874 
0.0034076400314556 
-0.006755451520149493 
0 
-0.006109834392781236 
0.000478410041137725 
-0.006109834392781236 
-0.000478410041137725 
-0.008252191252528662 
0 
-0.00761424569317685 
0.001143770884170925 
-0.00761424569317685 
-0.001143770884170925 
-0.004430422134152187 
0 
-0.004360236986868661 
-0.0007000904812175875 
-0.004360236986868661 
0.0007000904812175875 
0.003493607113393575 
0 
0.001682285485716379 
-0.002581414036668237 
0.001682285485716379 
0.002581414036668237 
-0.005747339233064057 
0 
-0.006644547873462665 
-0.004050362951527705 
-0.006644547873462665 
0.004050362951527705 
0.009373759060148477 
0 
0.007695646533323707 
-3.394645846651215e-05 
0.007695646533323707 
3.394645846651215e-05 
-0.005817981305015763 
0 
-0.007791949441241649 
-0.005439597235478002 
-0.007791949441241649 
0.005439597235478002 
-0.001538736751551837 
0 
-0.001976084553416439 
1.312852931347581e-05 
-0.001976084553416439 
-1.312852931347581e-05 
0.003608340342497537 
0 
0.003090522983945702 
0.001989864092844974 
0.003090522983945702 
-0.001989864092844974 
-0.002408283332311505 
0 
-0.003184439401015128 
-0.001940798996848016 
-0.003184439401015128 
0.001940798996848016 
-0.008077618013887636 
0 
-0.007567294705901549 
-0.0001719646939432041 
-0.007567294705901549 
0.0001719646939432041 
0.001839175925136282 
0 
-0.0004647428184332708 
-0.00442430330673462 
-0.0004647428184332708 
0.00442430330673462 
0.004553018028716026 
0 
0.003581341071268679 
-0.001163737868809063 
0.003581341071268679 
0.001163737868809063 
-0.003673727048791371 
0 
-0.003185520795859784 
0.000831250499977528 
-0.003185520795859784 
-0.000831250499977528 
0.009079163660437718 
0 
0.00749055840295179 
-0.001388256221847209 
0.00749055840295179 
0.001388256221847209 
-0.01934108186812211 
0 
-0.0182383385994192 
-0.001824595057291338 
-0.0182383385994192 
0.001824595057291338 
-0.005428998069368179 
0 
-0.005064916647609686 
0.0008959693318893948 
-0.005064916647609686 
-0.0008959693318893948 
-0.00291281758805061 
0 
-0.004015564895968 
-0.001462574740982975 
-0.004015564895968 
0.001462574740982975 
-0.01076458098459185 
0 
-0.01010722705394357 
-0.0001348379079703609 
-0.01010722705394357 
0.0001348379079703609 
0.009604250085746169 
0 
0.0089129921809995 
0.000690555591034648 
0.0089129921809995 
-0.000690555591034648 
0.01342999419196674 
0 
0.0118200851542689 
-0.001550948956183103 
0.0118200851542689 
0.001550948956183103 
0.0174063647985319 
0 
0.0131675059530558 
-0.007918760589205435 
0.0131675059530558 
0.007918760589205435 
-0.001098416252403201 
0 
-0.003765742056335863 
-0.006770679208833112 
-0.003765742056335863 
0.006770679208833112 
0.00208892798652361 
0 
1.820661921371261e-06 
-0.003392029476594944 
1.820661921371261e-06 
0.003392029476594944 
0.0005264798839413708 
0 
-0.001473398616034895 
-0.005477017686860174 
-0.001473398616034895 
0.005477017686860174 
-0.0007721982119022664 
0 
-0.002719544334074124 
-0.00441953478946114 
-0.002719544334074124 
0.00441953478946114 
0.01129381113122301 
0 
0.009520758637925713 
-0.001377196534471024 
0.009520758637925713 
0.001377196534471024 
0.006268867385623064 
0 
0.005006168888490716 
-0.001332104788390591 
0.005006168888490716 
0.001332104788390591 
0.002219610691315426 
0 
0.001776104769353095 
0.0001571761417205292 
0.001776104769353095 
-0.0001571761417205292 
-0.01121767393095896 
0 
-0.01110355304484239 
-0.002286505208462691 
-0.01110355304484239 
0.002286505208462691 
-0.007384721885970696 
0 
-0.006826386198853539 
-0.002978281207292562 
-0.006826386198853539 
0.002978281207292562 
0.01212909782628246 
0 
0.009157799596627823 
-0.002887586278116738 
0.009157799596627823 
0.002887586278116738 
0.009609335422620234 
0 
0.008231253254848843 
-0.0004850294591391691 
0.008231253254848843 
0.0004850294591391691 
-0.00750178705298 
0 
-0.008627958061866909 
-0.004317882946974534 
-0.008627958061866909 
0.004317882946974534 
-0.005297351058939259 
0 
-0.006410353973402275 
-0.005653923495092759 
-0.006410353973402275 
0.005653923495092759 
0.01133134125052475 
0 
0.0098416994408789 
0.001240316720170732 
0.0098416994408789 
-0.001240316720170732 
-0.009112658555210247 
0 
-0.009461254948617643 
-0.003468181323539631 
-0.009461254948617643 
0.003468181323539631 
-0.01496667756534929 
0 
-0.01492432021132477 
-0.002350261339811819 
-0.01492432021132477 
0.002350261339811819 
0.01331776920544184 
0 
0.01138191535699576 
-0.002090333448138211 
0.01138191535699576 
0.002090333448138211 
0.01024523639773206 
0 
0.008786043918661494 
-0.000372709130596572 
0.008786043918661494 
0.000372709130596572 
-0.007760520713461178 
0 
-0.008374514299852821 
-0.001493133649010718 
-0.008374514299852821 
0.001493133649010718 
-0.01005081583773905 
0 
-0.01049451963890075 
-0.001532003441763651 
-0.01049451963890075 
0.001532003441763651 
0.01470620414044794 
0 
0.0128122946737079 
-0.001196491767553446 
0.0128122946737079 
0.001196491767553446 
0.004684585461672462 
0 
0.003292566452518769 
-0.001788578324695297 
0.003292566452518769 
0.001788578324695297 
0.002430325711190264 
0 
0.002334454867600727 
-0.0006234444854446661 
0.002334454867600727 
0.0006234444854446661 
0.0001382793094257481 
0 
-0.0001549234757034173 
-0.0008531369537518444 
-0.0001549234757034173 
0.0008531369537518444 
0.02627134042730714 
0 
0.02396936294640912 
-0.003025722148026057 
0.02396936294640912 
0.003025722148026057 
-0.001328109064294416 
0 
-0.002942383045858563 
-0.002773009116834937 
-0.002942383045858563 
0.002773009116834937 
-0.003726990934792845 
0 
-0.005820852680503943 
-0.00581611472257722 
-0.005820852680503943 
0.00581611472257722 
-0.003904658700669277 
0 
-0.006427673899241749 
-0.007114758288158216 
-0.006427673899241749 
0.007114758288158216 
0.01807488391427763 
0 
0.01518176054493676 
-0.003044239297821302 
0.01518176054493676 
0.003044239297821302 
0.007347591625973635 
0 
0.005335948765893894 
-0.004521452878543269 
0.005335948765893894 
0.004521452878543269 
0.004189983113644779 
0 
0.003639069230729094 
-0.001827429105434735 
0.003639069230729094 
0.001827429105434735 
0.006428048384243469 
0 
0.005229904775509497 
-0.002358752449758613 
0.005229904775509497 
0.002358752449758613 
-0.001490214505549406 
0 
-0.003475708256689104 
-0.005553960360144053 
-0.003475708256689104 
0.005553960360144053 
-0.01258680358368638 
0 
-0.01251242552158545 
-0.002705359469825701 
-0.01251242552158545 
0.002705359469825701 
0.006449016301945111 
0 
0.006602770594959503 
0.00197117273937118 
0.006602770594959503 
-0.00197117273937118 
0.008406124910163603 
0 
0.008270480251099954 
0.0007786051757500396 
0.008270480251099954 
-0.0007786051757500396 
0.02109641065044703 
0 
0.01953548320066428 
0.0001012206624290409 
0.01953548320066428 
-0.0001012206624290409 
0.002055807752614124 
0 
0.001952414966286728 
-0.0008329624211545853 
0.001952414966286728 
0.0008329624211545853 
-0.00934459624623913 
0 
-0.009709665261038784 
-0.002316296302021507 
-0.009709665261038784 
0.002316296302021507 
-0.004679778315672774 
0 
-0.004294876279511822 
-0.001471077485629531 
-0.004294876279511822 
0.001471077485629531 
0.007978584892139144 
0 
0.005401178716240791 
-0.003151415279175196 
0.005401178716240791 
0.003151415279175196 
0.009533303427232022 
0 
0.008224702021734476 
-0.0004058295011934536 
0.008224702021734476 
0.0004058295011934536 
-0.004373204749490944 
0 
-0.004489954743201042 
-0.001925301285531507 
-0.004489954743201042 
0.001925301285531507 
0.003382857524296266 
0 
0.001262055332607862 
-0.006185519616243355 
0.001262055332607862 
0.006185519616243355 
0.01125554895279219 
0 
0.01043380633443813 
-0.003617497227929486 
0.01043380633443813 
0.003617497227929486 
0.002572407423236129 
0 
0.002933417452498825 
0.004181700112722342 
0.002933417452498825 
-0.004181700112722342 
-0.01388451559049234 
0 
-0.01346471383371413 
-0.001923929486256567 
-0.01346471383371413 
0.001923929486256567 
-0.0005501464106643104 
0 
-0.002777349654778332 
-0.00461163519929074 
-0.002777349654778332 
0.00461163519929074 
0.00786206667529807 
0 
0.004954067904838964 
-0.005743607782788746 
0.004954067904838964 
0.005743607782788746 
-0.009194802122808671 
0 
-0.009059941548055221 
-0.000477434221972234 
-0.009059941548055221 
0.000477434221972234 
-0.0121503757024936 
0 
-0.01179005431585256 
-8.445992083951725e-05 
-0.01179005431585256 
8.445992083951725e-05 
-0.003686251202631885 
0 
-0.003786606895937822 
-0.0004421221133401604 
-0.003786606895937822 
0.0004421221133401604 
0.01518406771515333 
0 
0.01377947308679907 
-0.002153133396009082 
0.01377947308679907 
0.002153133396009082 
0.0005554070244215 
0 
-7.71601758833693e-05 
0.000897011750853244 
-7.71601758833693e-05 
-0.000897011750853244 
-0.008574366682195307 
0 
-0.008545016070955804 
-0.0002917950140855099 
-0.008545016070955804 
0.0002917950140855099 
-0.01371106504344778 
0 
-0.01354949553128036 
-0.001286584796510574 
-0.01354949553128036 
0.001286584796510574 
0.01059541718917446 
0 
0.009111235755798986 
-0.002732180160157 
0.009111235755798986 
0.002732180160157 
0.01408910981934628 
0 
0.01271361064669611 
0.002242984710229227 
0.01271361064669611 
-0.002242984710229227 
-0.02439336049890069 
0 
-0.02346620492707774 
-0.004319022417573246 
-0.02346620492707774 
0.004319022417573246 
-0.009802622400957311 
0 
-0.01039896185898813 
-0.004115794273508059 
-0.01039896185898813 
0.004115794273508059 
0.02750404538505377 
0 
0.02628431971925959 
0.002294247493529071 
0.02628431971925959 
-0.002294247493529071 
0.0007060353612750724 
0 
-0.0004131005034221691 
-0.004033516196868079 
-0.0004131005034221691 
0.004033516196868079 
0.007797925292371598 
0 
0.007072780081278698 
0.001087391077546995 
0.007072780081278698 
-0.001087391077546995 
0.02015154040465474 
0 
0.01662675568677608 
-0.006210811096099711 
0.01662675568677608 
0.006210811096099711 
0.014934752747654 
0 
0.01125301156190748 
-0.006352150475572224 
0.01125301156190748 
0.006352150475572224 
0.0091764340614373 
0 
0.008310927901611469 
-0.001996243160530355 
0.008310927901611469 
0.001996243160530355 
0.01195078458079132 
0 
0.01100596105555108 
0.002165868441133029 
0.01100596105555108 
-0.002165868441133029 
-0.004869182923577155 
0 
-0.006235977396551656 
-0.00528524296563962 
-0.006235977396551656 
0.00528524296563962 
0.004294013694089061 
0 
0.002416588887426537 
-0.004763211199317317 
0.002416588887426537 
0.004763211199317317 
0.001545798041713903 
0 
0.001811453659760849 
-0.0007242658012901767 
0.001811453659760849 
0.0007242658012901767 
0.003667516627890465 
0 
0.003140466338194209 
-0.001680871851307172 
0.003140466338194209 
0.001680871851307172 
0.0147554621031325 
0 
0.01162990824982254 
-0.005696550993397256 
0.01162990824982254 
0.005696550993397256 
0.003916599755139238 
0 
0.002947943723870235 
-0.003385026249090624 
0.002947943723870235 
0.003385026249090624 
-0.002104071563228044 
0 
-0.0008516566981697214 
0.0009561377970984435 
-0.0008516566981697214 
-0.0009561377970984435 
0.008908553813108006 
0 
0.007307350049888653 
-6.170260848371137e-05 
0.007307350049888653 
6.170260848371137e-05 
0.002180735759208356 
0 
0.001367153003231906 
-0.0009713489780311705 
0.001367153003231906 
0.0009713489780311705 
0.003290306226005298 
0 
0.002256877409874359 
-0.004445088839607437 
0.002256877409874359 
0.004445088839607437 
-0.004427985150136152 
0 
-0.004934280621703942 
0.000121176217025209 
-0.004934280621703942 
-0.000121176217025209 
0.000707414354213094 
0 
0.001137275452939244 
0.0004884415322401921 
0.001137275452939244 
-0.0004884415322401921 
0.01709758381694969 
0 
0.01459758903996567 
-0.003770534001205402 
0.01459758903996567 
0.003770534001205402 
0.008966439715349354 
0 
0.005861354977727344 
-0.007233093439239385 
0.005861354977727344 
0.007233093439239385 
-0.007630186694363334 
0 
-0.007680102286272922 
-0.00115440680573121 
-0.007680102286272922 
0.00115440680573121 
0.005767984601563363 
0 
0.00483236365028456 
0.0008765388490071148 
0.00483236365028456 
-0.0008765388490071148 
-5.245022160088107e-05 
0 
-0.0007759706312089197 
-0.001556205615722222 
-0.0007759706312089197 
0.001556205615722222 
0.0001003235762193986 
0 
-0.0002364529787915176 
-0.000860418732890335 
-0.0002364529787915176 
0.000860418732890335 
-0.003950653521152921 
0 
-0.003894467751640009 
-0.0009321386265680316 
-0.003894467751640009 
0.0009321386265680316 
0.0007216576541524313 
0 
0.0005273834073313476 
0.001839326538917293 
0.0005273834073313476 
-0.001839326538917293 
